svm_type c_svc
kernel_type rbf
gamma 0.00391
nr_class 3
total_sv 161
rho -16.1191 -37.5318 2.16088
label 2 1 0
nr_sv 75 16 70
SV
0 12083.62718597507 0:-0.28687999 1:-0.36082 2:0.69424999 3:0.107 4:0.1602 5:0.61078 6:0.41968 7:-0.99480999 8:-0.69494998 9:-0.29655001 10:-1.91219 11:-0.56181997 12:0.41424 13:-0.50463998 14:-0.048379999 15:-1.5562 16:-0.81832999 17:0.51547998 18:-0.67602998 19:-0.39855 20:-2.3763199 21:-0.53991997 22:0.48324001 23:-0.53492999 24:-0.01339 
0 1202.178975854133 0:-0.17818999 1:0.90082002 2:-0.30818 3:-0.30006 4:0.047290001 5:0.2674 6:0.15287 7:0.40358001 8:-0.16692001 9:-0.22996999 10:-0.62761998 11:0.09674 12:-0.18933 13:0.25733 14:0.54675001 15:-1.01004 16:0.77591997 17:-0.59068 18:0.47380999 19:0.63293999 20:-0.80628997 21:0.61675 22:-0.43917999 23:0.34129 24:0.70911002 
0 16384 0:0.82617003 1:1.23613 2:-0.044 3:-0.95528001 4:-0.36478999 5:0.55113 6:0.30502 7:-0.29078001 8:-0.31005001 9:0.68961 10:0.14656 11:-0.34298 12:0.59316999 13:-0.41896999 14:0.14974 15:0.18443 16:-0.55313998 17:0.61427999 18:-0.50071001 19:-0.077590004 20:0.51574999 21:-0.46979001 22:0.56766999 23:-0.44337001 24:0.00070999999 
0 4894.990774279051 0:1.18765 1:0.57200998 2:0.77135003 3:-0.28832 4:-0.1126 5:0.66316998 6:-0.36004999 7:-1.43556 8:-0.81639999 9:0.60387999 10:0.33037999 11:0.021880001 12:0.66012001 13:-0.35166001 14:0.61984998 15:0.25687 16:-0.20439 17:0.78647 18:-0.48436999 19:0.41883001 20:0.46865001 21:-0.06239 22:0.72425997 23:-0.40086001 24:0.54370999 
0 10862.46140288858 0:0.32475001 1:0.34386 2:0.18731 3:-0.91653001 4:-1.19763 5:0.13079999 6:0.43741 7:0.62589997 8:0.59254998 9:1.10384 10:0.13221 11:-0.77471 12:0.65495002 13:-0.60257 14:-0.61703002 15:0.65996999 16:-0.94057 17:0.63384002 18:-0.72797 19:-0.8786 20:0.77982998 21:-0.86022002 22:0.66772002 23:-0.64503002 24:-0.80751997 
0 2777.249863754833 0:-1.24769 1:-1.11783 2:-0.56765997 3:-0.27511001 4:0.53693998 5:1.4948 6:0.86693001 7:-0.56064999 8:-0.22596 9:-1.14544 10:-0.43805999 11:-0.79128999 12:0.64488 13:-0.62058997 14:-0.61302 15:-0.12853 16:-0.92317998 17:0.61783999 18:-0.74056 19:-0.67444003 20:-0.07649 21:-0.90087003 22:0.67122 23:-0.66924 24:-0.8125 
0 6523.50900248058 0:-2.066 1:-2.3504901 2:-1.4163001 3:-0.39111 4:-0.36579001 5:0.85521001 6:2.5459599 7:1.14563 8:1.16219 9:-1.39483 10:-0.86268002 11:-1.11935 12:0.57883 13:-0.66501999 14:-2.3863299 15:-0.10914 16:-1.15046 17:0.59798998 18:-0.76642001 19:-2.39622 20:-1.38955 21:-1.10233 22:0.66126001 23:-0.69119 24:-2.33798 
0 9652.133724668207 0:0.74269998 1:0.01253 2:1.21738 3:-0.34966001 4:0.11534 5:0.55609 6:-0.14008 7:-1.22032 8:-0.86715001 9:0.37627 10:0.17264 11:-0.32888001 12:0.75959003 13:-0.49645001 14:0.24039 15:0.25099 16:-0.50380999 17:0.90285999 18:-0.60194999 19:0.032990001 20:0.61878002 21:-0.46976 22:0.77126998 23:-0.57100999 24:0.099059999 
185.8988319455266 0 0:-1.31643 1:-1.50744 2:-1.41889 3:-0.72816998 4:0.48941001 5:0.48662001 6:1.05423 7:1.37435 8:0.34867999 9:-0.39708999 10:1.3353699 11:-0.96008998 12:0.59636003 13:-0.64482999 14:-1.0879101 15:0.69327003 16:-0.37456 17:0.64428997 18:-0.62254 19:-0.2366 20:0.98148 21:-0.64616001 22:0.65192997 23:-0.62189001 24:-0.33673999 
0 5505.494472469585 0:0.58135998 1:0.43054 2:0.10943 3:-0.99918002 4:0.99391001 5:1.7101901 6:-0.46022001 7:-1.35909 8:-1.02937 9:-0.37566 10:-1.8939 11:-0.1982 12:0.80971998 13:-0.41749001 14:0.31208 15:-1.44806 16:-0.34061 17:0.69292003 18:-0.47793001 19:0.16624001 20:-1.49625 21:-0.31128001 22:0.71195 23:-0.4707 24:0.20437001 
0 470.4555509415674 0:-0.37909999 1:-0.50391001 2:-0.91165 3:0.23342 4:1.83097 5:1.9418 6:-0.65433002 7:-1.72767 8:-1.1610399 9:-1.76011 10:-0.12267 11:0.72386998 12:0.044610001 13:0.4149 14:0.83056003 15:0.28417 16:0.39273 17:-0.76616001 18:0.49261001 19:0.50415999 20:0.26355001 21:0.43573999 22:-0.54469001 23:0.37524 24:0.59593999 
173.4252831478971 0 0:-2.0945899 1:-1.6130199 2:-2.4544301 3:-1.48965 4:-0.34000999 5:1.21005 6:1.31033 7:1.68486 8:2.6685901 9:-1.05784 10:1.15309 11:-1.05976 12:0.57384998 13:-0.66165 14:-1.64916 15:1.28991 16:-0.89699 17:0.58146 18:-0.73049998 19:-0.64569002 20:0.90785998 21:-0.97342998 22:0.62414002 23:-0.67631 24:-1.23514 
1226.4066502357 0 0:-0.98777997 1:0.47418001 2:-2.08621 3:-1.72533 4:-0.49818999 5:0.54742998 6:0.41767001 7:1.82772 8:2.3392401 9:-0.1108 10:2.3585999 11:-0.93397999 12:0.50029999 13:-0.63542998 14:-1.32095 15:2.1452601 16:-0.66587001 17:0.15014 18:-0.50520998 19:-0.67631 20:1.94739 21:-0.72334999 22:0.30518001 23:-0.51157999 24:-0.90919 
0 16384 0:0.42589 1:0.60047001 2:0.084569998 3:-0.44225001 4:-0.83386999 5:0.34103 6:1.0324399 7:-0.13654999 8:-0.36199 9:0.64235002 10:0.80233997 11:-0.83662999 12:0.44176999 13:-0.58437997 14:-0.74589998 15:1.38617 16:-0.93528003 17:0.45943999 18:-0.69331998 19:-0.89543998 20:1.247 21:-0.87026 22:0.55773002 23:-0.62981999 24:-0.88385999 
0 16384 0:0.14557999 1:-0.053410001 2:-0.41635001 3:-0.84486002 4:-0.91931999 5:0.88945001 6:1.16939 7:-0.0094999997 8:0.01305 9:0.67115998 10:0.20727 11:-0.75722998 12:0.56296998 13:-0.57951999 14:-0.59903002 15:0.41668001 16:-0.92183 17:0.55536997 18:-0.69454998 19:-0.75933999 20:0.74985999 21:-0.84082001 22:0.58236003 23:-0.59780002 24:-0.77923 
94.70678669610729 0 0:-1.0335 1:-1.03181 2:-0.83893001 3:0.01488 4:1.8568799 5:0.016559999 6:-0.54291999 7:0.098889999 8:-0.0548 9:-1.01902 10:0.93892998 11:-0.036669999 12:-1.05068 13:0.71517998 14:0.06261 15:0.50213999 16:0.11252 17:-0.45734999 18:0.090219997 19:0.59285003 20:0.54538 21:0.10896 22:-1.26763 23:1.00283 24:0.27147001 
0 16384 0:0.45368001 1:1.1077501 2:-0.56248999 3:-0.81638998 4:-0.86515999 5:0.4883 6:1.0667599 7:0.074249998 8:-0.12228 9:0.79172999 10:0.46974 11:-0.57767999 12:0.46621999 13:-0.49013001 14:-0.27552 15:0.61070001 16:-0.80757999 17:0.52572 18:-0.65959001 19:-0.46070999 20:0.76877999 21:-0.74273998 22:0.55273002 23:-0.56704998 24:-0.50294 
0 11903.37002201282 0:0.12393 1:0.1856 2:-0.21225999 3:-0.89278001 4:-0.94652998 5:0.30057001 6:0.96245003 7:0.30327001 8:0.38449001 9:0.88905001 10:-0.69253999 11:-0.72580999 12:0.52863997 13:-0.59324002 14:-0.51953 15:-0.12024 16:-0.88178998 17:0.50778002 18:-0.69549 19:-0.67230999 20:-0.19023 21:-0.85767001 22:0.58104002 23:-0.63194001 24:-0.77684999 
0 3716.037478633242 0:0.40538999 1:0.35725001 2:0.36478001 3:-0.51547003 4:0.25913 5:0.26492 6:-0.0029800001 7:-0.022980001 8:-0.48179999 9:0.061239999 10:-0.97785002 11:-0.20983 12:0.65182 13:-0.45242 14:0.31213 15:-0.95170999 16:-0.47558001 17:0.83666998 18:-0.55587 19:0.10616 20:-0.76348001 21:-0.46560001 22:0.66395003 23:-0.53738999 24:0.12269 
0 16384 0:0.11819 1:0.70387 2:-0.11775 3:-0.72803998 4:0.47580999 5:0.62054998 6:0.42919001 7:-0.27875999 8:-0.65298003 9:-0.12568 10:-0.963 11:-0.86755002 12:0.65916002 13:-0.62958997 14:-0.75136 15:-0.79736 16:-0.87822998 17:0.59586 18:-0.7044 19:-0.67180002 20:-0.63945001 21:-0.81620002 22:0.67901999 23:-0.63998002 24:-0.64643002 
0 2754.993748031458 0:0.35679001 1:1.02457 2:0.13189 3:-0.61229998 4:-0.06679 5:0.80506003 6:0.31845 7:-0.73932999 8:-0.73260999 9:0.33001 10:-0.30050001 11:-0.72939998 12:0.61379999 13:-0.60637999 14:-0.34748 15:0.10816 16:-0.81733 17:0.65342999 18:-0.69849002 19:-0.41181001 20:-0.0218 21:-0.74921 22:0.67066002 23:-0.62786001 24:-0.41178 
0 16384 0:1.55825 1:1.4253 2:0.64881998 3:-1.1587 4:-1.77019 5:-0.14161 6:0.95582998 7:0.40917999 8:-0.02355 9:1.89072 10:-0.16063 11:-0.54521 12:0.58324999 13:-0.55803001 14:-0.12616999 15:0.094599999 16:-0.81559998 17:0.57422 18:-0.69634998 19:-0.40871 20:0.094290003 21:-0.70577002 22:0.62404001 23:-0.60319 24:-0.31536001 
0 10070.24374502202 0:1.95573 1:2.1004901 2:0.77934003 3:-1.02194 4:-1.3236001 5:-0.28448001 6:0.72821999 7:-0.14597 8:-0.29829001 9:1.5747499 10:-0.22923 11:-0.25455001 12:0.61144 13:-0.36963999 14:0.33586001 15:-0.059870001 16:-0.50515002 17:0.56173998 18:-0.53078002 19:0.18703 20:0.24166 21:-0.38872999 22:0.56212997 23:-0.42309999 24:0.18968999 
0 3456.883511581463 0:1.94133 1:1.7068 2:0.31691 3:-1.2722501 4:-1.74044 5:0.025450001 6:0.83148998 7:-0.22232001 8:-0.02055 9:2.19328 10:0.2189 11:-0.59937 12:0.54733002 13:-0.54822999 14:-0.1832 15:0.69428998 16:-0.81279999 17:0.54049999 18:-0.68032002 19:-0.41308999 20:0.75137001 21:-0.70507002 22:0.59894001 23:-0.58656001 24:-0.35156 
996.1139490792191 0 0:-2.0811801 1:-1.50621 2:-2.31723 3:-1.5475399 4:-1.06657 5:1.25954 6:1.45893 7:1.79048 8:3.45983 9:-1.1691 10:2.1062801 11:-1.05073 12:0.55473 13:-0.6573 14:-1.744 15:2.1789801 16:-0.97570002 17:0.56836998 18:-0.73100001 19:-1.09658 20:1.88779 21:-1.01261 22:0.60907 23:-0.67150003 24:-1.63106 
0 8686.691754095886 0:1.70996 1:1.72592 2:0.72662997 3:-0.82985002 4:-0.98675001 5:-0.54584998 6:0.23139 7:0.053149998 8:-0.26166001 9:1.63196 10:0.018580001 11:-0.28918999 12:0.81441998 13:-0.44646999 14:0.19012 15:-0.059629999 16:-0.32181999 17:1.11001 18:-0.45699 19:0.089579999 20:0.28565001 21:-0.38692999 22:0.79364002 23:-0.50737 24:0.14662001 
0 16384 0:0.83271003 1:0.94472998 2:0.35067999 3:-0.31189001 4:-0.63154 5:0.43557999 6:0.34628001 7:-0.21780001 8:-0.47813001 9:0.31373 10:-0.63905001 11:-0.076899998 12:0.48914 13:-0.28305 14:0.43504 15:-0.59751999 16:-0.46946001 17:0.51994997 18:-0.46774 19:0.15123001 20:-0.23559999 21:-0.33884999 22:0.49401 23:-0.36864999 24:0.20083 
0 11111.74127670081 0:-0.74776 1:-0.84413999 2:0.056129999 3:0.067950003 4:1.443 5:1.74256 6:0.36344001 7:-1.88174 8:-1.2656 9:-1.59117 10:-0.068000004 11:-0.54461998 12:0.42596 13:-0.48460999 14:-0.04504 15:0.033209998 16:-0.54461998 17:0.30403 18:-0.53048003 19:0.065480001 20:0.34628001 21:-0.52302998 22:0.40713 23:-0.48613 24:-0.071500003 
0 354.0130565664053 0:-1.21596 1:-1.08424 2:-1.0823801 3:-0.28184 4:2.74914 5:0.98563999 6:-0.44488999 7:-0.65078998 8:-0.78026998 9:-1.71561 10:0.75095999 11:-0.24225999 12:-0.48737001 13:0.16099 14:-0.14995 15:0.26989001 16:0.13789999 17:-0.27573001 18:-0.12589 19:0.47848001 20:0.31624001 21:0.056990001 22:-0.34678999 23:0.048319999 24:0.42407 
0 16384 0:0.25882 1:0.82156003 2:-0.44661 3:-0.86409998 4:-0.95657998 5:0.72220999 6:1.0852799 7:0.058169998 8:0.08066 9:0.57366002 10:-0.75016999 11:-0.73667002 12:0.60876 13:-0.60466999 14:-0.54543 15:-0.040369999 16:-0.88872999 17:0.59781998 18:-0.72224998 19:-0.67580003 20:-0.18429001 21:-0.83442003 22:0.64486998 23:-0.64366001 24:-0.66165 
0 296.2048301405951 0:-1.05428 1:0.080509998 2:-0.67286998 3:-0.71446002 4:-0.57191998 5:0.12238 6:0.71059 7:1.12019 8:0.74157 9:0.40766001 10:1.21892 11:-0.72096997 12:0.42105001 13:-0.57911998 14:-0.73412001 15:0.10384 16:-0.88226998 17:0.65324998 18:-0.67646003 19:-0.75207001 20:0.28461 21:-0.84372997 22:0.61799002 23:-0.60101002 24:-0.96294999 
0 10488.34531936208 0:0.25148001 1:0.88077003 2:-0.22787 3:-1.19753 4:-0.49204999 5:1.0486 6:0.40761 7:-0.43127999 8:-0.23432 9:0.93918002 10:-0.60385001 11:-0.85758001 12:0.70341003 13:-0.61619002 14:-0.79503 15:-0.071039997 16:-0.96942002 17:0.71358001 18:-0.72790998 19:-0.99011999 20:0.12882 21:-0.88169998 22:0.75963002 23:-0.6498 24:-0.88897997 
0 5610.12969236715 0:0.47861999 1:0.47847 2:0.41150001 3:-0.23593 4:-0.032779999 5:0.34220001 6:0.06656 7:-0.61526 8:-0.39950001 9:0.090630002 10:-0.18026 11:-0.51494998 12:0.57177001 13:-0.50490999 14:-0.00398 15:0.02582 16:-0.60835999 17:0.54587001 18:-0.58794999 19:-0.21373001 20:0.25823 21:-0.52717 22:0.55944002 23:-0.52972001 24:-0.091169998 
0 16384 0:0.59481001 1:0.51503998 2:0.56269997 3:-0.53509998 4:-0.72868001 5:-0.16547 6:0.090750001 7:0.42319 8:-0.22395 9:1.17346 10:0.00029 11:-0.75599003 12:0.71303999 13:-0.58043998 14:-0.62132001 15:0.51990002 16:-0.87124002 17:0.73812002 18:-0.69269001 19:-0.85275 20:0.64881998 21:-0.78742999 22:0.74870002 23:-0.62431997 24:-0.65715998 
0 16384 0:0.46737999 1:0.57837999 2:-0.71513999 3:-1.4126199 4:-0.99180001 5:1.0362999 6:0.64060003 7:0.97526002 8:0.18477 9:0.84039003 10:0.044810001 11:-0.88615 12:0.72307998 13:-0.61747003 14:-1.14841 15:0.73431998 16:-1.02895 17:0.70247 18:-0.74071997 19:-1.51537 20:0.79404998 21:-0.91864002 22:0.75677001 23:-0.65658998 24:-1.14065 
0 4401.131157190362 0:-0.56023002 1:0.34051999 2:-0.78574002 3:-1.39033 4:-0.89328998 5:1.31863 6:1.74248 7:0.26651001 8:0.28095999 9:0.30342999 10:-1.51273 11:-1.0802799 12:0.60642999 13:-0.66198999 14:-1.83338 15:-0.90502 16:-1.12049 17:0.6311 18:-0.76747 19:-1.75958 20:-0.78895998 21:-1.06507 22:0.69094998 23:-0.68757999 24:-1.82714 
0 63.69495659989628 0:0.17906 1:0.79258001 2:0.16843 3:-0.56588 4:-0.20373 5:0.54341 6:0.43779999 7:-0.39337 8:-0.25773999 9:0.11441 10:-0.40425 11:-0.17804 12:0.42745 13:-0.35808 14:0.38378 15:0.39904001 16:-0.57006001 17:0.41196001 18:-0.53451997 19:-0.01093 20:0.43074 21:-0.34922999 22:0.14731 23:-0.24267 24:0.086489998 
0 4779.969493418314 0:-0.024669999 1:0.13677999 2:0.19188 3:-0.91330999 4:-0.049180001 5:1.3247499 6:0.87067997 7:-1.02016 8:-0.56272 9:0.05556 10:-0.87963998 11:-0.90136999 12:0.63406003 13:-0.64016998 14:-0.81290001 15:-0.40434 16:-0.86220002 17:0.60720003 18:-0.73132002 19:-0.64854002 20:0.029100001 21:-0.86277997 22:0.71218002 23:-0.66320002 24:-0.70372999 
0 7107.024283103856 0:0.38284999 1:0.1815 2:-0.16320001 3:-0.89480001 4:-0.51863003 5:0.96337003 6:0.78744 7:-0.20498 8:0.090109996 9:0.076109998 10:-0.67460001 11:-0.51626003 12:0.57872999 13:-0.51966 14:-0.099100001 15:-0.01894 16:-0.83039999 17:0.58503997 18:-0.68659002 19:-0.49043 20:-0.17876001 21:-0.73918998 22:0.63907999 23:-0.60336 24:-0.43630001 
0 436.7467292722468 0:-1.67381 1:-0.85606003 2:-2.04252 3:-1.5201499 4:-1.14994 5:1.05094 6:1.4025 7:2.0809901 8:2.5594399 9:-0.51397002 10:2.2228799 11:-1.0317301 12:0.55005002 13:-0.65386999 14:-1.57232 15:1.70585 16:-1.0707 17:0.61173999 18:-0.75226003 19:-1.5947 20:1.6012 21:-1.00322 22:0.61931998 23:-0.67233002 24:-1.4721299 
479.818376708777 0 0:-2.13255 1:-1.7868 2:-2.2344401 3:-1.42646 4:-0.45095 5:1.54032 6:1.40019 7:1.61771 8:2.6565299 9:-1.4680901 10:2.0137999 11:-1.0328 12:0.54645997 13:-0.65305001 14:-1.66292 15:1.6921099 16:-1.0448101 17:0.57690001 18:-0.74207997 19:-1.73024 20:1.61308 21:-0.99743998 22:0.59663999 23:-0.66715002 24:-1.75007 
0 16384 0:0.5068 1:0.99259001 2:0.10043 3:-1.00042 4:-0.96134001 5:0.39805999 6:0.94353998 7:0.091590002 8:0.00495 9:0.87270999 10:-0.45072001 11:-0.72589999 12:0.55743998 13:-0.56971997 14:-0.42477 15:0.43876001 16:-0.87676001 17:0.53878999 18:-0.68893999 19:-0.58766001 20:0.24857 21:-0.78331 22:0.59385002 23:-0.60523999 24:-0.55940002 
0 6047.788106881786 0:1.1935199 1:0.75617999 2:1.03938 3:-0.48923001 4:-0.18866999 5:0.25093001 6:-0.10131 7:-1.04269 8:-0.80333 9:0.85210001 10:0.15501 11:0.10013 12:0.35332999 13:0.00144 14:0.52982998 15:0.77692997 16:-0.29387 17:0.37955999 18:-0.28795001 19:0.26756001 20:0.71906 21:-0.044840001 22:0.14545 23:0.0017199999 24:0.39491999 
0 1447.119427669376 0:-0.25571999 1:-0.068800002 2:-0.42523 3:-0.0093 4:1.67729 5:1.13318 6:-0.56260997 7:-1.09383 8:-1.11647 9:-1.15598 10:-1.41467 11:-0.27619001 12:0.65245998 13:-0.43816999 14:0.32314 15:-1.84594 16:-0.25003999 17:0.44859999 18:-0.396 19:0.35246 20:-1.40433 21:-0.17381001 22:0.47850999 23:-0.37116 24:0.38666001 
0 7633.426778226234 0:0.72121 1:0.73104 2:0.94047999 3:0.00288 4:0.61417001 5:0.07948 6:-0.20644 7:-1.07074 8:-0.94867003 9:-0.24513 10:-0.59170997 11:0.30206001 12:0.91786999 13:-0.1452 14:0.79135001 15:-1.23094 16:0.11815 17:0.92500001 18:-0.14621 19:0.72387999 20:-0.41328001 21:0.20641001 22:0.72516 23:-0.16031 24:0.76569003 
0 3110.781908370444 0:-0.055429999 1:0.09262 2:1.11426 3:0.15446 4:0.54707998 5:-0.0067799999 6:0.14918999 7:-0.90744001 8:-0.78473997 9:-0.37301999 10:0.27781999 11:-0.66408998 12:0.47451001 13:-0.54878002 14:-0.19696 15:-0.24260999 16:-0.53232998 17:0.69698 18:-0.58166999 19:0.030950001 20:-0.12897 21:-0.63218999 22:0.62145001 23:-0.57275999 24:-0.15804 
0 1377.264904545286 0:0.19641 1:-0.12599 2:0.26971999 3:-0.32556999 4:0.1829 5:0.71771997 6:-0.071110003 7:-0.74396002 8:-0.20038 9:-0.20192 10:0.29186001 11:-0.029519999 12:0.57633001 13:-0.27728 14:0.46408999 15:-0.14053001 16:-0.27555001 17:0.83535999 18:-0.38821 19:0.27384999 20:0.45835999 21:-0.22454999 22:0.64205998 23:-0.36607999 24:0.29262 
0 99.05891715314729 0:1.15925 1:1.72014 2:0.66492999 3:-0.35802001 4:-0.04843 5:0.45177001 6:0.1631 7:-0.98236001 8:-0.80167001 9:-0.12052 10:-2.0490899 11:2.08529 12:0.51682001 13:1.74385 14:1.60676 15:-3.5634699 16:0.81239998 17:1.70017 18:0.68175 19:1.10181 20:-2.5160899 21:1.38222 22:0.7773 23:0.99721003 24:1.38908 
0 1029.746513076488 0:-0.33311 1:-0.25933999 2:-0.78274 3:-1.03356 4:-0.39271 5:0.90358001 6:0.44036999 7:0.29378 8:0.61504 9:0.34143001 10:0.60289001 11:-0.87342 12:0.47839999 13:-0.59123999 14:-0.93823999 15:1.25492 16:-0.95028001 17:0.51073998 18:-0.69288999 19:-1.09199 20:1.012 21:-0.87886 22:0.54143 23:-0.61082 24:-1.0238 
0 16384 0:0.49869001 1:1.22302 2:0.02189 3:-0.94019002 4:-1.07955 5:0.37055001 6:1.10347 7:0.073090002 8:-0.13743 9:1.00423 10:-1.22562 11:-0.92394 12:0.64908999 13:-0.63371998 14:-1.0122 15:-0.64769 16:-0.99571002 17:0.66446 18:-0.74452001 19:-0.98255002 20:-0.55774999 21:-0.93215001 22:0.70222998 23:-0.66766 24:-1.01446 
0 16384 0:0.13787 1:0.65495002 2:-0.44681999 3:-0.97413999 4:-0.81501001 5:0.65451998 6:1.0575 7:0.10822 8:0.13291 9:0.64872998 10:-0.48176 11:-0.82808 12:0.69084001 13:-0.61523002 14:-0.83253002 15:-0.067610003 16:-0.99532998 17:0.67242998 18:-0.74445999 19:-1.0661401 20:-0.049630001 21:-0.91062999 22:0.70424998 23:-0.65908998 24:-0.96178001 
0 4628.930443316304 0:-0.03613 1:0.47650999 2:0.16684 3:-0.68602997 4:-0.23745 5:0.65521997 6:0.59135997 7:-0.44275001 8:-0.20072 9:0.23086999 10:1.42247 11:-0.81226999 12:0.47832 13:-0.59145999 14:-0.66500002 15:1.90425 16:-0.90469998 17:0.50691003 18:-0.69836003 19:-0.74177998 20:1.61156 21:-0.83166999 22:0.54789001 23:-0.61636001 24:-0.76108003 
84.95377817310646 0 0:-0.81413001 1:-0.347 2:-1.41259 3:-0.70691001 4:-0.35519001 5:0.092859998 6:0.55776 7:1.35273 8:1.29439 9:0.00514 10:1.64047 11:-0.6512 12:0.25334001 13:-0.43917999 14:-0.70795 15:1.43952 16:0.033459999 17:-0.71302998 18:0.0073299999 19:-0.17134 20:1.37345 21:-0.30719 22:-0.032710001 23:-0.28011 24:-0.22994 
654.7492342395833 0 0:-0.79007 1:-0.18871 2:-1.67338 3:-0.97448999 4:-0.58876997 5:0.1024 6:0.31542 7:2.04601 8:1.8655699 9:-0.061149999 10:1.14284 11:-0.4817 12:-0.062739998 13:-0.27252999 14:-0.62515002 15:1.49287 16:0.76515001 17:-2.1025801 18:0.87747002 19:-0.25608 20:0.95363998 21:0.094329998 22:-0.65665001 23:0.072499998 24:-0.24924999 
0 6049.082812882676 0:-1.8141299 1:-1.80397 2:-0.23396 3:0.41371 4:1.3765399 5:1.4645801 6:1.06205 7:-1.1407599 8:-0.74485999 9:-2.22312 10:-1.04799 11:-0.86996001 12:0.40537 13:-0.57226998 14:-0.97429001 15:-0.6936 16:-0.92540997 17:0.40739 18:-0.67205 19:-0.91788 20:-1.48485 21:-0.86461002 22:0.47049999 23:-0.59346002 24:-1.0022 
141.0998032427434 0 0:-1.63458 1:-1.14379 2:-1.35511 3:-0.71483999 4:0.37674999 5:1.12537 6:0.85782999 7:0.73717999 8:1.17796 9:-1.50193 10:1.52714 11:-0.73650002 12:0.46783999 13:-0.61546999 14:-0.59663999 15:0.53184003 16:1.05607 17:0.46461999 18:0.18080001 19:0.15353 20:0.44635001 21:0.23435999 22:0.27417001 23:-0.30963001 24:0.13737001 
0 16384 0:1.23666 1:1.19349 2:0.32032999 3:-1.0641201 4:-0.58418 5:1.26094 6:0.59375 7:-0.92692 8:-0.78763002 9:0.57951999 10:-1.42189 11:-0.53724998 12:0.84174001 13:-0.52017999 14:-0.13231 15:-1.26773 16:-0.70617002 17:0.81189001 18:-0.64608997 19:-0.2139 20:-1.0865999 21:-0.59262002 22:0.84603 23:-0.56220001 24:-0.17614 
0 16384 0:0.037360001 1:0.10575 2:0.35242 3:-0.55881 4:0.25892001 5:1.73844 6:0.35034999 7:-1.51922 8:-0.70441997 9:-0.66522002 10:-0.62449998 11:-0.044629999 12:0.83381999 13:-0.38424999 14:0.45087001 15:-0.81037998 16:-0.41223001 17:0.77152997 18:-0.54975998 19:0.27805999 20:-0.48524001 21:-0.33974001 22:0.78406 23:-0.47983 24:0.25418001 
0 16384 0:0.14574 1:-0.16452 2:0.41319999 3:-0.57217997 4:0.3644 5:2.0799899 6:0.78784001 7:-2.0222399 8:-1.19139 9:-0.70924997 10:-0.71651 11:-0.43144 12:0.81536001 13:-0.49075001 14:0.099480003 15:-0.79262 16:-0.55444998 17:0.77766001 18:-0.60878003 19:0.094679996 20:-0.29995999 21:-0.45482999 22:0.82789999 23:-0.52177 24:0.089230001 
0 145.6579265128188 0:0.86421001 1:0.43700999 2:0.86127001 3:-0.50195998 4:0.49805 5:0.71144998 6:-0.40239999 7:-1.36353 8:-0.87388003 9:0.14398 10:-0.44124001 11:0.10129 12:0.87099999 13:-0.24849001 14:0.60171002 15:-0.46645001 16:-0.15924001 17:0.95753998 18:-0.37101999 19:0.43592 20:-0.10149 21:-0.047630001 22:0.78454 23:-0.31793001 24:0.51635998 
0 5596.994016425046 0:1.0335799 1:1.03435 2:0.93614 3:-0.39488 4:-0.14427 5:0.48695001 6:-0.41023999 7:-0.77612001 8:-0.92022002 9:0.58608001 10:-0.15848 11:0.32519999 12:0.97745001 13:-0.1592 14:0.69186002 15:-0.51242 16:0.2624 17:1.3208801 18:-0.14235 19:0.61908001 20:-0.038649999 21:0.17371 22:0.90951002 23:-0.22761001 24:0.62410003 
0 5107.681124795224 0:0.39227 1:0.8082 2:0.95252001 3:-0.20524 4:0.01754 5:0.13145 6:0.12024 7:-0.70660001 8:-0.78649002 9:0.27432001 10:-1.79625 11:-0.40193 12:0.25080001 13:-0.39103001 14:0.074069999 15:-1.57535 16:-0.62005001 17:0.36111 18:-0.57855999 19:-0.14944001 20:-2.1173501 21:-0.44727001 22:0.34191999 23:-0.43838999 24:0.0077599999 
0 10451.49617310434 0:-1.22372 1:-0.2322 2:-0.91737998 3:-0.79023999 4:1.52871 5:0.72842997 6:0.43711001 7:0.70832998 8:-0.38332 9:-1.22918 10:-1.56304 11:-0.89447999 12:0.63819999 13:-0.64454001 14:-0.85788 15:-1.40701 16:-0.94090003 17:0.63911998 18:-0.74598002 19:-0.72277999 20:-1.89077 21:-0.89798999 22:0.66868001 23:-0.67342001 24:-0.82547998 
0 13954.1946881877 0:-0.96547002 1:-0.15614 2:-0.37807 3:-1.18042 4:0.34086999 5:0.63397998 6:0.22325 7:0.47349 8:-0.16835999 9:0.71397001 10:-1.45186 11:-1.02097 12:0.61062998 13:-0.65881002 14:-1.35646 15:-1.26845 16:-1.10394 17:0.63196999 18:-0.76824999 19:-1.48645 20:-1.7278 21:-1.0160201 22:0.68308997 23:-0.68667001 24:-1.3414 
0 1088.972438817233 0:-0.44927999 1:-1.25933 2:1.01436 3:0.42289001 4:-0.41190001 5:0.05782 6:1.001 7:-0.18968999 8:-0.28257 9:-0.36752 10:-1.11798 11:-0.98245001 12:0.53965998 13:-0.65166003 14:-1.23852 15:-0.2992 16:-1.0328799 17:0.55901998 18:-0.75393999 19:-1.23722 20:-1.47201 21:-0.97667003 22:0.62673002 23:-0.67873001 24:-1.23092 
0 1527.857337968956 0:-1.41704 1:-0.85162997 2:-1.36268 3:-1.2078 4:-0.71787 5:0.49972001 6:0.69534999 7:1.8662601 8:2.22155 9:-0.33776999 10:1.04785 11:-1.04105 12:0.55533999 13:-0.65745002 14:-1.66671 15:1.08083 16:-1.03334 17:0.55950999 18:-0.74391001 19:-1.47136 20:0.90799999 21:-1.0042 22:0.61572999 23:-0.67619002 24:-1.6115299 
416.8361272386315 0 0:-1.38056 1:1.09576 2:-1.86891 3:-1.57318 4:1.47926 5:1.14254 6:-0.15684 7:0.93159997 8:0.49549001 9:-1.11845 10:-0.10392 11:-0.51415998 12:0.53665 13:-0.51568002 14:-0.21984001 15:-0.16933 16:0.12396 17:-0.38336 18:-0.23875999 19:-0.17623 20:-0.041960001 21:-0.22040001 22:0.14048 23:-0.45306 24:-0.30265 
820.0095452483479 0 0:-1.98364 1:-1.26283 2:-2.49036 3:-1.68255 4:-1.56619 5:1.04612 6:1.48167 7:2.0861599 8:3.8945899 9:-0.69332999 10:1.22071 11:-0.98493999 12:0.50401998 13:-0.63116997 14:-1.45776 15:1.35868 16:-0.90177 17:0.6164 18:-0.71749002 19:-0.98607999 20:1.1988 21:-0.96815002 22:0.60210001 23:-0.64302999 24:-1.20775 
1593.19539048342 0 0:-1.40712 1:-0.41912001 2:-2.0699201 3:-1.60116 4:-1.2119 5:0.44868001 6:1.04649 7:2.2444799 8:2.9379201 9:-0.040130001 10:1.8724 11:-0.94305003 12:0.47011 13:-0.61882001 14:-1.49191 15:1.70279 16:-0.9077 17:0.44948 18:-0.65741998 19:-1.09781 20:1.7654901 21:-0.91521001 22:0.52543998 23:-0.62198001 24:-1.23016 
455.259428202071 665.5396487711934 0:-2.36778 1:-1.89091 2:-2.66629 3:-1.80501 4:-1.9030401 5:1.54215 6:1.81638 7:2.3311999 8:4.7143798 9:-1.48185 10:0.92242998 11:-1.06791 12:0.55290002 13:-0.65745002 14:-1.96825 15:1.0432 16:-1.07634 17:0.55175 18:-0.74224001 19:-1.9836 20:0.83872998 21:-1.05422 22:0.61995 23:-0.67649001 24:-2.17869 
0 835.524085987186 0:0.90535003 1:0.97412002 2:0.38918 3:0.092730001 4:0.21502 5:0.29762 6:-0.53389001 7:-1.14283 8:-0.96755999 9:0.38611001 10:-0.78193998 11:0.65030998 12:0.73145002 13:0.23559999 14:1.00152 15:-1.07065 16:0.37323999 17:0.34481001 18:0.142 19:0.82358003 20:-0.65139002 21:0.71364999 22:0.18748 23:0.34136 24:0.97299999 
0 2665.169976318188 0:-1.07498 1:0.40110001 2:-1.59983 3:-0.89814001 4:1.11529 5:0.76646 6:0.12222 7:1.12192 8:-0.20315 9:-0.63278002 10:-0.34318 11:-0.86366999 12:0.64401001 13:-0.62369001 14:-0.97492999 15:-0.99329001 16:-0.83042002 17:0.42743999 18:-0.70122999 19:-0.95929998 20:-0.44657001 21:-0.78337002 22:0.56879002 23:-0.63367999 24:-0.74001998 
0 16384 0:0.083460003 1:0.47734001 2:0.21366 3:-0.55079001 4:0.0042699999 5:0.87550998 6:0.68816 7:-0.72320002 8:-0.47823 9:-0.25110999 10:-1.46175 11:-0.30160999 12:0.56655002 13:-0.45767 14:0.1788 15:-1.15443 16:-0.58666003 17:0.46533 18:-0.58165002 19:-0.039110001 20:-1.0857 21:-0.51529998 22:0.51332003 23:-0.50748003 24:-0.048149999 
0 16384 0:0.091370001 1:-0.12981001 2:0.43748999 3:-0.47876999 4:-0.11749 5:1.08565 6:0.53947997 7:-0.67970002 8:-0.64409 9:-0.093120001 10:-1.54593 11:-0.56576997 12:0.59065002 13:-0.54781002 14:-0.076180004 15:-1.26905 16:-0.76077998 17:0.54264998 18:-0.662 19:-0.25714001 20:-1.17616 21:-0.66968 22:0.60655999 23:-0.58295 24:-0.23672 
0 11217.82518232783 0:0.55974001 1:-0.01145 2:-0.44466999 3:0.50283003 4:0.27357 5:1.09262 6:0.47538 7:-1.66506 8:-1.1712 9:-0.51753998 10:-1.3690701 11:-0.35913 12:0.88889998 13:-0.44097999 14:0.14943001 15:-2.1872301 16:-0.50704002 17:1.0326101 18:-0.54097998 19:0.04885 20:-1.50861 21:-0.31816 22:0.93733001 23:-0.44977999 24:0.25023001 
-0 56.64386082491567 0:-1.60753 1:-0.24619 2:-1.21279 3:-0.91018999 4:-0.16459 5:1.1293499 6:1.64 7:1.14887 8:0.57235003 9:-1.04361 10:2.1944499 11:-0.91469997 12:0.33508 13:-0.55087 14:-1.87025 15:2.57728 16:-0.63844001 17:-0.34873 18:-0.29357001 19:-1.1791 20:2.2022099 21:-0.72878999 22:0.12913001 23:-0.45522001 24:-1.6475 
-1004.448805885217 0 0:-2.0589299 1:-1.07149 2:-2.7016499 3:-1.7488199 4:-1.00482 5:1.10128 6:1.14122 7:1.72679 8:3.94016 9:-0.97481 10:2.0732801 11:-0.98057002 12:0.50123 13:-0.64002001 14:-1.8690701 15:3.03529 16:-0.75709999 17:0.097800002 18:-0.56080002 19:-1.75635 20:2.21733 21:-0.88185 22:0.44046 23:-0.60623997 24:-1.81829 
-633.4420459904715 0 0:-1.50752 1:-0.35755 2:-2.13466 3:-1.66923 4:-1.42141 5:0.68787003 6:1.47138 7:2.38625 8:2.8789401 9:-0.22903 10:2.0204599 11:-0.96425003 12:0.44973999 13:-0.60724998 14:-1.62669 15:2.43361 16:-0.81822002 17:0.36447999 18:-0.63406003 19:-0.84249997 20:1.95692 21:-0.90132999 22:0.44922 23:-0.59205002 24:-1.37293 
-0 54.4126712017313 0:-1.18803 1:-0.14018001 2:-1.94941 3:-1.6400501 4:-1.3523099 5:0.90114999 6:1.94191 7:2.25545 8:1.89925 9:-0.14283 10:1.1161 11:-0.86596 12:0.26589 13:-0.5104 14:-1.74788 15:0.35918999 16:-0.92400002 17:0.28009 18:-0.61734998 19:-1.73526 20:0.58073002 21:-0.81944001 22:0.24456 23:-0.48633 24:-1.831 
-0 18.53112310183937 0:-1.96931 1:-1.28429 2:-2.19678 3:-1.3824199 4:-1.00991 5:1.42215 6:1.89227 7:2.2004001 8:2.2839899 9:-1.14316 10:0.92278999 11:-0.99202001 12:0.50830001 13:-0.61158001 14:-1.50076 15:2.1598401 16:-0.79595 17:-0.19372 18:-0.33458 19:-1.67391 20:1.20819 21:-0.84384 22:0.27103001 23:-0.48288 24:-1.5377001 
-332.8812135806789 0 0:-0.2085 1:0.63393003 2:-0.41461 3:-0.80361998 4:-0.66750997 5:-0.53653997 6:0.68186003 7:1.7692 8:0.60168999 9:0.64152998 10:1.9408 11:-0.61303002 12:0.04941 13:-0.37614 14:-0.84610999 15:1.40411 16:0.32370001 17:-0.79023999 18:0.1938 19:0.21581 20:1.3017 21:-0.032710001 22:-0.57451999 23:0.0084699998 24:-0.070830002 
-274.1443207141746 0 0:-0.71627003 1:0.16593 2:-0.86388999 3:-0.95056999 4:0.64157999 5:-0.025359999 6:0.45368999 7:1.12743 8:0.20413999 9:-0.063550003 10:1.94361 11:-0.74927002 12:0.37943 13:-0.57018 14:-0.63413 15:0.67334998 16:-0.60917997 17:0.51758999 18:-0.56114 19:-0.21003 20:1.21033 21:-0.77844 22:0.4418 23:-0.56098002 24:-0.73575002 
-319.5047205988434 38.91553632689686 0:-1.68005 1:-0.55317998 2:-1.52636 3:-1.21832 4:1.1514699 5:0.83827001 6:0.67698997 7:1.11796 8:0.42765999 9:-0.90758002 10:1.54958 11:-0.94506001 12:0.45504001 13:-0.61043 14:-1.48921 15:-0.42756 16:-1.0304 17:0.57648998 18:-0.73900998 19:-1.46052 20:0.45835999 21:-0.91337001 22:0.53097999 23:-0.63529003 24:-1.40773 
-1408.363320843612 0 0:-1.28938 1:-0.32227001 2:-2.19291 3:-1.64048 4:-0.14248 5:0.32784 6:0.19612999 7:2.26332 8:2.68432 9:-0.454 10:1.2109801 11:-0.81647998 12:0.35385999 13:-0.55975997 14:-1.22588 15:1.82485 16:-0.38688001 17:-0.10247 18:-0.45151001 19:-0.88994998 20:1.32538 21:-0.65806001 22:0.26822999 23:-0.51734 24:-0.84900999 
-462.323784203607 0 0:-2.0166399 1:-1.54577 2:-2.6285601 3:-1.7927001 4:-2.06903 5:1.1449701 6:2.1343999 7:2.48207 8:4.2688599 9:-0.87660998 10:2.19168 11:-1.00896 12:0.44373 13:-0.61063999 14:-2.3990099 15:1.63534 16:-0.93291003 17:0.55953997 18:-0.69629002 19:-1.71324 20:1.79249 21:-0.96876001 22:0.52610999 23:-0.63428003 24:-2.1359301 
-1089.206947766145 0 0:-2.2333701 1:-1.48602 2:-2.7959199 3:-1.65628 4:-1.4260401 5:1.58982 6:1.60505 7:1.83855 8:4.05899 9:-1.38857 10:1.78966 11:-0.90805 12:0.43759 13:-0.61287999 14:-1.38263 15:0.77122998 16:-0.92698997 17:0.62145001 18:-0.71921003 19:-0.99198997 20:1.24369 21:-0.96430999 22:0.58405 23:-0.66249001 24:-1.43396 
-481.2130169185144 0 0:-1.46771 1:-0.50040001 2:-2.3304701 3:-1.67908 4:-1.19959 5:0.53232002 6:1.04513 7:2.3462 8:3.0991299 9:-0.085450001 10:1.78909 11:-0.91582 12:0.44064999 13:-0.58081001 14:-1.18302 15:1.31757 16:-0.29042 17:0.60251999 18:-0.56059003 19:-0.47525001 20:1.36336 21:-0.77961999 22:0.49211001 23:-0.57990998 24:-0.64585 
-194.4911908273025 0 0:-1.3816299 1:-0.54734999 2:-1.84925 3:-1.06502 4:0.61417001 5:0.79425001 6:0.53732997 7:0.75209999 8:1.28784 9:-0.85329998 10:1.06865 11:-0.49099001 12:0.10665 13:-0.40696001 14:-0.50374001 15:1.4589 16:-0.13615 17:-0.74597001 18:-0.043719999 19:-0.12585001 20:1.06441 21:-0.30432999 22:-0.25795001 23:-0.21111999 24:-0.46504 
-345.2200000995384 0 0:-1.45383 1:-0.16121 2:-1.85615 3:-1.5614901 4:-1.29335 5:0.92448997 6:1.4760799 7:2.0699201 8:2.2637701 9:-0.26058999 10:0.81980997 11:-0.91586 12:0.43389001 13:-0.59017003 14:-1.2234 15:0.064049996 16:-0.91806 17:0.39839 18:-0.67047 19:-0.97022003 20:0.39283001 21:-0.87922001 22:0.4224 23:-0.57937998 24:-1.3770601 
-104.8616638468308 0 0:-1.3198 1:-0.37397999 2:-1.52764 3:-0.88231999 4:1.27731 5:0.61409998 6:-0.021090001 7:1.14544 8:0.60101998 9:-1.1469001 10:0.62036002 11:-0.083619997 12:-0.09465 13:-0.1829 14:0.18927 15:1.19023 16:0.28059 17:-1.08609 18:0.33022001 19:0.035799999 20:0.89535999 21:0.01444 22:-0.56906003 23:0.090460002 24:0.036320001 
-672.3721533661932 0 0:-1.3105201 1:-0.37075001 2:-1.5811501 3:-1.1336 4:-0.5115 5:0.98053998 6:1.06708 7:1.44477 8:1.33074 9:-0.48374999 10:1.4905601 11:-0.76433998 12:0.39763999 13:-0.53612 14:-0.65020001 15:1.6792001 16:-0.17102 17:-0.22673 18:-0.21450999 19:-0.16474999 20:1.4704 21:-0.48247001 22:0.083159998 23:-0.37957999 24:-0.45750001 
-10431.97008188289 -0 0:-0.38597 1:-0.20100001 2:0.23619001 3:-0.72723001 4:1.2546099 5:1.7535501 6:-0.25654 7:-1.56679 8:-0.95986998 9:-0.77307999 10:-1.9053299 11:-0.50206 12:0.62304997 13:-0.52744001 14:-0.02262 15:-1.59491 16:-0.61655998 17:0.56441998 18:-0.61742997 19:-0.17432 20:-2.32197 21:-0.54228002 22:0.62371999 23:-0.55383998 24:-0.046709999 
-995.667056074416 -0 0:0.12939 1:-0.32539999 2:-0.13252001 3:-0.46950999 4:0.49362999 5:1.74354 6:0.052280001 7:-1.08678 8:-0.89314997 9:-0.54377002 10:-1.75859 11:-0.61138999 12:0.65793002 13:-0.58227003 14:-0.20255999 15:-1.39417 16:-0.82249999 17:0.64876997 18:-0.70817 19:-0.44769999 20:-2.1116199 21:-0.72463 22:0.67794001 23:-0.62647003 24:-0.34639001 
-678.376501791186 -0 0:0.54035997 1:0.39515999 2:0.39785001 3:-0.64081001 4:-0.25718001 5:0.52104998 6:0.81800997 7:-0.62449002 8:-0.57435 9:0.39337 10:-1.75286 11:-0.71069002 12:0.53824002 13:-0.57841003 14:-0.31685001 15:-1.55428 16:-0.83130997 17:0.5485 18:-0.69142002 19:-0.44821 20:-2.0869 21:-0.72939003 22:0.61135 23:-0.60652 24:-0.39313999 
-1970.483646740499 -0 0:-1.30856 1:-1.76255 2:-0.80212998 3:-0.13189 4:1.33903 5:1.68198 6:0.66668999 7:-1.00568 8:-0.63713002 9:-1.4693201 10:-1.3868999 11:-0.86707002 12:0.57950997 13:-0.64282 14:-0.65425998 15:-1.10906 16:-0.94949001 17:0.61435002 18:-0.74896002 19:-0.69683999 20:-1.55129 21:-0.91542 22:0.65855002 23:-0.67300999 24:-0.83824003 
-16384 -0 0:-0.072659999 1:0.64656001 2:-0.52669001 3:-1.04251 4:-0.59766001 5:-0.11841 6:0.90372002 7:1.11915 8:0.72319001 9:0.4312 10:-0.14173 11:-0.68852001 12:0.43237001 13:-0.54544997 14:-0.57696998 15:0.27186999 16:-0.75656998 17:0.28681999 18:-0.57427001 19:-0.60908997 20:0.14567 21:-0.75695002 22:0.39394999 23:-0.54124999 24:-0.71815002 
-9639.139010388933 -0 0:-1.2288001 1:-1.09747 2:-1.2623399 3:-0.94717997 4:-0.54487997 5:1.7678699 6:1.12239 7:0.12941 8:0.97316003 9:-0.54043001 10:0.40246999 11:-0.96670997 12:0.63648999 13:-0.65293002 14:-1.33945 15:0.52710003 16:-1.06519 17:0.67216998 18:-0.76349998 19:-1.53599 20:0.61084002 21:-1.0216 22:0.69392997 23:-0.68599999 24:-1.45798 
-1999.782451512194 -0 0:0.77028 1:0.68800002 2:-0.065619998 3:-1.01838 4:-0.58068001 5:0.53438002 6:0.98903 7:-0.48030999 8:-0.20779 9:0.82252997 10:0.12637 11:-0.81481999 12:0.60171002 13:-0.61900997 14:-0.59776998 15:0.60475999 16:-0.93370998 17:0.57523 18:-0.72024 19:-0.80947 20:0.70965999 21:-0.84433001 22:0.65161002 23:-0.63879001 24:-0.74509001 
-2525.583033067207 -0 0:0.81428999 1:1.3154401 2:-0.78359002 3:-1.17663 4:-0.55360001 5:0.086960003 6:0.77284002 7:0.52481002 8:0.26337999 9:0.81533003 10:-0.0086300001 11:-0.62655002 12:0.66336 13:-0.60514998 14:-0.39901 15:0.64429998 16:-0.83859998 17:0.72204 18:-0.72487998 19:-0.64723003 20:0.50277001 21:-0.83098 22:0.67290998 23:-0.65618002 24:-0.59267002 
-9419.758859562542 -0 0:0.43566 1:0.53315002 2:0.00288 3:-1.12196 4:-0.86770999 5:0.64955997 6:1.52101 7:-0.03283 8:-0.35216999 9:0.87207001 10:-1.13032 11:-0.95779002 12:0.61627001 13:-0.64841998 14:-1.02844 15:-0.48229 16:-1.02856 17:0.63858002 18:-0.75588 19:-1.06112 20:-0.46017 21:-0.95784998 22:0.69163001 23:-0.67613 24:-1.0557801 
-7052.188323410209 -0 0:1.3487999 1:1.7847199 2:0.07931 3:-0.78193003 4:-1.3844399 5:-0.37940001 6:0.030540001 7:0.90775001 8:0.016659999 9:1.76201 10:-0.14455 11:-0.26734 12:1.04479 13:-0.45084 14:-0.17837 15:0.57103002 16:-0.59469998 17:1.0128 18:-0.62742001 19:-0.46402001 20:0.64771998 21:-0.67492002 22:0.82564002 23:-0.61036003 24:-0.42588001 
-16384 -0 0:0.19363999 1:0.45493001 2:0.020570001 3:-0.73013997 4:-0.93471998 5:0.55023998 6:0.96972001 7:-0.16777 8:0.070929997 9:0.68286997 10:-0.19419 11:-0.63967001 12:0.55998999 13:-0.55533999 14:-0.31323999 15:0.53843999 16:-0.91251999 17:0.57069999 18:-0.70811999 19:-0.74700999 20:0.57389998 21:-0.81375998 22:0.62289 23:-0.62851 24:-0.62694001 
-9697.549193905224 -0 0:-0.46234 1:-0.60055 2:-0.73651999 3:-0.86127001 4:-0.68832999 5:1.0865 6:1.09413 7:-0.0328 8:0.34049001 9:0.43634999 10:-0.21279 11:-0.84692001 12:0.61992002 13:-0.63155001 14:-0.93652999 15:0.46955001 16:-1.01728 17:0.61439002 18:-0.75300002 19:-1.22417 20:0.55800998 21:-0.96217 22:0.65215999 23:-0.67382997 24:-1.15399 
-4467.046521564429 -0 0:-1.50556 1:-0.59030002 2:-0.75040001 3:-0.21788999 4:1.35083 5:0.85001999 6:0.53413999 7:-0.69995999 8:-0.33638 9:-1.1055599 10:-0.39989001 11:-0.97636002 12:0.61738998 13:-0.65402001 14:-1.11078 15:0.098020002 16:-1.04162 17:0.63646001 18:-0.75937003 19:-1.1604 20:0.33605999 21:-0.98325998 22:0.68168002 23:-0.68357003 24:-1.14842 
-16384 -0 0:0.4325 1:0.36950001 2:0.98916 3:0.0044200001 4:0.037360001 5:0.060350001 6:0.48054999 7:-1.04153 8:-0.62694001 9:-0.077720001 10:0.19462 11:-0.64284003 12:0.53621 13:-0.56269002 14:-0.14466999 15:0.19248 16:-0.66196001 17:0.46336001 18:-0.64205003 19:-0.091619998 20:0.53267002 21:-0.58183002 22:0.45065001 23:-0.53372002 24:-0.11147 
-3907.126327294059 -0 0:1.33725 1:2.0485101 2:1.38915 3:-0.58666998 4:-1.15336 5:-0.62589002 6:0.47093999 7:-0.29982001 8:-0.37028 9:1.41208 10:-0.15459 11:-0.74018002 12:0.52768999 13:-0.59473997 14:-0.34391999 15:-0.02963 16:-0.86594999 17:0.60531998 18:-0.71929997 19:-0.45875001 20:0.31865999 21:-0.73005998 22:0.60123003 23:-0.61282003 24:-0.33265001 
-14260.10961664498 -0 0:0.43531999 1:1.17608 2:-0.28747001 3:-0.73712999 4:-0.061659999 5:1.43628 6:0.99829 7:-1.09544 8:-0.79799998 9:-0.36342001 10:-1.9165 11:-0.57075 12:0.85447001 13:-0.51877999 14:-0.25485 15:-1.8514 16:-0.76385999 17:0.80641001 18:-0.65276003 19:-0.44042999 20:-1.52235 21:-0.65628999 22:0.81863999 23:-0.57699001 24:-0.33368 
-2577.530887783317 -0 0:1.0907201 1:1.39824 2:0.020339999 3:-0.86414999 4:-1.09127 5:0.34197 6:0.59334999 7:0.18708999 8:-0.30533999 9:1.16872 10:-0.66666001 11:-0.11118 12:0.77880001 13:-0.31286001 14:0.26881 15:-0.60376 16:-0.47911 17:0.70493001 18:-0.51560003 19:0.09753 20:-0.19023 21:-0.36083999 22:0.66070002 23:-0.40996999 24:0.14932001 
-2654.801388829761 -0 0:0.39122 1:-0.13822 2:-0.32631999 3:-0.60299999 4:0.02981 5:0.84459001 6:0.59543002 7:-0.49281001 8:-0.43165001 9:0.13074 10:0.49669001 11:-0.92789 12:0.57703 13:-0.64234 14:-0.95142001 15:0.96213001 16:-0.99607003 17:0.56822997 18:-0.74177003 19:-1.14326 20:0.68321002 21:-0.89529997 22:0.63854998 23:-0.66079003 24:-0.89850003 
-16384 -0 0:1.28828 1:0.86882001 2:0.84069002 3:-0.52767998 4:-0.26999 5:0.49888 6:-0.0083100004 7:-1.0891401 8:-0.86036003 9:0.76859999 10:-0.28083 11:-0.0080399998 12:0.91211998 13:-0.28138 14:0.56584001 15:-0.67966998 16:-0.18208 17:0.87753999 18:-0.34435999 19:0.49553001 20:-0.074759997 21:-0.016790001 22:0.82457 23:-0.29337999 24:0.56742001 
-12135.14991330422 -0 0:0.86285001 1:0.44964001 2:1.11744 3:-0.39205 4:-0.83645999 5:0.01675 6:0.66925001 7:-0.18978 8:-0.42498001 9:0.64739001 10:0.00126 11:-0.23252 12:0.57979 13:-0.46311 14:0.29313001 15:0.0167 16:-0.60026002 17:0.62764001 18:-0.61135 19:-0.01633 20:0.36486 21:-0.45446 22:0.58521998 23:-0.51267999 24:0.11828 
-16135.85129605915 -0 0:0.72259003 1:0.61566001 2:0.66816002 3:-0.082769997 4:0.11096 5:0.35956001 6:0.29189 7:-1.2079099 8:-0.93879002 9:0.12682 10:-0.043570001 11:-0.049559999 12:0.67014998 13:-0.33397999 14:0.54918998 15:-0.056990001 16:-0.30344 17:0.72878999 18:-0.46623999 19:0.38405001 20:0.45871001 21:-0.21992999 22:0.64888 23:-0.42067 24:0.40623999 
-4568.546857710707 -0 0:-0.05466 1:0.79452002 2:-0.03387 3:-0.77867001 4:0.37220001 5:-0.13071001 6:0.13044 7:1.46067 8:-0.34621999 9:-0.086560003 10:-1.3393 11:-0.94617999 12:0.63520998 13:-0.64732999 14:-1.00985 15:-1.54624 16:-0.85157001 17:0.50440001 18:-0.72178 19:-0.75632 20:-1.14454 21:-0.82915002 22:0.63277 23:-0.65807998 24:-0.68299001 
-3988.490168808031 -0 0:0.75891 1:1.50875 2:0.17493001 3:-0.54852003 4:-0.26752999 5:0.39515999 6:0.63827997 7:-0.48231 8:-0.72684997 9:0.30851999 10:-1.3018 11:-0.78632998 12:0.68469 13:-0.60964 14:-0.51538002 15:-1.1494401 16:-0.89047998 17:0.66663998 18:-0.72786999 19:-0.52639002 20:-0.80988002 21:-0.77222002 22:0.72034001 23:-0.64029002 24:-0.41986001 
-6558.100077185443 -0 0:1.24509 1:0.95802999 2:-0.10707 3:-0.58002001 4:-0.97599 5:0.05384 6:0.94976997 7:-0.18615 8:-0.33131 9:1.1322401 10:-0.19388001 11:-0.22871999 12:0.86172003 13:-0.49121001 14:0.059459999 15:0.43239999 16:-0.54143 17:0.88950002 18:-0.64521003 19:-0.2264 20:0.23143999 21:-0.62348002 22:0.75546998 23:-0.61363 24:-0.23304 
-1175.871480546801 -0 0:-0.094509996 1:-0.15226001 2:0.39444 3:-0.57278001 4:-0.80074 5:0.4709 6:1.22789 7:0.35989001 8:0.24999 9:-0.19805001 10:-0.81693 11:-0.72588998 12:0.65268999 13:-0.62957001 14:-0.55940998 15:-0.12421 16:-0.89374 17:0.69967002 18:-0.74364001 19:-0.78829002 20:-0.35749 21:-0.90285999 22:0.70208001 23:-0.67672002 24:-0.88081002 
-726.0437524980675 -0 0:-1.60058 1:-1.23052 2:-1.52634 3:-1.3168401 4:-0.63997 5:1.8766299 6:2.0415101 7:0.81111997 8:0.65411001 9:-0.41846001 10:0.39217001 11:-1.1205699 12:0.58468997 13:-0.66558999 14:-2.30092 15:1.1129301 16:-1.1613801 17:0.61738998 18:-0.77095002 19:-2.36744 20:0.83058 21:-1.10347 22:0.66734999 23:-0.69169998 24:-2.2871001 
-0 -127.2356724171202 0:-1.54238 1:-0.53394002 2:-1.49062 3:-1.2587399 4:-0.73815 5:1.32199 6:1.89131 7:1.3378299 8:1.19906 9:-0.7342 10:1.04816 11:-1.11742 12:0.58737999 13:-0.66601998 14:-2.1924 15:1.78747 16:-1.16562 17:0.62388998 18:-0.77214003 19:-2.2660301 20:1.3730299 21:-1.10748 22:0.67241001 23:-0.69300002 24:-2.2301099 
-1289.410371613458 -0 0:-0.73449999 1:-0.18133999 2:-0.72373998 3:-0.68642002 4:-0.11486 5:0.96402001 6:1.26292 7:-0.095909998 8:0.01366 9:-0.24688999 10:-0.83429998 11:-0.91637999 12:0.63299 13:-0.64920998 14:-1.05344 15:-0.55905002 16:-1.03947 17:0.62931001 18:-0.76081002 19:-1.17277 20:-0.36100999 21:-0.99229997 22:0.66927999 23:-0.68386 24:-1.22302 
-1914.974759317196 -0 0:-0.96634001 1:-0.91816998 2:-0.74335003 3:-0.43127999 4:1.34228 5:1.55454 6:0.74234998 7:-1.05346 8:-0.57914001 9:-1.45556 10:-0.96653003 11:-0.8355 12:0.61475998 13:-0.59556001 14:-0.69049001 15:-1.1465 16:-0.80194002 17:0.55862999 18:-0.68498999 19:-0.42895001 20:-0.78163999 21:-0.72570997 22:0.67425001 23:-0.60393 24:-0.40566999 
-7402.569946709018 -0 0:0.25323001 1:0.37613001 2:-0.51380002 3:-1.4183199 4:-0.72342002 5:0.88476998 6:1.4357001 7:0.41833001 8:-0.11106 9:0.74651998 10:-0.26049 11:-1.01029 12:0.60257 13:-0.64964998 14:-1.40618 15:0.24685 16:-1.0545 17:0.61473 18:-0.75483 19:-1.31401 20:0.29345 21:-0.98427999 22:0.67742002 23:-0.67447001 24:-1.2858 
-12330.12692575648 -0 0:1.6649801 1:1.89099 2:-0.0744 3:-1.22492 4:-2.1208501 5:-0.17155001 6:1.11089 7:0.35457 8:0.59715998 9:1.96866 10:0.21132 11:-0.64437997 12:0.62291002 13:-0.59781998 14:-0.36436 15:0.77776998 16:-0.88521999 17:0.63292998 18:-0.73297 19:-0.64221001 20:0.62147999 21:-0.78741002 22:0.68175 23:-0.63743001 24:-0.51937997 
-0 -12.73328737638268 0:-0.98526001 1:-0.14391001 2:-1.36734 3:-0.78943002 4:0.18285 5:-0.21991999 6:0.51170999 7:1.66723 8:0.3973 9:0.54496998 10:0.18463001 11:-0.70479 12:0.89155 13:-0.56274998 14:-1.04337 15:0.74176002 16:-0.90202999 17:0.86827999 18:-0.69854999 19:-1.45521 20:0.61947 21:-0.85751998 22:0.85604 23:-0.63313001 24:-1.28468 
-16384 -0 0:0.095940001 1:0.18565001 2:-0.54437 3:-1.04787 4:-1.24691 5:0.59043002 6:1.01999 7:1.06423 8:0.52454001 9:0.73710001 10:0.27259001 11:-0.91750002 12:0.63098001 13:-0.64622998 14:-0.99396998 15:0.89797002 16:-1.0601 17:0.65281999 18:-0.76190001 19:-1.28187 20:0.69274002 21:-1.00207 22:0.68171 23:-0.68199003 24:-1.30821 
-14669.76269391914 -0 0:1.30176 1:1.92732 2:0.23884 3:-1.23074 4:-1.30349 5:0.59758002 6:0.56046999 7:-0.3779 8:-0.54161 9:1.85594 10:-0.50717002 11:-0.67738998 12:0.69588 13:-0.55295998 14:-0.39941999 15:0.35913 16:-0.85746002 17:0.68959999 18:-0.69185001 19:-0.60444999 20:0.19152001 21:-0.73346001 22:0.70235997 23:-0.60189998 24:-0.43103999 
-16384 -0 0:0.41106001 1:0.19169 2:0.3441 3:-0.91228998 4:-0.92558002 5:0.41125 6:1.1431299 7:0.11135 8:0.067539997 9:0.63977998 10:-0.77743 11:-0.77191001 12:0.58500999 13:-0.58499998 14:-0.60737997 15:0.12622 16:-0.92571998 17:0.56906003 18:-0.70327002 19:-0.83144999 20:-0.1374 21:-0.83214003 22:0.62094998 23:-0.62551999 24:-0.73282999 
-2396.880033174759 -0 0:0.28459001 1:1.6675 2:0.52350003 3:-0.70210999 4:0.13136999 5:1.23928 6:-0.55896997 7:-0.17114 8:-1.14842 9:-0.025839999 10:-1.93612 11:-0.39405 12:0.77629 13:-0.46335 14:0.08585 15:-2.1496601 16:-0.51161999 17:0.86501998 18:-0.56321001 19:0.056759998 20:-1.6604 21:-0.39737999 22:0.82823998 23:-0.48978999 24:0.12754001 
-1372.224799475049 -0 0:0.77015001 1:0.95608997 2:0.61324 3:-0.65959001 4:0.072619997 5:0.75243002 6:0.18110999 7:-1.00103 8:-0.91828001 9:0.31191999 10:-1.20897 11:0.0030100001 12:0.59130001 13:-0.15817 14:0.44306999 15:-1.2657501 16:-0.07322 17:0.72263998 18:-0.23431 19:0.42737001 20:-1.01574 21:-0.0078699999 22:0.48346999 23:-0.040759999 24:0.45021001 
-15875.70940227226 -0 0:0.64409 1:0.64749998 2:0.17068 3:-0.31878999 4:0.30803001 5:1.3749501 6:-0.25116 7:-1.12137 8:-1.06152 9:-0.31141999 10:-0.41828999 11:-0.044840001 12:0.35690001 13:-0.1605 14:0.4479 15:-0.61870003 16:-0.21413 17:0.65359002 18:-0.38981 19:0.42129001 20:-0.12587 21:-0.21292 22:0.57145 23:-0.34757 24:0.37615001 
-5036.467950253004 -0 0:0.5952 1:1.81127 2:0.24748001 3:-0.94023001 4:-0.98049003 5:1.03106 6:1.11832 7:-0.76378 8:-0.65903002 9:0.69101 10:-0.78874999 11:-0.74014002 12:0.57971001 13:-0.57972002 14:-0.47593999 15:-0.91677999 16:-0.81713003 17:0.59404999 18:-0.69597 19:-0.42056999 20:-0.48883 21:-0.73825997 22:0.69964999 23:-0.61285001 24:-0.44362 
-16384 -0 0:0.86707997 1:0.40583 2:0.73332 3:-0.67295998 4:-0.68861997 5:0.98157001 6:0.46182999 7:-0.65267998 8:-0.68968999 9:0.55294001 10:-0.63796997 11:-0.41562 12:0.68144 13:-0.48590001 14:0.10733 15:-0.65290999 16:-0.55510002 17:0.64543998 18:-0.58389002 19:0.06735 20:-0.31246001 21:-0.46015999 22:0.71348 23:-0.51109999 24:0.09866 
-735.1582025900725 -0 0:2.4779401 1:2.3129499 2:0.86826998 3:-0.77490002 4:-1.76193 5:-0.04786 6:0.34513 7:-0.12295 8:-0.48442 9:1.71025 10:-1.12679 11:0.82858002 12:-0.028419999 13:0.80660999 14:0.99945003 15:-2.21033 16:0.44966999 17:0.070579998 18:0.48863 19:0.84263003 20:-1.38458 21:1.1129 22:-0.86056 23:1.39288 24:1.06385 
-2800.562515671537 -21.44336773938028 0:-0.19835 1:1.11835 2:-0.61456001 3:-0.90376002 4:0.50660002 5:1.29589 6:-0.00072000001 7:-0.048939999 8:-0.70955998 9:-0.27406001 10:0.46313 11:-0.25830001 12:0.40621999 13:-0.33476999 14:0.24823999 15:-0.02915 16:-0.01334 17:-0.87537998 18:0.28349999 19:0.23405001 20:0.46630001 21:-0.074139997 22:-0.44725999 23:0.12006 24:0.13795 
-16384 -0 0:0.69233 1:1.00079 2:0.13331001 3:-0.88428998 4:-0.18341 5:0.45546001 6:0.079690002 7:-0.26396 8:-0.0394 9:0.34465 10:-0.31955999 11:-0.061390001 12:0.64213997 13:-0.33529001 14:0.41609001 15:-0.43902999 16:-0.38148999 17:0.73017001 18:-0.44940001 19:0.1957 20:-0.01378 21:-0.26890999 22:0.65098 23:-0.38729 24:0.29343 
-16384 -0 0:0.88686001 1:0.81690001 2:-0.02269 3:-0.82145 4:-0.27344999 5:0.55678999 6:0.027389999 7:-0.31637999 8:-0.51159 9:0.92330998 10:-0.1532 11:-0.31389001 12:0.63609999 13:-0.40469 14:0.19927999 15:-0.17888001 16:-0.56946999 17:0.75019997 18:-0.55084997 19:-0.046130002 20:0.22108001 21:-0.44942001 22:0.68651998 23:-0.47725999 24:0.06718 
-16384 -0 0:0.02049 1:0.78206003 2:0.32124001 3:-0.54088998 4:-0.29369 5:0.34931999 6:0.69151002 7:-0.25387999 8:-0.34127 9:0.24762 10:0.090920001 11:-0.71719003 12:0.64516997 13:-0.56720001 14:-0.46520001 15:0.32300001 16:-0.77893001 17:0.67548001 18:-0.65715998 19:-0.43911001 20:0.58363003 21:-0.74223 22:0.67584002 23:-0.60738999 24:-0.47931999 
-13720.26153117548 -0 0:0.92177999 1:0.98786002 2:0.094410002 3:-1.11459 4:-0.71166003 5:0.78508002 6:0.38977 7:-0.30026001 8:-0.48073 9:1.20327 10:1.2244 11:-0.82318002 12:0.47448 13:-0.57751 14:-0.81958002 15:1.9350899 16:-0.92633998 17:0.50686997 18:-0.69787002 19:-0.99589998 20:1.817 21:-0.81160998 22:0.52465999 23:-0.59622997 24:-0.83999002 
-16384 -0 0:0.59299999 1:0.93259001 2:-0.070540003 3:-1.30481 4:-1.40522 5:0.61549997 6:0.65824002 7:0.44988 8:0.26108 9:1.45752 10:-0.57870001 11:-0.87739003 12:0.65673 13:-0.62111002 14:-0.96521997 15:0.00254 16:-1.01911 17:0.66448998 18:-0.74436003 19:-1.23918 20:0.14608 21:-0.92249 22:0.69121999 23:-0.65415001 24:-1.03898 
-8179.892507495515 -0 0:-0.81436002 1:-0.076200001 2:-0.96644998 3:-0.83241999 4:-0.23593999 5:0.99532002 6:0.79047 7:0.27199 8:0.21665999 9:0.13344 10:-1.71213 11:-0.90538001 12:0.61589003 13:-0.64624 14:-0.97352999 15:-1.2088 16:-1.03606 17:0.63059998 18:-0.75888002 19:-1.14837 20:-1.93566 21:-0.97994 22:0.66645002 23:-0.68032002 24:-1.16868 
-3185.768767898687 -0 0:0.025289999 1:0.10482 2:0.15832999 3:-0.18787999 4:0.21615 5:-0.17603999 6:0.68537003 7:-0.37663001 8:-0.35813001 9:0.13379 10:-1.6230299 11:-0.86295003 12:0.54512 13:-0.62186003 14:-0.75492001 15:-1.20003 16:-0.93963999 17:0.51744002 18:-0.7245 19:-0.86210001 20:-1.9054101 21:-0.85543001 22:0.57317001 23:-0.64067 24:-0.79404998 
-2826.616804358537 -0 0:-1.47019 1:-0.58844 2:-1.28275 3:-0.76113999 4:-0.094410002 5:0.90816998 6:1.45813 7:1.0150501 8:0.57236999 9:-0.74673003 10:-0.92180002 11:-1.0033 12:0.49112999 13:-0.63423002 14:-1.80699 15:-0.39318001 16:-1.07152 17:0.53917998 18:-0.74809003 19:-1.71035 20:-1.1723 21:-1.00624 22:0.58897001 23:-0.66715997 24:-1.77756 
-38.82800156864964 -7.090863922500046 0:-1.66589 1:-0.84139001 2:-1.5084701 3:-0.76199001 4:0.74102002 5:1.2769901 6:0.78536999 7:0.52763999 8:0.58513999 9:-1.3326499 10:-1.62155 11:0.56524003 12:-2.1186299 13:1.2545201 14:-0.18185 15:-1.53748 16:0.56445998 17:-2.79989 18:1.38968 19:-0.20186999 20:-2.2158301 21:0.92194998 22:-3.2802899 23:2.1340899 24:-0.19051 
-1801.381132072485 -0 0:-1.93213 1:-1.8893 2:-1.35874 3:-0.77177 4:0.76396 5:1.2627701 6:1.9944201 7:0.80651999 8:0.21800999 9:-1.59744 10:-1.04251 11:-1.05339 12:0.54859 13:-0.65416002 14:-1.85409 15:-0.61287999 16:-1.08055 17:0.55426002 18:-0.75375998 19:-1.73773 20:-1.40447 21:-1.0223401 22:0.61641002 23:-0.67720997 24:-1.74823 
-2039.475520476358 -0 0:-0.35953999 1:0.90030003 2:-0.59623998 3:-0.43818 4:-1.2862099 5:-0.056139998 6:1.40178 7:0.96152002 8:0.34968001 9:0.67549002 10:-1.19857 11:-0.87331003 12:0.61054999 13:-0.64188999 14:-0.88703001 15:-0.95783001 16:-0.99624997 17:0.63919002 18:-0.75831997 19:-0.96745998 20:-0.71416998 21:-0.94121999 22:0.65855002 23:-0.67527997 24:-0.97008997 
-3345.267974811765 -0 0:1.56091 1:0.84599 2:0.68188 3:-0.80808002 4:-0.33621001 5:0.77614999 6:-0.044569999 7:-1.29398 8:-0.84785002 9:1.02795 10:-1.2842799 11:0.241 12:0.89001 13:-0.12391 14:0.67146999 15:-1.46367 16:0.078529999 17:1.01983 18:-0.21873 19:0.56831998 20:-1.2071 21:0.20805 22:0.84947997 23:-0.11223 24:0.67035002 
-16384 -0 0:0.48934999 1:0.17328 2:0.31751001 3:-0.53886998 4:-0.14657 5:1.02241 6:0.68752003 7:-1.0834 8:-0.61466998 9:0.01439 10:-1.7497801 11:-0.34786999 12:0.58310002 13:-0.46708 14:0.18254 15:-1.7323999 16:-0.58331001 17:0.60900003 18:-0.61057001 19:0.064460002 20:-1.56309 21:-0.47483 22:0.66165 23:-0.51652002 24:0.094080001 
-8844.080619332286 -0 0:-0.56085002 1:0.32576001 2:-0.15332 3:-0.45275 4:0.61111999 5:1.6598001 6:0.43357 7:-1.3133301 8:-0.73385 9:-0.92193002 10:-0.22570001 11:-0.32243001 12:0.65991002 13:-0.48745999 14:0.18173 15:-0.27068999 16:-0.65785003 17:0.67075998 18:-0.64752001 19:-0.06543 20:0.073370002 21:-0.54898 22:0.71775001 23:-0.56519002 24:-0.01384 
-2090.689859502135 -0 0:-0.19681001 1:0.53512001 2:-0.42508 3:-0.89827001 4:-0.63901001 5:1.06722 6:0.61808997 7:0.47849 8:-0.1788 9:0.38299999 10:-0.33032 11:-0.66859001 12:0.63907999 13:-0.61192 14:-0.50648999 15:-0.39408001 16:-0.89490998 17:0.65539998 18:-0.74339998 19:-0.73434001 20:-0.10598 21:-0.83186001 22:0.67773998 23:-0.65948999 24:-0.67646998 
-16384 -0 0:0.14971 1:0.19102 2:0.22858 3:-0.37022999 4:-0.17636 5:0.13950001 6:0.41600001 7:0.16707 8:-0.49759999 9:0.46351999 10:-1.3932 11:-0.74347001 12:0.53577 13:-0.58231997 14:-0.42464 15:-1.1452399 16:-0.85563999 17:0.55651999 18:-0.69911999 19:-0.57639003 20:-1.70031 21:-0.76630002 22:0.57511002 23:-0.60372001 24:-0.53518999 
-16384 -0 0:-0.62672001 1:-0.45166001 2:0.064410001 3:-0.15166 4:0.71682 5:0.49068999 6:0.15042999 7:-0.069389999 8:-0.58876002 9:-0.49616 10:-1.18945 11:-0.89204001 12:0.57576001 13:-0.63350999 14:-0.83595997 15:-0.79808003 16:-0.96921003 17:0.56054997 18:-0.73392999 19:-0.94521999 20:-1.4669 21:-0.88420999 22:0.62256002 23:-0.65548003 24:-0.85597998 
-12344.94239678303 -0 0:-0.55522001 1:0.054540001 2:-0.2184 3:-0.64560997 4:0.37145001 5:0.84842998 6:0.56015003 7:-0.31913999 8:-0.43722999 9:-0.15092 10:-1.1433901 11:-0.83578002 12:0.53684002 13:-0.60904998 14:-0.67988002 15:-0.71586001 16:-0.95458001 17:0.54277998 18:-0.72378999 19:-0.86189002 20:-1.36801 21:-0.88068998 22:0.59454 23:-0.64286 24:-0.86387998 
-2202.921249574598 -0 0:-2.0892999 1:-2.3580899 2:-1.19482 3:0.26791999 4:2.28215 5:1.36924 6:0.37018001 7:-0.54820001 8:-0.53189999 9:-2.38151 10:-1.6446 11:-0.98026001 12:0.58775997 13:-0.65676999 14:-1.0792 15:-1.60469 16:-0.98075002 17:0.57252997 18:-0.75445998 19:-1.01903 20:-2.24753 21:-0.93277001 22:0.64858001 23:-0.67953002 24:-0.94948 
-1790.007709177358 -0 0:-2.00527 1:-0.78323001 2:-1.8501101 3:-1.23131 4:-0.55535001 5:1.65807 6:2.82304 7:1.5634201 8:0.64687997 9:-1.1982599 10:-1.82028 11:-1.13482 12:0.59293002 13:-0.66648 14:-2.5227799 15:-1.6724499 16:-1.1839401 17:0.63224 18:-0.77302998 19:-2.6105001 20:-2.1459401 21:-1.1242 22:0.67878997 23:-0.69356 24:-2.5514801 
-81.62667177557132 -0 0:0.70016003 1:0.94928002 2:0.82393003 3:-0.51602 4:-0.26177001 5:0.0027099999 6:0.40085 7:-0.74478 8:-0.67341 9:0.85795999 10:1.2595 11:-0.73659998 12:0.45809999 13:-0.58174998 14:-0.39491001 15:1.83301 16:-0.84011 17:0.46557999 18:-0.68840998 19:-0.49089 20:1.6663899 21:-0.75321001 22:0.54619002 23:-0.61363 24:-0.44012001 
-2001.393764643603 -0 0:1.75826 1:1.41923 2:-0.78491998 3:-1.68343 4:0.01574 5:1.0078599 6:-0.45813 7:-0.37196001 8:-0.63347 9:1.56093 10:-0.25623 11:-0.67228001 12:0.71095002 13:-0.53685999 14:-0.42508999 15:-0.69875997 16:-0.84798998 17:0.81769001 18:-0.67874998 19:-0.65964001 20:0.01349 21:-0.69301999 22:0.85877001 23:-0.58587998 24:-0.44703001 
-6125.690379795421 -0 0:0.73027998 1:0.65446001 2:0.38143 3:-0.98708999 4:-1.0325201 5:0.53214002 6:0.99133998 7:0.14703999 8:-0.24801999 9:0.87165999 10:-0.76185 11:-0.51567 12:0.64148003 13:-0.58442998 14:-0.18979 15:-0.38112 16:-0.76923001 17:0.62198001 18:-0.71493 19:-0.40700999 20:-0.10363 21:-0.73196 22:0.65895998 23:-0.64209002 24:-0.36840001 
-3093.017049574191 -0 0:-0.45497999 1:-0.64349997 2:0.33219001 3:0.13431001 4:0.96632999 5:1.75907 6:0.19994 7:-1.88519 8:-1.1018699 9:-1.42593 10:-0.32934001 11:0.062760003 12:0.16566999 13:-0.01063 14:0.52677 15:-0.21614 16:-0.27901 17:0.25582001 18:-0.28894001 19:0.35187 20:0.077440001 21:-0.19374 22:0.18534 23:-0.08805 24:0.34781 
-6966.167327112586 -0 0:-0.45445001 1:-0.48205999 2:0.30605999 3:-0.0087000001 4:1.05487 5:2.05146 6:0.81681001 7:-2.3866401 8:-1.46172 9:-1.54257 10:-0.72316998 11:-0.26166001 12:0.50287002 13:-0.25497001 14:0.25933999 15:-0.61096001 16:-0.41339001 17:0.59367001 18:-0.44288 19:0.24217001 20:-0.18208 21:-0.36230001 22:0.53588998 23:-0.32302999 24:0.16113 
-759.3000082362022 -0 0:-1.69881 1:-0.40498999 2:-0.90153998 3:-1.21821 4:1.08588 5:2.21154 6:1.26436 7:-0.57174999 8:-0.55419999 9:-1.35297 10:-0.49908 11:-0.94761002 12:0.57937002 13:-0.6401 14:-1.05303 15:-0.64876997 16:-0.97318 17:0.55562001 18:-0.73883998 19:-0.95890999 20:-0.25106999 21:-0.94367999 22:0.63318998 23:-0.66850001 24:-1.13199 
-2023.629606233146 -0 0:0.71925002 1:1.4958301 2:0.56999999 3:-0.96051002 4:-0.73497999 5:1.00664 6:0.69303 7:-0.66382998 8:-0.72979999 9:0.61829001 10:-1.05803 11:-0.85632998 12:0.64017999 13:-0.63489997 14:-0.65196002 15:-0.80299997 16:-0.97206002 17:0.65895998 18:-0.74724001 19:-0.79449999 20:-0.36583999 21:-0.84733999 22:0.72903001 23:-0.65657997 24:-0.65087998 
-12575.46148983378 -0 0:-0.24755999 1:-0.99443001 2:0.36611 3:0.065339997 4:0.71205997 5:1.86059 6:0.60611999 7:-1.98989 8:-1.15074 9:-1.25693 10:-1.14226 11:-0.33079001 12:0.88158 13:-0.43773001 14:0.21828 15:-1.42232 16:-0.49544999 17:0.78521001 18:-0.54829001 19:0.119 20:-0.61162001 21:-0.37469 22:0.78302997 23:-0.48445001 24:0.20262 
