svm_type c_svc
kernel_type rbf
gamma 0.00098
nr_class 2
total_sv 401
rho -59.8675
label 1 0
nr_sv 207 194
SV
8192 0:0.49704999 1:-0.23938 2:0.69642001 3:0.86822999 4:-0.62190002 5:-0.94980001 6:-0.71947002 7:0.32352999 8:0.25993001 9:0.44244 10:0.81162 11:1.68494 12:-2.37767 13:1.81944 14:0.96745002 15:0.72267997 16:2.171 17:-2.98418 18:2.6637599 19:0.99769002 20:0.79992002 21:1.65022 22:-2.3934901 23:1.87498 24:0.96635002 
8192 0:0.51093 1:-0.67916 2:1.1499701 3:1.1199 4:-0.085940003 5:-0.06989 6:0.04304 7:-1.12316 8:-0.90899003 9:-0.33970001 10:0.14574 11:-0.23705 12:0.34863001 13:-0.37263 14:0.37029001 15:0.077969998 16:-0.27375001 17:0.56651998 18:-0.46822 19:0.41521001 20:0.33164001 21:-0.34334001 22:0.45708999 23:-0.45796001 24:0.27478999 
8192 0:-0.22776 1:-0.14381 2:-0.36324 3:0.41269001 4:-0.45745999 5:-0.94892001 6:-0.34735 7:1.26954 8:0.96727002 9:0.098240003 10:0.76340997 11:0.56620002 12:-1.25727 13:0.54914999 14:0.34195 15:1.08731 16:1.27648 17:-3.0928199 18:1.7383 19:0.31386 20:0.71518999 21:0.64472002 22:-1.45592 23:0.66066003 24:0.28238001 
8192 0:-1.2162499 1:-1.46308 2:-0.46322 3:-0.29328999 4:0.51937002 5:0.42884001 6:0.69391 7:0.46581 8:0.37123999 9:-0.81102002 10:-2.4195001 11:-0.84428 12:0.32227999 13:-0.53175998 14:-1.12757 15:-1.96266 16:-0.96983999 17:0.36217999 18:-0.65306002 19:-1.3333499 20:-2.6867299 21:-0.71232998 22:0.088349998 23:-0.34944001 24:-1.03485 
3215.527157331119 0:-0.72602999 1:1.53223 2:0.088529997 3:-1.4031301 4:-1.56849 5:0.59609002 6:1.32964 7:1.60693 8:0.27516001 9:0.85303998 10:-2.63939 11:-1.03319 12:0.62528998 13:-0.65280998 14:-1.7836601 15:-2.3229101 16:-1.1110801 17:0.66338003 18:-0.76393998 19:-1.93203 20:-2.94169 21:-1.0280401 22:0.69059002 23:-0.67917001 24:-1.7178299 
8192 0:-0.75321001 1:-0.97105998 2:-0.13127001 3:-0.47097 4:1.04849 5:1.50613 6:0.26188001 7:-1.15084 8:-0.59618998 9:-0.91403002 10:-2.3213401 11:-0.80063999 12:0.55374998 13:-0.60413998 14:-0.65814 15:-1.8667001 16:-0.917 17:0.59460998 18:-0.71552998 19:-0.81300002 20:-2.5836999 21:-0.82516998 22:0.59881002 23:-0.62900001 24:-0.73395997 
8192 0:-0.49482 1:-0.44492 2:0.20077001 3:-0.52091002 4:0.32484999 5:0.49162 6:0.49434 7:0.12529001 8:-0.39030999 9:-0.14910001 10:-1.76228 11:-0.91065001 12:0.60543001 13:-0.63644999 14:-0.91483003 15:-1.27061 16:-1.01706 17:0.61818999 18:-0.74675 19:-1.11104 20:-1.9989901 21:-0.92049998 22:0.64314002 23:-0.65925002 24:-0.98877001 
6087.135518989477 0:-1.09434 1:0.27629 2:-0.37544 3:-0.16314 4:1.61971 5:1.06521 6:-0.35609001 7:-0.33041999 8:-1.11775 9:-1.21108 10:-1.54301 11:-0.58882999 12:0.60273999 13:-0.56598997 14:-0.087499999 15:-1.35811 16:-0.67593998 17:0.42168 18:-0.63973999 19:-0.22066 20:-1.92468 21:-0.63111001 22:0.53666002 23:-0.59320998 24:-0.24705 
2169.729091808604 0:-1.58297 1:-1.98686 2:-1.3488899 3:-0.94572002 4:0.98465002 5:3.0692799 6:1.46491 7:-1.00267 8:-0.54672003 9:-1.78705 10:-2.0455999 11:-1.03066 12:0.62581998 13:-0.65775001 14:-1.59091 15:-1.61838 16:-1.09899 17:0.65467 18:-0.76549 19:-1.66524 20:-2.3674099 21:-1.0304101 22:0.70095003 23:-0.68585002 24:-1.56949 
8192 0:0.11683 1:0.46873 2:-0.26082 3:-0.71806002 4:0.56397003 5:1.05188 6:0.32346001 7:-0.84359002 8:-0.69766003 9:-0.19027001 10:-1.57026 11:-0.73962998 12:0.65156001 13:-0.61436999 14:-0.43145001 15:-1.01436 16:-0.89963001 17:0.64368999 18:-0.73082 19:-0.67609 20:-1.84299 21:-0.80646002 22:0.67297 23:-0.64936 24:-0.55306 
8192 0:-0.80027997 1:-0.49467 2:-0.8933 3:-0.89200997 4:-0.28130001 5:0.74789 6:1.0756201 7:0.24512 8:0.83227003 9:-0.17059 10:-2.16098 11:-0.90687001 12:0.50770998 13:-0.61799002 14:-1.06584 15:-1.6418999 16:-0.94591999 17:0.49603 18:-0.70866001 19:-1.1553 20:-2.4302499 21:-0.88212001 22:0.50797999 23:-0.61416 24:-1.16149 
2250.911537407351 0:0.021190001 1:-0.8477 2:0.42646 3:1.73183 4:0.81594998 5:-1.57499 6:-1.29778 7:-0.33858001 8:-0.37154999 9:0.055259999 10:0.28863001 11:0.16818 12:-0.26666999 13:-0.036710002 14:0.58952999 15:0.12448 16:0.41736999 17:-0.52489001 18:0.12323 19:0.75607002 20:0.043949999 21:0.23564 22:-0.25288999 23:-0.01436 24:0.66447002 
8192 0:-1.46003 1:-2.34233 2:0.32980001 3:1.40694 4:0.82859999 5:0.088179998 6:-0.018920001 7:-0.40147001 8:0.13181999 9:-1.9243 10:1.0762399 11:-0.352 12:-0.18804 13:-0.22036 14:-0.20300999 15:1.33786 16:-0.39287001 17:-0.22555999 18:-0.33511999 19:-0.10625 20:1.0082 21:-0.44154999 22:0.0078999996 23:-0.34354001 24:-0.29361999 
4137.651921820671 0:-1.73127 1:-1.66662 2:-0.63984001 3:0.11279 4:1.63653 5:1.37196 6:0.90562999 7:-0.86141002 8:-0.648 9:-2.0536001 10:1.10979 11:-0.89976001 12:0.52293003 13:-0.63679999 14:-0.87380999 15:1.60413 16:-0.90666002 17:0.5072 18:-0.7295 19:-0.73154002 20:1.30757 21:-0.90524 22:0.59075999 23:-0.66100001 24:-0.95073003 
8192 0:-0.64977002 1:-1.47657 2:1.53052 3:1.48286 4:0.70305002 5:0.12533 6:-0.37419 7:-0.69628 8:-0.71240002 9:-1.8516901 10:0.12299 11:0.80185997 12:-0.34654 13:0.24977 14:1.01406 15:-0.30447999 16:0.63058001 17:0.06072 18:0.15555 19:0.95045 20:-0.090989999 21:0.60719001 22:-0.1707 23:0.1057 24:0.93827999 
8192 0:0.099909998 1:0.55559999 2:-0.72132999 3:-0.42844999 4:0.79175001 5:-0.85497999 6:-1.33187 7:0.71921003 8:0.56050003 9:0.68989998 10:1.10375 11:0.056449998 12:-0.45247 13:0.078539997 14:0.3466 15:0.96315002 16:0.61290997 17:-0.85127997 18:0.47865 19:0.70420003 20:0.97526002 21:0.20716999 22:-0.42054 23:0.097860001 24:0.49044999 
26.46850759534643 0:-0.89036 1:-0.87813002 2:-0.76990002 3:0.089510001 4:1.94859 5:-0.23545 6:-0.91452998 7:0.066129997 8:0.02299 9:-0.87374002 10:-0.072719999 11:-0.20211001 12:-0.02768 13:-0.26367 14:0.24174 15:-0.071220003 16:0.27267 17:-0.33353999 18:0.019859999 19:0.61563998 20:-0.10149 21:-0.1198 22:0.02148 23:-0.26822001 24:0.32271001 
8192 0:-0.5413 1:-0.51415002 2:-0.21742 3:-0.24129 4:0.64591998 5:1.09417 6:0.62463999 7:-0.63889998 8:-0.53100997 9:-0.96345001 10:-0.24034999 11:-0.86205 12:0.65675998 13:-0.62124997 14:-0.77215999 15:0.066629998 16:-0.93537998 17:0.67132002 18:-0.73497999 19:-0.68983001 20:0.099610001 21:-0.89495999 22:0.70142001 23:-0.66268998 24:-0.83648002 
8192 0:-0.96188003 1:-1.2818 2:0.56725001 3:1.19779 4:0.50831002 5:0.15316001 6:0.067749999 7:-0.68772 8:-0.35710001 9:-1.33803 10:0.17802 11:-0.25887001 12:0.10063 13:-0.36179 14:0.19454999 15:0.30344 16:-0.40514001 17:0.073509999 18:-0.46856999 19:0.092349999 20:0.19013999 21:-0.32694 22:0.13301 23:-0.38920999 24:0.04064 
8192 0:1.7906801 1:1.30979 2:-0.31683001 3:0.32034999 4:-0.086609997 5:-1.73054 6:-1.46852 7:0.45734 8:0.25373 9:1.46296 10:-0.033780001 11:1.04598 12:-0.39243001 13:0.52553999 14:1.15227 15:-0.48223001 16:1.39877 17:-0.69932002 18:0.93625998 19:1.13693 20:-0.49146 21:1.32239 22:-0.59490001 23:0.72356999 24:1.21259 
8192 0:0.54035997 1:0.39515999 2:0.39785001 3:-0.64081001 4:-0.25718001 5:0.52104998 6:0.81800997 7:-0.62449002 8:-0.57435 9:0.39337 10:-1.75286 11:-0.71069002 12:0.53824002 13:-0.57841003 14:-0.31685001 15:-1.55428 16:-0.83130997 17:0.5485 18:-0.69142002 19:-0.44821 20:-2.0869 21:-0.72939003 22:0.61135 23:-0.60652 24:-0.39313999 
8192 0:-1.30856 1:-1.76255 2:-0.80212998 3:-0.13189 4:1.33903 5:1.68198 6:0.66668999 7:-1.00568 8:-0.63713002 9:-1.4693201 10:-1.3868999 11:-0.86707002 12:0.57950997 13:-0.64282 14:-0.65425998 15:-1.10906 16:-0.94949001 17:0.61435002 18:-0.74896002 19:-0.69683999 20:-1.55129 21:-0.91542 22:0.65855002 23:-0.67300999 24:-0.83824003 
8192 0:0.16868 1:-0.21419001 2:0.78122997 3:1.14511 4:-0.27274999 5:-0.95213997 6:-0.73729002 7:0.24365 8:0.28924 9:-0.33572 10:-0.67947 11:1.35629 12:-1.7694401 13:1.25017 14:1.01569 15:-0.70692003 16:1.36545 17:-1.71857 18:1.36016 19:1.00666 20:-0.88281 21:1.19449 22:-1.53382 23:1.08731 24:1.00605 
669.9666030629957 0:-1.36792 1:-0.038380001 2:-2.2692201 3:-1.5723701 4:-0.67009997 5:0.40321001 6:1.14952 7:1.9924099 8:2.35741 9:-0.12199 10:1.15452 11:-0.83613002 12:0.32826999 13:-0.54177999 14:-1.43001 15:1.72079 16:-0.78561997 17:0.096579999 18:-0.52267998 19:-0.95951003 20:1.07795 21:-0.81955999 22:0.34839001 23:-0.54751998 24:-1.41307 
3914.685684518835 0:0.90587002 1:1.45507 2:0.076849997 3:-0.051729999 4:-0.68444997 5:-0.75963998 6:-0.40176001 7:0.052379999 8:-0.29683 9:1.67793 10:0.45835999 11:-0.1749 12:-0.098530002 13:-0.17292 14:0.16779 15:0.35181001 16:-0.49778 17:0.086960003 18:-0.45644 19:-0.098810002 20:0.51056999 21:-0.25661999 22:0.043129999 23:-0.2667 24:0.10032 
8192 0:0.93039 1:1.0869401 2:-0.28255001 3:0.26350999 4:0.68627 5:-1.21351 6:-1.38591 7:0.42550001 8:-0.14823 9:0.57196999 10:0.27695 11:0.97987998 12:-1.0922199 13:0.82810003 14:1.02124 15:-0.095339999 16:1.35437 17:-1.4636199 18:1.32241 19:1.14212 20:0.16113999 21:1.09653 22:-1.27755 23:0.99137002 24:1.05841 
8192 0:1.12962 1:0.04755 2:1.01643 3:0.74339998 4:-0.69751 5:-0.88982999 6:-0.69559997 7:-0.27845001 8:-0.42675 9:1.19524 10:0.30645999 11:0.21053 12:-0.1561 13:0.10889 14:0.62535 15:0.39844 16:-0.06882 17:-0.26334 18:0.045540001 19:0.4136 20:0.65641999 21:0.18979 22:-0.42629001 23:0.26457 24:0.54218 
8192 0:0.95550001 1:0.74325001 2:-0.39844999 3:0.13499001 4:-0.00036000001 5:-1.13684 6:-1.199 7:0.61606997 8:0.51203001 9:0.83552998 10:0.80413997 11:1.04447 12:-1.37744 13:0.90932 14:0.83781999 15:0.53052002 16:1.73858 17:-2.25599 18:1.86932 19:0.99386001 20:0.59151 21:1.26183 22:-1.6123 23:1.17206 24:0.94155997 
8192 0:1.14421 1:0.51064003 2:0.73698002 3:0.76591003 4:-0.43819001 5:-1.39142 6:-0.84442002 7:0.081299998 8:0.02688 9:0.83366001 10:0.42296001 11:0.8829 12:-1.1833 13:0.78055 14:0.92088997 15:0.21246 16:1.04566 17:-1.80463 18:1.22386 19:0.95993 20:0.17017999 21:1.06826 22:-1.5418299 23:1.09214 24:0.98319 
8192 0:1.31449 1:1.2467099 2:-0.73466003 3:-0.2256 4:0.01128 5:-1.50711 6:-1.43057 7:0.71262997 8:0.63229001 9:1.64525 10:0.99384999 11:0.65069002 12:-0.96367002 13:0.54110003 14:0.7105 15:0.63080001 16:1.5301501 17:-2.1308501 18:1.6561 19:0.93914002 20:0.65268999 21:1.07576 22:-1.47876 23:1.0515701 24:0.89243001 
5759.047046306269 0:0.61233002 1:-0.42309001 2:1.35734 3:1.1806 4:-0.41031 5:-0.99242002 6:-0.87321001 7:-0.51756001 8:-0.52762002 9:0.85597003 10:0.49505001 11:0.71899003 12:-0.79202998 13:0.60435998 14:0.86335999 15:0.46331 16:0.45653999 17:-0.96908998 18:0.52499998 19:0.72294998 20:0.63859999 21:0.70002002 22:-0.96197999 23:0.67088997 24:0.78855002 
8192 0:0.43566 1:0.53315002 2:0.00288 3:-1.12196 4:-0.86770999 5:0.64955997 6:1.52101 7:-0.03283 8:-0.35216999 9:0.87207001 10:-1.13032 11:-0.95779002 12:0.61627001 13:-0.64841998 14:-1.02844 15:-0.48229 16:-1.02856 17:0.63858002 18:-0.75588 19:-1.06112 20:-0.46017 21:-0.95784998 22:0.69163001 23:-0.67613 24:-1.0557801 
8192 0:0.41762 1:0.092820004 2:0.21709 3:0.70547003 4:0.00352 5:-0.57424003 6:-0.20197999 7:-0.38387001 8:-0.19915999 9:0.022 10:-0.69981003 11:0.64293998 12:0.27651 13:-0.01496 14:0.93726999 15:-1.16643 16:1.0503 17:0.57776999 18:0.43177 19:1.0209399 20:-0.91437 21:0.76994997 22:0.23913001 23:0.090020001 24:0.99010998 
8192 0:0.88866001 1:0.71324003 2:-0.38949999 3:0.1085 4:-0.56102997 5:-1.31587 6:-0.56799001 7:0.71785998 8:0.57391 9:1.32471 10:0.063000001 11:0.70778 12:-0.38920999 13:0.21872 14:0.90420002 15:-0.13957 16:1.12164 17:-0.86789 18:0.64816999 19:0.90644997 20:-0.15563001 21:0.86272001 22:-0.5438 23:0.33763999 24:0.95629001 
8004.306921487952 0:1.52858 1:1.0470999 2:0.15816 3:0.30963001 4:-0.3206 5:-1.47067 6:-0.89507002 7:0.22346 8:-0.13249999 9:1.52457 10:0.02667 11:0.69321001 12:0.12616 13:0.11655 14:1.0549901 15:-0.74917001 16:0.76454002 17:0.44012001 18:0.29706001 19:1.02855 20:-0.34782001 21:0.74734998 22:0.19269 23:0.17896999 24:1.06533 
8192 0:1.00971 1:0.66504002 2:-0.10497 3:0.29214001 4:-0.24078 5:-1.13043 6:-0.37781999 7:0.49577001 8:0.03906 9:0.7669 10:0.31624001 11:0.64188999 12:-0.33531001 13:0.14765 14:0.87639999 15:-0.12415 16:0.86208999 17:-0.38102001 18:0.30778 19:0.89521998 20:-0.047419999 21:0.75454003 22:-0.35242999 23:0.20933001 24:0.94142002 
8192 0:0.82304001 1:0.63202 2:0.082029998 3:0.36532 4:-0.27566999 5:-0.69863999 6:-0.30103999 7:0.015729999 8:-0.02093 9:0.42686 10:-0.02533 11:0.61282003 12:0.28369001 13:0.077169999 14:1.00188 15:-0.99317002 16:0.52670997 17:0.58034998 18:0.11875 19:0.90746999 20:-0.45989999 21:0.60501999 22:0.29466 23:0.11015 24:0.96244001 
8192 0:0.91227001 1:0.69479001 2:0.01873 3:0.46138 4:-0.24891999 5:-1.06011 6:-0.46026999 7:0.29951999 8:-0.0056799999 9:0.63221997 10:0.37998 11:0.65631002 12:-0.21674 13:0.11375 14:0.91339999 15:0.01256 16:1.05344 17:-0.43895999 18:0.41543999 19:0.93719 20:0.20782 21:0.83495998 22:-0.30322 23:0.1957 24:0.93532002 
8192 0:0.90184999 1:0.88062 2:-0.38569999 3:0.12376 4:-0.45190999 5:-1.2349401 6:-0.62511998 7:0.76085001 8:0.58082002 9:0.99286997 10:0.68502003 11:0.80473 12:-0.45811999 13:0.30744001 14:0.88880998 15:0.30127999 16:1.33061 17:-0.62405002 18:0.79562002 19:0.94373 20:0.50020999 21:1.0007499 22:-0.57059002 23:0.42684001 24:0.95422 
8192 0:-0.16532999 1:-1.0741301 2:0.81862998 3:1.03816 4:0.74552 5:-0.19326 6:-0.83579999 7:-0.81527001 8:-0.42155001 9:-0.72126001 10:-1.15773 11:0.45102999 12:-0.074979998 13:0.015 14:0.87296999 15:-0.98374999 16:0.38269001 17:-0.11836 18:0.026249999 19:0.81874001 20:-1.00773 21:0.40226999 22:-0.10562 23:0.0074700001 24:0.83252001 
8192 0:0.82641 1:1.04301 2:0.96284997 3:-0.65131003 4:-0.50966001 5:0.58209997 6:0.36983001 7:-0.89815003 8:-0.66201001 9:0.60334998 10:-0.33677 11:-0.26098001 12:0.62401003 13:-0.34085 14:0.28979 15:0.41800001 16:-0.52871001 17:0.61627001 18:-0.54550999 19:0.12627 20:0.42328 21:-0.36684 22:0.56445003 23:-0.35934001 24:0.20213 
8192 0:-0.12449 1:1.08512 2:-0.13679001 3:-0.99763 4:-0.31830999 5:0.56955999 6:1.25279 7:0.0087000001 8:-0.29635 9:0.23017 10:-0.40061 11:-0.99229002 12:0.62851 13:-0.65183997 14:-1.2923 15:0.13895001 16:-1.08596 17:0.63989002 18:-0.76314998 19:-1.45525 20:0.28358001 21:-0.99348998 22:0.69655001 23:-0.68136001 24:-1.27336 
8192 0:0.96658999 1:-0.030579999 2:1.4971 3:1.85781 4:-0.37447 5:-1.8678 6:-1.3727601 7:-0.36326 8:-0.40119001 9:0.76982999 10:0.20522 11:1.78687 12:-1.3328 13:1.44586 14:1.35594 15:-0.25635001 16:1.18521 17:-0.62900001 18:0.90246999 19:1.21728 20:0.10859 21:1.5682499 22:-1.02786 23:1.16361 24:1.26791 
6482.871297383122 0:0.84513003 1:0.75316 2:0.96174997 3:-0.25938001 4:0.17155001 5:0.56726998 6:0.26012999 7:-1.5680799 8:-0.89398003 9:-0.061379999 10:-1.3953 11:0.19728 12:0.79198998 13:-0.1973 14:0.74207997 15:-1.46667 16:-0.02696 17:0.85473001 18:-0.29787999 19:0.62422001 20:-1.13632 21:0.12211 22:0.75081998 23:-0.19807 24:0.67883998 
8192 0:0.3836 1:0.12671 2:1.2709 3:0.28022999 4:-0.15487 5:1.0617501 6:0.51968998 7:-1.55597 8:-1.09325 9:-0.72916001 10:-0.75016999 11:-0.10388 12:0.80075002 13:-0.35573 14:0.52026999 15:-0.88862997 16:-0.31345001 17:0.76063001 18:-0.48065999 19:0.41198 20:-0.43511 21:-0.206 22:0.78004003 23:-0.41909999 24:0.44639 
8192 0:0.37771001 1:-0.40654001 2:1.36227 3:1.2685601 4:-0.020679999 5:-0.71715999 6:-0.73073 7:-0.62265998 8:-0.48370001 9:-0.17211001 10:-0.56691003 11:1.26586 12:-0.43647 13:0.77407998 14:1.28397 15:-1.0293 16:0.69112998 17:0.12025 18:0.37525001 19:1.02702 20:-0.73695999 21:0.93439001 22:-0.24665999 23:0.50901002 24:1.1457601 
1131.598045925453 0:1.3187 1:2.1291499 2:0.17166001 3:-1.43918 4:-1.93575 5:-0.20116 6:0.97825998 7:0.87090999 8:0.11714 9:2.26162 10:1.4198101 11:-1.04733 12:0.58418 13:-0.65911001 14:-1.5435801 15:2.0857799 16:-1.10649 17:0.61049998 18:-0.76463002 19:-1.68297 20:1.69077 21:-1.02437 22:0.66443998 23:-0.6832 24:-1.48358 
4408.369434802549 0:1.1733 1:1.10895 2:-0.18367 3:0.47016999 4:0.68752003 5:-1.86237 6:-1.88662 7:0.57380003 8:-0.03647 9:1.10981 10:0.27136001 11:0.89209002 12:-1.08315 13:0.69296998 14:0.94625002 15:-0.0046600001 16:1.2729599 17:-1.58155 18:1.1889 19:1.08846 20:0.035939999 21:0.99847001 22:-1.12414 23:0.81926 24:1.02958 
5569.58818296127 0:1.62635 1:1.64054 2:-0.18945 3:0.35143 4:0.044199999 5:-1.75875 6:-1.3907599 7:0.36291 8:0.070880003 9:1.33443 10:0.51876998 11:1.6325099 12:-2.2792699 13:1.82569 14:1.11049 15:0.01664 16:1.97214 17:-2.4969399 18:2.31042 19:1.2496001 20:-0.00211 21:2.0170701 22:-2.6349299 23:2.32848 24:1.28197 
8192 0:-0.77026999 1:-0.5869 2:-0.20987 3:-0.86637998 4:0.29359001 5:1.91794 6:1.45015 7:-0.99406999 8:-0.74800003 9:-0.71158999 10:0.02585 11:-0.94195002 12:0.64621001 13:-0.64589 14:-1.02266 15:0.13156 16:-1.02614 17:0.66267002 18:-0.75244999 19:-1.11422 20:0.47334999 21:-0.95405 22:0.72965002 23:-0.67188001 24:-1.1312701 
8192 0:0.61732 1:0.27250001 2:0.78874999 3:-0.37700999 4:-0.1681 5:0.96954 6:0.27674001 7:-1.1294399 8:-0.78898001 9:0.05204 10:0.52471 11:-0.5043 12:0.63644999 13:-0.52594 14:0.01041 15:0.54708999 16:-0.57552999 17:0.75323999 18:-0.60137999 19:-0.05497 20:0.79688001 21:-0.55473 22:0.67692 23:-0.56002003 24:-0.051339999 
8192 0:1.56863 1:1.36288 2:-0.042440001 3:0.38319001 4:-0.11022 5:-1.59586 6:-1.66915 7:0.37253001 8:0.099710003 9:1.50641 10:0.69336998 11:1.63191 12:-2.5747299 13:2.1212299 14:1.0692 15:0.40852001 16:1.9559799 17:-2.75841 18:2.51243 19:1.19186 20:0.36533999 21:1.91199 22:-2.8430901 23:2.46703 24:1.19813 
8192 0:1.2432899 1:0.57683998 2:1.0827 3:1.07704 4:-0.36028999 5:-1.2408299 6:-1.23254 7:-0.41273999 8:-0.30250001 9:0.77270001 10:0.43454 11:1.69744 12:-1.88581 13:1.76931 14:1.25343 15:0.28003001 16:1.84411 17:-2.25109 18:2.1317501 19:1.24641 20:0.33924001 21:1.8565201 22:-2.214 23:1.98199 24:1.23877 
8192 0:-0.29705 1:0.48337999 2:-0.64363998 3:-1.13305 4:-0.87242001 5:1.45546 6:1.13811 7:0.24982999 8:0.23788001 9:0.022879999 10:0.083750002 11:-1.06303 12:0.62431002 13:-0.65754998 14:-1.81967 15:0.26550999 16:-1.14048 17:0.66058999 18:-0.76642001 19:-2.16344 20:0.42791 21:-1.05643 22:0.71047002 23:-0.68454999 24:-1.8398499 
8192 0:-0.52355999 1:-1.29764 2:0.50226998 3:0.82248998 4:0.97472 5:0.75463003 6:0.0089499997 7:-1.28877 8:-0.83991998 9:-1.44162 10:0.20246001 11:-0.29629999 12:0.57748002 13:-0.52287 14:0.27169999 15:0.30662 16:-0.35698 17:0.61584002 18:-0.60721999 19:0.21585999 20:0.29028001 21:-0.40081999 22:0.66983998 23:-0.57708001 24:0.16876 
8192 0:0.31998 1:0.18406001 2:0.067960002 3:0.72355998 4:0.51128 5:-1.10708 6:-0.70034999 7:-0.02998 8:-0.23502 9:0.24474999 10:0.21992999 11:0.030710001 12:0.22984 13:-0.31753001 14:0.60009003 15:-0.14647 16:0.43803999 17:0.19498 18:-0.084469996 19:0.82043999 20:0.052439999 21:0.21828 22:0.21755999 23:-0.23989999 24:0.72011 
8192 0:0.42375001 1:0.068700001 2:0.13049001 3:0.84237999 4:0.44439 5:-1.27793 6:-0.88938999 7:-0.088679999 8:-0.16387001 9:0.45256999 10:0.056699999 11:0.14791 12:0.20558 13:-0.25859001 14:0.68761998 15:-0.37606999 16:0.44380999 17:0.23982 18:-0.078730002 19:0.84824002 20:-0.33083001 21:0.31197 22:0.22766 23:-0.18260001 24:0.79763001 
8192 0:0.93901002 1:-0.039889999 2:0.54171002 3:0.96322 4:0.16032 5:-1.46711 6:-1.0155801 7:-0.39635 8:-0.26938 9:0.91896999 10:0.41979 11:0.16547 12:0.08997 13:-0.23999 14:0.65671003 15:0.26563001 16:0.43472999 17:-0.03672 18:-0.073650002 19:0.77405 20:0.23267999 21:0.27241999 22:0.06983 23:-0.19134 24:0.71799999 
8192 0:0.10968 1:0.19544999 2:0.55475998 3:-0.10656 4:-0.89512002 5:0.14226 6:0.57308 7:0.22221 8:-0.071089998 9:0.32455999 10:0.085029997 11:-0.81466001 12:0.57687002 13:-0.61657 14:-0.61974001 15:0.53274 16:-0.90499002 17:0.53649998 18:-0.71915001 19:-0.73352998 20:0.32631999 21:-0.82055998 22:0.61206001 23:-0.63608998 24:-0.70099002 
8192 0:-0.01555 1:0.60363001 2:-0.14159 3:-1.16984 4:-1.26105 5:0.64538997 6:1.10044 7:0.70038003 8:0.15281001 9:1.06273 10:0.57369 11:-1.03768 12:0.60062999 13:-0.65477002 14:-1.60471 15:1.24832 16:-1.1048599 17:0.60799003 18:-0.75869 19:-1.72561 20:1.07539 21:-1.0207 22:0.67354 23:-0.67843002 24:-1.5641 
8192 0:0.87388998 1:0.099940002 2:0.15602 3:1.04669 4:0.21069001 5:-1.50473 6:-0.83056003 7:-0.26554 8:-0.22761001 9:0.72280997 10:0.83727998 11:0.35216999 12:-0.0583 13:-0.076530002 14:0.74465001 15:0.41817999 16:0.65957999 17:0.081649996 18:0.093379997 19:0.86941999 20:0.68618 21:0.49090001 22:0.021679999 23:-0.045790002 24:0.81778997 
8192 0:1.4514101 1:1.0927 2:-0.41212001 3:0.25231999 4:-0.61760998 5:-1.52788 6:-0.6358 7:0.46075001 8:0.32508001 9:1.61228 10:0.69515997 11:0.44097999 12:0.12775999 13:-0.10677 14:0.78706002 15:0.15755001 16:0.85004002 17:0.24414 18:0.24685 19:0.86277997 20:0.28944999 21:0.64708 22:0.072439998 23:0.039360002 24:0.89714003 
8192 0:0.45076001 1:-0.038509998 2:1.34534 3:0.69509 4:-0.07271 5:-0.36836001 6:-0.80006999 7:-0.61101002 8:-0.57537001 9:0.24323 10:-0.01636 11:0.37639999 12:0.33493 13:-0.089270003 14:0.84215999 15:-0.066229999 16:0.21654999 17:0.59698999 18:-0.11042 19:0.68616998 20:0.24676999 21:0.18988 22:0.31439999 23:-0.17685001 24:0.72676003 
8192 0:-0.28334999 1:-0.97157001 2:1.66299 3:1.67258 4:0.043949999 5:-0.53963 6:-0.57397997 7:-0.78004003 8:-0.58429003 9:-0.68741 10:-0.64310002 11:0.45859 12:0.10871 13:-0.058460001 14:0.89269 15:-0.90772003 16:0.4034 17:0.44441 18:-0.028419999 19:0.83528 20:-0.76389003 21:0.31953999 22:0.17112 23:-0.13157 24:0.82066 
8192 0:0.75523001 1:0.78561002 2:0.89223999 3:-0.080329999 4:0.0044399998 5:0.51141 6:-0.14837 7:-0.87624002 8:-0.82091999 9:-0.11133 10:0.20845 11:0.27674001 12:0.59439999 13:-0.16159999 14:0.77302998 15:0.073169999 16:0.12988 17:0.72707999 18:-0.1673 19:0.6789 20:0.46700001 21:0.092249997 22:0.52267998 23:-0.24687999 24:0.65625 
8192 0:0.51213002 1:-0.52706999 2:1.55355 3:1.1309201 4:-0.18433 5:-0.55427003 6:-0.67332 7:-1.0007499 8:-0.59021997 9:0.21272001 10:0.43336001 11:0.06036 12:0.37006 13:-0.29444 14:0.64560997 15:0.28303 16:0.032370001 17:0.51173002 18:-0.28996 19:0.61049002 20:0.45131999 21:0.035470001 22:0.34931999 23:-0.29043999 24:0.62647998 
8192 0:1.55825 1:1.4253 2:0.64881998 3:-1.1587 4:-1.77019 5:-0.14161 6:0.95582998 7:0.40917999 8:-0.02355 9:1.89072 10:-0.16063 11:-0.54521 12:0.58324999 13:-0.55803001 14:-0.12616999 15:0.094599999 16:-0.81559998 17:0.57422 18:-0.69634998 19:-0.40871 20:0.094290003 21:-0.70577002 22:0.62404001 23:-0.60319 24:-0.31536001 
8192 0:1.1388 1:0.13503 2:0.82555997 3:1.19891 4:-0.26093999 5:-1.6322 6:-1.00709 7:-0.34884 8:-0.33596 9:1.13534 10:0.2168 11:0.47808999 12:-0.023290001 13:0.0050400002 14:0.89274001 15:-0.053750001 16:0.44295999 17:0.15876999 18:0.021880001 19:0.87221998 20:0.064939998 21:0.48534 22:-0.01675 23:0.01333 24:0.89938998 
7703.766046054967 0:1.01002 1:0.30476001 2:0.73790002 3:-0.23353 4:-0.73982 5:-0.38529 6:0.44125 7:-0.00115 8:-0.49702999 9:1.1549 10:1.46351 11:-0.68458003 12:0.35631999 13:-0.55188 14:-0.47554001 15:1.99049 16:-0.75936002 17:0.32892999 18:-0.64300001 19:-0.50224 20:1.6514 21:-0.68365002 22:0.42429 23:-0.57359999 24:-0.48214999 
8192 0:1.0817 1:0.71937001 2:1.10593 3:0.48067001 4:-1.32978 5:-1.01071 6:0.06662 7:-0.10426 8:-0.18538 9:1.39925 10:1.2158999 11:-0.50805998 12:0.20309 13:-0.46230999 14:-0.21393 15:1.54886 16:-0.61422002 17:0.18457 18:-0.56623 19:-0.27121001 20:1.3307 21:-0.50129002 22:0.25277999 23:-0.47452 24:-0.19675 
8192 0:1.70996 1:1.72592 2:0.72662997 3:-0.82985002 4:-0.98675001 5:-0.54584998 6:0.23139 7:0.053149998 8:-0.26166001 9:1.63196 10:0.018580001 11:-0.28918999 12:0.81441998 13:-0.44646999 14:0.19012 15:-0.059629999 16:-0.32181999 17:1.11001 18:-0.45699 19:0.089579999 20:0.28565001 21:-0.38692999 22:0.79364002 23:-0.50737 24:0.14662001 
8192 0:0.070579998 1:1.19249 2:-0.02699 3:-0.99365002 4:0.28095001 5:2.0004599 6:0.21345 7:-1.5534199 8:-0.97047001 9:-0.20274 10:-1.23212 11:-0.34145001 12:0.73961997 13:-0.41646001 14:0.13422 15:-1.12094 16:-0.45433 17:0.66570002 18:-0.48227 19:0.084909998 20:-0.81347001 21:-0.37450999 22:0.70124 23:-0.43594 24:0.1031 
7212.825156224997 0:-0.06185 1:0.36388001 2:-0.087920003 3:-1.42352 4:-0.69028997 5:1.76768 6:1.18256 7:-1.0009201 8:-0.45974001 9:0.84068 10:-0.16125 11:-0.87883002 12:0.66517001 13:-0.61448002 14:-0.93527001 15:0.087399997 16:-1.00574 17:0.67837 18:-0.73547 19:-1.26035 20:0.48467001 21:-0.88106 22:0.73572999 23:-0.64332002 24:-0.96924001 
8192 0:-0.049389999 1:-0.73136002 2:1.02318 3:1.223 4:0.38108999 5:-0.44264999 6:-0.71029001 7:-0.52476001 8:-0.51622999 9:-0.58645999 10:0.23002 11:0.94189 12:-1.25825 13:0.97241002 14:0.98636001 15:0.48460999 16:0.47352999 17:-1.0128599 18:0.53948998 19:0.77311999 20:0.55814999 21:0.77287 22:-1.1931 23:0.85558999 24:0.85628003 
8192 0:0.16669001 1:-0.44804001 2:1.18125 3:1.05959 4:0.28466001 5:-0.14670999 6:-0.73080999 7:-1.05196 8:-0.59469998 9:-0.47046 10:0.16680001 11:1.01378 12:-1.2988 13:1.05778 14:1.04466 15:0.46066999 16:0.64455998 17:-1.24707 18:0.736 19:0.85347003 20:0.48598999 21:0.88502997 22:-1.3433 23:0.97182 24:0.9253 
8192 0:0.28707999 1:-0.33228001 2:1.00571 3:0.45829999 4:0.20034 5:-0.39236 6:-0.48886001 7:-0.32517001 8:-0.43452999 9:0.031020001 10:-0.38861999 11:-0.12087 12:0.38049999 13:-0.24043 14:0.38067001 15:-0.04493 16:-0.39921001 17:0.38993999 18:-0.45385 19:0.15604 20:-0.10239 21:-0.23774 22:0.33532 23:-0.31902999 24:0.27609 
8192 0:0.67571002 1:-0.20738 2:0.87481999 3:0.99975002 4:0.2421 5:-0.86653 6:-0.97785997 7:-0.36017999 8:-0.26229 9:-0.090839997 10:-0.0088299997 11:1.73797 12:-2.7939501 13:2.4307899 14:1.16364 15:-0.0082 16:1.5469199 17:-2.4284501 18:1.9120899 19:1.1178401 20:-0.12751999 21:1.79919 22:-2.8812399 23:2.4452801 24:1.19089 
627.0728558781686 0:-0.048179999 1:-0.18398 2:-0.10784 3:-0.91777003 4:-0.42317 5:1.15115 6:1.18471 7:0.17102 8:-0.45469999 9:0.078510001 10:-1.3081501 11:-0.84500003 12:0.48231 13:-0.59423 14:-0.97992998 15:-0.81199998 16:-0.97640997 17:0.55109 18:-0.72754002 19:-1.19977 20:-0.93721998 21:-0.84669 22:0.5607 23:-0.62405002 24:-0.96942002 
8192 0:-1.40562 1:-0.97425997 2:-1.84249 3:-1.21459 4:-0.84551001 5:1.81891 6:2.0925801 7:1.59384 8:0.44238999 9:-0.42771 10:-0.26546001 11:-1.11046 12:0.60720003 13:-0.66330999 14:-2.3196399 15:0.28988001 16:-1.1752599 17:0.64249003 18:-0.77109998 19:-2.6710899 20:0.44683 21:-1.10456 22:0.69203001 23:-0.69060999 24:-2.40049 
8192 0:0.26403999 1:-0.13824999 2:-0.22050001 3:0.38474 4:-0.18683 5:-0.62308002 6:-0.045049999 7:0.049419999 8:0.25400999 9:0.32789999 10:0.46887001 11:-0.12836 12:0.18729 13:-0.34305999 14:0.3933 15:0.05511 16:0.11838 17:0.099540003 18:-0.25310001 19:0.59327 20:0.069710001 21:0.061110001 22:0.21773 23:-0.27586001 24:0.60716999 
5425.567935665744 0:-0.98526001 1:-0.14391001 2:-1.36734 3:-0.78943002 4:0.18285 5:-0.21991999 6:0.51170999 7:1.66723 8:0.3973 9:0.54496998 10:0.18463001 11:-0.70479 12:0.89155 13:-0.56274998 14:-1.04337 15:0.74176002 16:-0.90202999 17:0.86827999 18:-0.69854999 19:-1.45521 20:0.61947 21:-0.85751998 22:0.85604 23:-0.63313001 24:-1.28468 
8192 0:0.91600001 1:0.24558 2:0.55362999 3:0.97097999 4:-0.0084600002 5:-1.1883 6:-0.84643 7:-0.30214 8:-0.34704 9:0.60259002 10:0.42578 11:0.36869001 12:0.16982 13:-0.14914 14:0.83146 15:0.10528 16:0.43408999 17:0.34105 18:-0.074029997 19:0.84263003 20:0.20361 21:0.41474 22:0.21934 23:-0.12292 24:0.86400002 
8192 0:-1.05428 1:0.080509998 2:-0.67286998 3:-0.71446002 4:-0.57191998 5:0.12238 6:0.71059 7:1.12019 8:0.74157 9:0.40766001 10:1.21892 11:-0.72096997 12:0.42105001 13:-0.57911998 14:-0.73412001 15:0.10384 16:-0.88226998 17:0.65324998 18:-0.67646003 19:-0.75207001 20:0.28461 21:-0.84372997 22:0.61799002 23:-0.60101002 24:-0.96294999 
8192 0:-0.09595 1:0.35870999 2:-0.78706002 3:-0.53921998 4:-0.30983999 5:0.39352 6:-0.20242999 7:0.22022 8:0.26056999 9:0.78188998 10:-1.1273 11:-0.89372998 12:0.58042997 13:-0.62510997 14:-0.93905997 15:-0.52604002 16:-0.97387999 17:0.57517999 18:-0.72691 19:-1.10861 20:-0.64028001 21:-0.88213998 22:0.62518001 23:-0.64282 24:-0.99825001 
8192 0:0.25148001 1:0.88077003 2:-0.22787 3:-1.19753 4:-0.49204999 5:1.0486 6:0.40761 7:-0.43127999 8:-0.23432 9:0.93918002 10:-0.60385001 11:-0.85758001 12:0.70341003 13:-0.61619002 14:-0.79503 15:-0.071039997 16:-0.96942002 17:0.71358001 18:-0.72790998 19:-0.99011999 20:0.12882 21:-0.88169998 22:0.75963002 23:-0.6498 24:-0.88897997 
8192 0:0.43184 1:-0.14672001 2:-0.29341999 3:0.60293001 4:0.46667001 5:-0.83354998 6:-1.11805 7:0.13472 8:0.072609998 9:0.29622 10:0.59055001 11:0.59443998 12:-0.54416001 13:0.28213 14:0.82292998 15:0.23298 16:1.05241 17:-0.44042999 18:0.61189997 19:0.96244001 20:0.27294001 21:0.79449999 22:-0.47444001 23:0.34329 24:0.94520003 
8192 0:0.89170003 1:0.48677999 2:0.43641001 3:0.88559002 4:0.065899998 5:-1.27798 6:-0.92935002 7:0.045790002 8:-0.24747001 9:0.47365001 10:-0.073899999 11:0.65288001 12:-0.18412 13:0.1531 14:0.95405 15:-0.36431 16:0.88467997 17:-0.25303 18:0.36725 19:0.99321997 20:-0.44567001 21:0.7723 22:-0.26822001 23:0.20939 24:0.99096 
8192 0:0.47861999 1:0.47847 2:0.41150001 3:-0.23593 4:-0.032779999 5:0.34220001 6:0.06656 7:-0.61526 8:-0.39950001 9:0.090630002 10:-0.18026 11:-0.51494998 12:0.57177001 13:-0.50490999 14:-0.00398 15:0.02582 16:-0.60835999 17:0.54587001 18:-0.58794999 19:-0.21373001 20:0.25823 21:-0.52717 22:0.55944002 23:-0.52972001 24:-0.091169998 
8192 0:0.46737999 1:0.57837999 2:-0.71513999 3:-1.4126199 4:-0.99180001 5:1.0362999 6:0.64060003 7:0.97526002 8:0.18477 9:0.84039003 10:0.044810001 11:-0.88615 12:0.72307998 13:-0.61747003 14:-1.14841 15:0.73431998 16:-1.02895 17:0.70247 18:-0.74071997 19:-1.51537 20:0.79404998 21:-0.91864002 22:0.75677001 23:-0.65658998 24:-1.14065 
1177.421489633192 0:0.28558999 1:-0.41190001 2:1.54928 3:1.56705 4:-1.04817 5:-1.2343301 6:-0.68550998 7:0.093479998 8:-0.12351 9:0.60791999 10:-0.14921001 11:-0.25889999 12:0.18176 13:-0.31275001 14:0.19734 15:-0.050209999 16:-0.47939 17:0.29069 18:-0.47474 19:-0.066500001 20:0.080760002 21:-0.27557001 22:0.17533 23:-0.33221999 24:0.16584 
8192 0:-0.24687999 1:-1.16043 2:0.75278002 3:1.19372 4:-0.80320001 5:-0.33658999 6:-0.01454 7:-0.057659999 8:0.30000001 9:-0.29543 10:-0.77983999 11:-0.32155001 12:0.18162 13:-0.38280001 14:0.13282 15:-0.42168 16:-0.55188 17:0.18063 18:-0.51766002 19:-0.10017 20:-0.56238002 21:-0.45247 22:0.23191001 23:-0.43173 24:-0.087580003 
5871.140343720593 0:-0.56023002 1:0.34051999 2:-0.78574002 3:-1.39033 4:-0.89328998 5:1.31863 6:1.74248 7:0.26651001 8:0.28095999 9:0.30342999 10:-1.51273 11:-1.0802799 12:0.60642999 13:-0.66198999 14:-1.83338 15:-0.90502 16:-1.12049 17:0.6311 18:-0.76747 19:-1.75958 20:-0.78895998 21:-1.06507 22:0.69094998 23:-0.68757999 24:-1.82714 
8192 0:-0.76376998 1:-1.57981 2:1.03324 3:1.2998101 4:0.27223 5:0.42669001 6:-0.017790001 7:-0.93825001 8:-0.48131001 9:-1.38383 10:-1.1820199 11:-0.21899 12:0.30197999 13:-0.39627001 14:0.38328001 15:-0.50923997 16:-0.40335 17:0.3739 18:-0.50575 19:0.23656 20:-0.6081 21:-0.34836 22:0.36477 23:-0.45063999 24:0.19562 
8078.009604415159 0:0.5104 1:-0.15853 2:0.76769 3:0.95238 4:0.55216998 5:-0.61549997 6:-1.55582 7:-0.96430999 8:-0.54872 9:0.40485001 10:-0.43959999 11:1.15319 12:-0.43781 13:0.72279 14:1.21304 15:-0.1005 16:0.84285998 17:-0.62068999 18:0.58824003 19:1.03293 20:-0.25114 21:1.0229501 22:-0.63758999 23:0.69501001 24:1.14868 
1723.011676796156 0:0.43967 1:0.14935 2:0.75067002 3:0.31198999 4:0.73259002 5:0.01389 6:-0.93458998 7:-0.76002002 8:-0.74540001 9:-0.19425 10:-0.27109 11:0.47734001 12:0.52524 13:-0.00978 14:0.86422002 15:0.33638 16:0.0065600001 17:0.47325999 18:-0.26977 19:0.59455001 20:0.18565001 21:0.14478 22:0.35861999 23:-0.16063 24:0.69856 
8192 0:1.5522 1:0.74712002 2:1.43678 3:-0.18522 4:-0.87568003 5:-0.12669 6:-0.20102 7:-0.51104999 8:-0.57288998 9:1.04036 10:-0.28149 11:-0.11312 12:0.67897999 13:-0.33333999 14:0.47104001 15:0.57468998 16:-0.40829 17:0.63113999 18:-0.50409001 19:0.24787 20:0.54468 21:-0.26785001 22:0.59318 23:-0.41663 24:0.33407 
7447.639136039557 0:0.36265001 1:1.92888 2:-0.80335999 3:-1.4365 4:-2.24598 5:-0.040649999 6:2.4308801 7:1.31625 8:0.37426999 9:1.8762 10:-0.52669001 11:-1.10677 12:0.59895998 13:-0.66503 14:-2.1296 15:0.35913 16:-1.17153 17:0.63564998 18:-0.77219999 19:-2.4043801 20:0.45484 21:-1.09838 22:0.68417001 23:-0.69196999 24:-2.1725299 
8192 0:1.08277 1:0.54956001 2:0.6006 3:0.90021002 4:0.25938001 5:-1.1469899 6:-1.36955 7:-0.48084 8:-0.38841999 9:0.60552001 10:-0.38995001 11:1.39455 12:-0.71498001 13:0.93813998 14:1.30563 15:-0.41543999 16:1.5212899 17:-0.81708002 18:1.26625 19:1.27762 20:-0.38510999 21:1.49683 22:-0.92303002 23:1.1558501 24:1.31951 
8192 0:-0.80976999 1:1.36782 2:-0.244 3:-0.90710002 4:-0.89824998 5:0.34509999 6:1.57464 7:0.99879003 8:0.25033 9:0.021299999 10:-0.87518001 11:-1.02195 12:0.60285997 13:-0.65170997 14:-1.58802 15:-0.22195999 16:-1.1335599 17:0.62676001 18:-0.76607001 19:-1.99129 20:-0.11516 21:-1.04563 22:0.66775 23:-0.68286997 24:-1.70673 
8192 0:-0.30869001 1:-0.86347002 2:0.97051001 3:0.49987999 4:0.62397999 5:0.60451001 6:-0.15603 7:-1.1619999 8:-0.48497999 9:-1.15897 10:-0.37709001 11:-0.098760001 12:0.56388998 13:-0.38589999 14:0.52789003 15:0.17908999 16:-0.41527 17:0.57327998 18:-0.54762 19:0.27320999 20:0.19325 21:-0.32075 22:0.57590997 23:-0.47758999 24:0.32482001 
8192 0:0.84675002 1:0.36901999 2:1.10905 3:0.10674 4:0.059220001 5:0.030689999 6:-0.35949999 7:-1.03105 8:-0.69528002 9:0.25477001 10:-0.12165 11:0.15668 12:0.59261 13:-0.20745 14:0.69867003 15:0.54870999 16:-0.23266 17:0.59241003 18:-0.43044999 19:0.43052 20:0.46996 21:-0.089089997 22:0.48728999 23:-0.33182001 24:0.52462 
8192 0:-0.24245 1:-0.88358003 2:1.09083 3:1.21198 4:0.33781999 5:-0.19007 6:-0.61462998 7:-0.80628002 8:-0.35716999 9:-0.82507998 10:-0.25347 11:0.61435997 12:-0.21337999 13:0.16782001 14:0.95684999 15:0.02018 16:0.26796001 17:-0.15106 18:-0.023 19:0.75164998 20:-0.1017 21:0.40485999 22:-0.24546 23:0.10023 24:0.81774002 
8192 0:0.38284999 1:0.1815 2:-0.16320001 3:-0.89480001 4:-0.51863003 5:0.96337003 6:0.78744 7:-0.20498 8:0.090109996 9:0.076109998 10:-0.67460001 11:-0.51626003 12:0.57872999 13:-0.51966 14:-0.099100001 15:-0.01894 16:-0.83039999 17:0.58503997 18:-0.68659002 19:-0.49043 20:-0.17876001 21:-0.73918998 22:0.63907999 23:-0.60336 24:-0.43630001 
8192 0:0.082479998 1:0.22633 2:-0.67938 3:-0.42905 4:0.39807001 5:-0.45425001 6:-0.69787002 7:0.45697999 8:0.29552999 9:0.81134999 10:0.72487998 11:0.16101 12:0.084959999 13:-0.12916 14:0.66781002 15:0.16607 16:0.22199 17:0.49129 18:-0.0033199999 19:0.63612998 20:0.23413 21:0.26429 22:0.097649999 23:-0.057560001 24:0.74598002 
3456.057396454751 0:0.33357 1:0.46228999 2:0.01247 3:-0.78355998 4:0.49320999 5:1.16528 6:0.21223 7:-1.01904 8:-0.73760998 9:-0.15308 10:1.09007 11:-0.75825 12:0.63218999 13:-0.61922997 14:-0.43496999 15:1.67512 16:-0.83165002 17:0.65684003 18:-0.71469003 19:-0.49132001 20:1.47372 21:-0.76357001 22:0.69904 23:-0.64437002 24:-0.44712001 
3195.60043517722 0:-1.18361 1:-1.47084 2:-0.22135 3:0.16483 4:1.22324 5:1.26197 6:0.25095001 7:-0.95757002 8:-0.57467997 9:-1.46106 10:1.16057 11:-0.68396002 12:0.43448001 13:-0.54150999 14:-0.27561 15:1.0727299 16:-0.52345002 17:0.48807999 18:-0.52541 19:0.02406 20:1.06241 21:-0.65386999 22:0.51622999 23:-0.54585999 24:-0.27045 
8192 0:-0.56718999 1:-1.23843 2:0.59887999 3:1.25446 4:1.2369601 5:-0.20327 6:-0.73163998 7:-1.03564 8:-0.55537999 9:-1.16998 10:-0.87431002 11:0.30965 12:-0.087530002 13:-0.045740001 14:0.78737998 15:-0.63088 16:0.43950999 17:-0.35466 18:0.13691001 19:0.85802001 20:-0.79005998 21:0.36972001 22:-0.22428 23:0.035470001 24:0.79079998 
8192 0:-0.25233999 1:-0.43652001 2:0.43520001 3:1.03918 4:0.82191998 5:-0.68089998 6:-0.94037998 7:-0.26126 8:-0.28301999 9:-0.58083999 10:-0.68602997 11:0.51154 12:-0.38137999 13:0.15392999 14:0.85185999 15:-0.49496001 16:0.79775 17:-0.82791001 18:0.50366998 19:0.94411999 20:-0.71451002 21:0.60958999 22:-0.56028998 23:0.27230999 24:0.86158001 
8192 0:1.31934 1:0.77863002 2:0.34990999 3:0.51556998 4:-0.059859999 5:-1.13375 6:-1.34797 7:-0.16819 8:-0.18521 9:1.12726 10:0.070840001 11:1.1698999 12:-0.91382003 13:0.86789 14:1.15326 15:0.083250001 16:1.33179 17:-1.37614 18:1.20763 19:1.10755 20:-0.076279998 21:1.2772 22:-1.21093 23:1.07961 24:1.16866 
8192 0:0.086860001 1:0.15324 2:0.58669001 3:0.77276999 4:0.59614998 5:-0.83626997 6:-0.90371001 7:-0.7216 8:-0.41077 9:0.24586 10:-0.080399998 11:0.38179001 12:-0.15194 13:0.072099999 14:0.80497998 15:-0.01138 16:0.62726998 17:-0.25795001 18:0.32986999 19:0.97218001 20:-0.047279999 21:0.56344002 22:-0.29642001 23:0.26468 24:0.90724999 
8192 0:0.91702002 1:0.68875003 2:0.45927 3:0.51757997 4:0.42419001 5:-0.95823002 6:-1.36384 7:-0.48201999 8:-0.333 9:0.68896002 10:0.10947 11:0.8865 12:-0.59075999 13:0.57213998 14:1.0664001 15:-0.0033400001 16:1.02233 17:-0.72663999 18:0.83902001 19:1.12124 20:0.01239 21:1.11189 22:-0.85901999 23:0.89713001 24:1.14019 
8192 0:0.97210997 1:0.84819001 2:0.31386 3:0.88812 4:0.29835001 5:-1.3765 6:-1.51301 7:-0.22239 8:-0.28729999 9:0.80321002 10:0.065970004 11:1.27388 12:-0.80317998 13:0.85721999 14:1.22365 15:-0.20258 16:1.26438 17:-0.75272 18:0.93616003 19:1.182 20:-0.27840999 21:1.3064801 22:-0.8937 23:0.97424001 24:1.24281 
8192 0:0.46044001 1:0.12909 2:0.33462 3:0.78241003 4:0.80097997 5:-0.95503998 6:-1.25679 7:-0.1771 8:-0.31906 9:-0.035149999 10:0.03579 11:0.99836999 12:-0.64933997 13:0.57850999 14:1.09839 15:-0.25299001 16:1.15758 17:-0.77560002 18:0.82178998 19:1.12077 20:-0.27847999 21:1.12597 22:-0.81163001 23:0.73830998 24:1.14419 
8192 0:0.10505 1:-0.73513001 2:1.58123 3:0.94861001 4:0.16316 5:0.21482 6:-0.44727999 7:-1.19259 8:-0.79918998 9:-0.61422002 10:0.18021999 11:0.34731001 12:0.13158999 13:-0.00069999998 14:0.82203001 15:0.64657998 16:0.15568 17:-0.37042001 18:0.23724 19:0.66742003 20:0.57252002 21:0.32929 22:-0.36625999 23:0.32683 24:0.73914999 
8192 0:0.16452999 1:0.26091 2:0.036850002 3:-1.00149 4:-0.18842 5:0.75299001 6:1.21656 7:0.10873 8:-0.35275 9:-0.055879999 10:-1.11823 11:-1.02772 12:0.61826003 13:-0.65613002 14:-1.49403 15:-0.49123999 16:-1.13029 17:0.64517999 18:-0.76813 19:-1.86417 20:-0.38338 21:-1.06055 22:0.68725997 23:-0.68825001 24:-1.76328 
3646.291309324431 0:0.58348 1:3.6475999 2:0.53034002 3:-1.2704 4:-0.75835001 5:-0.13866 6:1.94965 7:0.47694001 8:-0.55228001 9:0.052280001 10:-0.64595997 11:-1.0009201 12:0.64844 13:-0.65017998 14:-1.46092 15:0.13787 16:-1.10623 17:0.66731 18:-0.76532 19:-1.72837 20:0.21575999 21:-1.06292 22:0.69081002 23:-0.69029999 24:-1.76543 
8192 0:0.43985999 1:-0.19329 2:0.32420999 3:0.9799 4:0.14046 5:-1.3316801 6:-1.2372 7:0.13823 8:0.29516 9:0.36386001 10:0.01038 11:1.3346 12:-2.03247 13:1.52974 14:0.97390997 15:0.12484 16:1.3736 17:-2.0744901 18:1.49245 19:0.89858001 20:0.085589997 21:1.04547 22:-1.58766 23:1.07772 24:0.88493001 
8192 0:1.07587 1:0.67603999 2:1.18609 3:0.39961001 4:-0.92628998 5:-1.26305 6:0.13587999 7:-0.37966999 8:-0.25189 9:1.40792 10:0.65022999 11:-0.27068999 12:-0.18841 13:-0.19491 14:-0.01287 15:1.13886 16:-0.41295001 17:-0.18681 18:-0.34018001 19:-0.021260001 20:0.99466997 21:-0.3021 22:-0.116 23:-0.23785 24:-0.03472 
2652.509614265601 0:1.23255 1:0.25185001 2:1.1681 3:0.89494002 4:-0.82727998 5:-1.08351 6:-1.01816 7:-0.03593 8:-0.10447 9:0.96534997 10:-0.28795001 11:2.9883001 12:-3.2074001 13:3.3855801 14:1.51012 15:-0.46351001 16:2.83218 17:-2.95263 18:3.50225 19:1.3746001 20:-0.46425 21:2.9565201 22:-3.39062 23:3.5351801 24:1.49673 
8192 0:1.48476 1:1.12385 2:1.49572 3:0.98667002 4:-0.90312999 5:-1.29168 6:-1.1563801 7:-0.26717001 8:-0.22301 9:0.97623998 10:-0.24101999 11:3.3933499 12:-3.12448 13:3.9912601 14:1.654 15:-0.68886 16:2.8262899 17:-2.3631201 18:3.55427 19:1.56753 20:-0.52067 21:3.37942 22:-3.65554 23:4.3919702 24:1.62202 
8192 0:1.08697 1:0.10864 2:1.94558 3:0.84736001 4:-0.81867999 5:-0.77661997 6:-0.64927 7:-0.68480003 8:-0.59692001 9:0.91861999 10:-0.63284999 11:1.2562799 12:-0.26802999 13:0.89788002 14:1.29115 15:-1.1318001 16:0.85211998 17:0.28808001 18:0.61062002 19:1.13034 20:-0.72452998 21:1.13748 22:-0.29705 23:0.85013002 24:1.2481101 
4150.179948190017 0:1.29535 1:0.54184997 2:0.94545001 3:0.76972002 4:-0.98049003 5:-1.20322 6:-1.00758 7:0.73523998 8:0.098370001 9:0.83991998 10:0.1523 11:3.2847099 12:-4.9064999 13:4.8245101 14:1.37169 15:0.11332 16:2.54333 17:-3.86534 18:3.5876801 19:1.1744699 20:-0.03568 21:2.8461201 22:-4.5265698 23:4.1942201 24:1.31902 
8192 0:0.5952 1:1.81127 2:0.24748001 3:-0.94023001 4:-0.98049003 5:1.03106 6:1.11832 7:-0.76378 8:-0.65903002 9:0.69101 10:-0.78874999 11:-0.74014002 12:0.57971001 13:-0.57972002 14:-0.47593999 15:-0.91677999 16:-0.81713003 17:0.59404999 18:-0.69597 19:-0.42056999 20:-0.48883 21:-0.73825997 22:0.69964999 23:-0.61285001 24:-0.44362 
7258.488234424281 0:0.12454 1:-0.0068399999 2:-0.15588 3:0.24868 4:0.3125 5:0.16233 6:-0.39680001 7:0.48262 8:-0.47589001 9:-0.40042001 10:-0.29993999 11:0.77601999 12:-0.90727001 13:0.95613998 14:0.73008001 15:-0.45313001 16:0.56742001 17:-0.60176003 18:0.70615 19:0.6275 20:-0.26557001 21:0.67111999 22:-1.15227 23:1.0176899 24:0.66702998 
4959.167343888732 0:2.4779401 1:2.3129499 2:0.86826998 3:-0.77490002 4:-1.76193 5:-0.04786 6:0.34513 7:-0.12295 8:-0.48442 9:1.71025 10:-1.12679 11:0.82858002 12:-0.028419999 13:0.80660999 14:0.99945003 15:-2.21033 16:0.44966999 17:0.070579998 18:0.48863 19:0.84263003 20:-1.38458 21:1.1129 22:-0.86056 23:1.39288 24:1.06385 
8192 0:1.68959 1:0.70204997 2:0.55001003 3:0.74717999 4:-0.52164 5:-0.87449002 6:-0.85163999 7:-0.22867 8:-0.33644 9:0.74623001 10:-0.20183 11:2.69888 12:-2.1057 13:2.87238 14:1.62003 15:-1.24534 16:2.0483699 17:0.1875 18:2.00754 19:1.4976799 20:-0.68869001 21:2.33758 22:-1.24421 23:2.3504701 24:1.5525 
3455.019578559634 0:1.15925 1:1.72014 2:0.66492999 3:-0.35802001 4:-0.04843 5:0.45177001 6:0.1631 7:-0.98236001 8:-0.80167001 9:-0.12052 10:-2.0490899 11:2.08529 12:0.51682001 13:1.74385 14:1.60676 15:-3.5634699 16:0.81239998 17:1.70017 18:0.68175 19:1.10181 20:-2.5160899 21:1.38222 22:0.7773 23:0.99721003 24:1.38908 
8192 0:0.24101999 1:-0.03334 2:0.44262999 3:1.24649 4:0.43353999 5:-1.30179 6:-0.84662002 7:-0.51397997 8:-0.42899999 9:0.36414999 10:1.26221 11:-0.22746 12:0.04645 13:-0.32690001 14:0.19369 15:1.19605 16:-0.2189 17:-0.18009 18:-0.31274 19:0.18732999 20:1.43422 21:-0.15014 22:-0.032620002 23:-0.27843001 24:0.21084 
3383.66397957549 0:0.92177999 1:0.98786002 2:0.094410002 3:-1.11459 4:-0.71166003 5:0.78508002 6:0.38977 7:-0.30026001 8:-0.48073 9:1.20327 10:1.2244 11:-0.82318002 12:0.47448 13:-0.57751 14:-0.81958002 15:1.9350899 16:-0.92633998 17:0.50686997 18:-0.69787002 19:-0.99589998 20:1.817 21:-0.81160998 22:0.52465999 23:-0.59622997 24:-0.83999002 
8192 0:0.06453 1:-0.21762 2:0.68932998 3:0.19791999 4:-0.62891001 5:-0.11616 6:0.24691001 7:-0.20891 8:0.19976 9:0.13443001 10:-0.52977002 11:-0.36575001 12:0.31799001 13:-0.43805999 14:0.094290003 15:-0.094800003 16:-0.56221002 17:0.27555001 18:-0.55738997 19:-0.082950003 20:0.054579999 21:-0.51014 22:0.34132999 23:-0.49291 24:-0.11102 
8192 0:0.49869001 1:1.22302 2:0.02189 3:-0.94019002 4:-1.07955 5:0.37055001 6:1.10347 7:0.073090002 8:-0.13743 9:1.00423 10:-1.22562 11:-0.92394 12:0.64908999 13:-0.63371998 14:-1.0122 15:-0.64769 16:-0.99571002 17:0.66446 18:-0.74452001 19:-0.98255002 20:-0.55774999 21:-0.93215001 22:0.70222998 23:-0.66766 24:-1.01446 
8192 0:-0.61317998 1:-1.18242 2:0.82981998 3:1.3735 4:-0.02953 5:-0.39151999 6:-0.0383 7:-0.29374999 8:-0.25740999 9:-0.70766997 10:-0.71785003 11:-0.34400001 12:0.13616 13:-0.40614 14:0.09172 15:-0.29361999 16:-0.40658 17:0.042679999 18:-0.46111 19:0.090010002 20:-0.41238999 21:-0.38725999 22:0.17048 23:-0.42357001 24:-0.021609999 
8192 0:-1.03835 1:-1.07315 2:-1.14984 3:-0.28797001 4:0.91109002 5:0.55594999 6:-0.01147 7:0.26956999 8:0.87085003 9:-1.24622 10:0.35113001 11:-0.27902001 12:0.35736001 13:-0.33598 14:0.10688 15:-0.035750002 16:0.15604 17:-0.21061 18:-0.050310001 19:0.294 20:0.2014 21:-0.01112 22:-0.01582 23:-0.1753 24:0.32379001 
8192 0:0.67359 1:0.32074001 2:-0.14040001 3:0.86926001 4:0.41823 5:-1.8132 6:-1.26345 7:0.41172001 8:-0.00642 9:0.91968 10:1.09806 11:0.38558 12:-0.56217998 13:0.19987001 14:0.64908999 15:1.0467401 16:0.94173002 17:-1.65446 18:0.94654 19:0.83064002 20:1.00661 21:0.55638999 22:-0.79110998 23:0.34548 24:0.69459999 
8192 0:0.73620999 1:0.21527 2:-0.081119999 3:0.96724999 4:0.46079001 5:-1.82429 6:-1.40109 7:0.41429001 8:-0.01336 9:0.82779998 10:1.34367 11:0.43366 12:-0.62709999 13:0.19377001 14:0.5898 15:1.34656 16:0.94147998 17:-1.48708 18:0.80510002 19:0.80339003 20:1.2535599 21:0.63379002 22:-0.82647997 23:0.36688 24:0.67839003 
3839.743733428843 0:0.025289999 1:0.10482 2:0.15832999 3:-0.18787999 4:0.21615 5:-0.17603999 6:0.68537003 7:-0.37663001 8:-0.35813001 9:0.13379 10:-1.6230299 11:-0.86295003 12:0.54512 13:-0.62186003 14:-0.75492001 15:-1.20003 16:-0.93963999 17:0.51744002 18:-0.7245 19:-0.86210001 20:-1.9054101 21:-0.85543001 22:0.57317001 23:-0.64067 24:-0.79404998 
8192 0:-1.40258 1:-1.08345 2:-0.59421998 3:-0.58748001 4:-0.33496001 5:0.54176998 6:0.87905997 7:1.5276099 8:0.81519997 9:-0.56151003 10:-1.40329 11:-1.05743 12:0.54931998 13:-0.64792001 14:-1.81145 15:-1.0483201 16:-1.12949 17:0.59933001 18:-0.76275003 19:-1.91523 20:-1.80825 21:-1.0342 22:0.59937 23:-0.66087002 24:-1.85615 
8192 0:-2.13939 1:-0.81861001 2:-1.90511 3:-1.0788701 4:-0.27320001 5:2.1120801 6:2.14885 7:0.49287 8:0.97218001 9:-1.5296299 10:-1.58717 11:-1.04184 12:0.56081003 13:-0.64899999 14:-1.7264 15:-1.22218 16:-1.11263 17:0.57871002 18:-0.75168997 19:-1.91111 20:-1.8477499 21:-0.99655998 22:0.51596999 23:-0.61202002 24:-1.85624 
8192 0:-1.19236 1:-0.97915 2:-0.91215998 3:-0.73866999 4:-0.097620003 5:1.7898099 6:1.86713 7:-0.20187999 8:-0.13009 9:-0.90201998 10:-1.90194 11:-1.0731601 12:0.60917002 13:-0.66289997 14:-1.83654 15:-1.76978 16:-1.1267999 17:0.65052003 18:-0.76977003 19:-1.85273 20:-2.1505001 21:-1.07251 22:0.69237 23:-0.69076997 24:-1.90402 
8192 0:-0.33945 1:0.13393 2:-0.11496 3:-0.81382 4:-0.56573999 5:0.36368001 6:1.16676 7:0.70037001 8:-0.11093 9:0.45936 10:-1.40048 11:-1.00158 12:0.61952001 13:-0.65467 14:-1.36544 15:-0.99365002 16:-1.08086 17:0.66232002 18:-0.76372999 19:-1.45474 20:-1.62449 21:-1.0091701 22:0.69423997 23:-0.6825 24:-1.39983 
4649.759620889537 0:-0.66210997 1:-1.4666899 2:0.69160002 3:1.93784 4:0.93575001 5:-1.15251 6:-1.02466 7:-0.62835997 8:-0.39537999 9:-0.61918998 10:0.85855001 11:-0.0137 12:-0.17752001 13:-0.13649 14:0.35504001 15:1.1439 16:-0.11339 17:-0.41859001 18:-0.15809999 19:0.25692999 20:1.05288 21:0.0043899999 22:-0.29826999 23:-0.069669999 24:0.31476 
8192 0:1.28571 1:1.04968 2:-0.05401 3:0.68720001 4:-0.18738 5:-1.9026 6:-1.7046 7:0.82196999 8:0.29297999 9:1.36629 10:1.0875601 11:1.3203 12:-1.91334 13:1.35349 14:0.88375998 15:0.84450001 16:1.84971 17:-2.75389 18:2.2234399 19:1.05483 20:0.74150002 21:1.4622101 22:-1.99769 23:1.50289 24:1.01395 
8192 0:0.80877 1:1.09205 2:-0.61663002 3:0.038589999 4:-0.35782 5:-1.4463 6:-1.0788701 7:1.27362 8:0.86229998 9:1.07122 10:1.10754 11:0.86917001 12:-1.80786 13:1.13313 14:0.59227997 15:1.06529 16:1.30285 17:-3.0467401 18:1.91879 19:0.68480998 20:0.78368998 21:0.93081999 22:-1.84393 23:1.14425 24:0.68871999 
7314.101434028345 0:1.42162 1:0.9598 2:-0.029030001 3:0.85430002 4:0.01341 5:-2.0571699 6:-1.83793 7:0.58007002 8:0.13186 9:1.4276 10:0.85347003 11:1.66555 12:-2.2434499 13:1.77255 14:1.06681 15:0.50454003 16:1.7460999 17:-2.3464401 18:1.89853 19:1.10525 20:0.40856999 21:1.52068 22:-1.75989 23:1.39504 24:1.1242501 
8192 0:-1.3816299 1:-0.54734999 2:-1.84925 3:-1.06502 4:0.61417001 5:0.79425001 6:0.53732997 7:0.75209999 8:1.28784 9:-0.85329998 10:1.06865 11:-0.49099001 12:0.10665 13:-0.40696001 14:-0.50374001 15:1.4589 16:-0.13615 17:-0.74597001 18:-0.043719999 19:-0.12585001 20:1.06441 21:-0.30432999 22:-0.25795001 23:-0.21111999 24:-0.46504 
8192 0:1.23666 1:1.19349 2:0.32032999 3:-1.0641201 4:-0.58418 5:1.26094 6:0.59375 7:-0.92692 8:-0.78763002 9:0.57951999 10:-1.42189 11:-0.53724998 12:0.84174001 13:-0.52017999 14:-0.13231 15:-1.26773 16:-0.70617002 17:0.81189001 18:-0.64608997 19:-0.2139 20:-1.0865999 21:-0.59262002 22:0.84603 23:-0.56220001 24:-0.17614 
798.30616417167 0:0.85488999 1:-0.065190002 2:1.26485 3:1.22767 4:0.066979997 5:-0.74144 6:-0.86426997 7:-0.87295002 8:-0.56731999 9:-0.1166 10:-0.24157999 11:1.87667 12:-0.73979998 13:1.3420399 14:1.46486 15:-0.80408001 16:1.53905 17:-0.023220001 18:1.1507 19:1.33131 20:-0.36197001 21:1.74842 22:-0.64453 23:1.22395 24:1.39469 
5309.654949837643 0:-1.3198 1:-0.37397999 2:-1.52764 3:-0.88231999 4:1.27731 5:0.61409998 6:-0.021090001 7:1.14544 8:0.60101998 9:-1.1469001 10:0.62036002 11:-0.083619997 12:-0.09465 13:-0.1829 14:0.18927 15:1.19023 16:0.28059 17:-1.08609 18:0.33022001 19:0.035799999 20:0.89535999 21:0.01444 22:-0.56906003 23:0.090460002 24:0.036320001 
8192 0:1.66005 1:1.00749 2:0.89717001 3:0.72806001 4:-0.94919997 5:-1.19302 6:-1.07415 7:0.18882 8:-0.0447 9:1.08322 10:-0.77153999 11:3.25652 12:-3.15152 13:3.5911601 14:1.5947599 15:-0.97984999 16:2.8687899 17:-2.3522899 18:3.2959399 19:1.37489 20:-1.1406 21:3.1415701 22:-3.0525 23:3.63782 24:1.58529 
8192 0:0.87173998 1:0.74651998 2:0.45315 3:-0.35218999 4:-0.29019001 5:0.38042 6:-0.23924001 7:-0.45806 8:-0.34760001 9:0.38036999 10:-0.51403999 11:0.38593999 12:0.56023002 13:-0.085069999 14:0.72656 15:-0.80198002 16:-0.0052499999 17:0.83741999 18:-0.27535999 19:0.56462002 20:-0.49912 21:0.05201 22:0.67602998 23:-0.25093001 24:0.62036997 
8192 0:1.3266799 1:0.82955003 2:0.71490997 3:0.49923 4:-0.77161002 5:-0.99991 6:-0.79576999 7:0.51587999 8:0.27026001 9:0.46358001 10:0.055879999 11:2.9328499 12:-3.4511001 13:3.5188999 14:1.4127899 15:-0.30316001 16:2.7599199 17:-2.8033199 18:3.23475 19:1.23072 20:-0.31639999 21:2.9497399 22:-3.52545 23:3.6116099 24:1.39537 
4098.783999718655 0:0.32890001 1:-0.38635001 2:1.27095 3:0.68441999 4:-0.022229999 5:-0.95668 6:-0.28654 7:-0.05398 8:-0.33278999 9:0.17975 10:0.92493999 11:-0.46077999 12:0.17772999 13:-0.44578999 14:-0.09341 15:1.61973 16:-0.46932 17:-0.06769 18:-0.4131 19:-0.12168 20:1.08727 21:-0.48049 22:0.22923 23:-0.46415001 24:-0.13155 
4321.602883851109 0:-1.25752 1:-1.464 2:0.47255 3:1.26209 4:0.75607997 5:-0.15513 6:0.63875997 7:-0.77539003 8:-0.54646999 9:-1.32539 10:1.27133 11:-0.64713001 12:0.20051 13:-0.46101001 14:-0.52129 15:1.78351 16:-0.58304 17:-0.068810001 18:-0.40566999 19:-0.35084 20:1.4090101 21:-0.64850998 22:0.26480001 23:-0.49206001 24:-0.54044002 
8192 0:-0.38754001 1:0.44578999 2:-0.99122 3:-1.09567 4:-0.47716001 5:1.80927 6:1.7010601 7:-0.49781999 8:-0.53180999 9:0.06487 10:-1.9267401 11:-0.99289 12:0.61445999 13:-0.65074998 14:-1.35727 15:-1.4384 16:-1.07741 17:0.64622003 18:-0.76174003 19:-1.48807 20:-2.1865499 21:-0.98878998 22:0.69840002 23:-0.67869997 24:-1.35352 
8192 0:-0.97670001 1:-0.62487 2:-0.71441001 3:-1.22782 4:1.05079 5:1.39179 6:1.23555 7:9.9999997e-06 8:-0.35681999 9:-1.07119 10:-2.4695101 11:-0.95074999 12:0.65066999 13:-0.64721 14:-1.1689399 15:-2.0474601 16:-1.04724 17:0.65648001 18:-0.75755 19:-1.36579 20:-2.66118 21:-0.97043997 22:0.69686002 23:-0.67943001 24:-1.18314 
8192 0:0.14971 1:0.19102 2:0.22858 3:-0.37022999 4:-0.17636 5:0.13950001 6:0.41600001 7:0.16707 8:-0.49759999 9:0.46351999 10:-1.3932 11:-0.74347001 12:0.53577 13:-0.58231997 14:-0.42464 15:-1.1452399 16:-0.85563999 17:0.55651999 18:-0.69911999 19:-0.57639003 20:-1.70031 21:-0.76630002 22:0.57511002 23:-0.60372001 24:-0.53518999 
8192 0:-1.1941299 1:-0.42732999 2:-1.03108 3:-0.74291998 4:-0.33741999 5:1.36747 6:2.2028699 7:0.13693 8:-0.16909 9:-0.55448997 10:-1.61991 11:-1.07489 12:0.60306001 13:-0.66290998 14:-1.7676001 15:-1.25729 16:-1.13132 17:0.64007002 18:-0.76975 19:-1.78951 20:-1.9215699 21:-1.06099 22:0.68634999 23:-0.68943 24:-1.73265 
8192 0:-1.34835 1:-0.30186 2:-1.26907 3:-0.96064001 4:-0.89546001 5:0.97806001 6:1.74678 7:1.34909 8:0.86650002 9:-0.31107 10:-1.76951 11:-0.84621 12:0.66760999 13:-0.64639997 14:-1.27285 15:-1.39555 16:-1.02124 17:0.67790002 18:-0.76358998 19:-1.64219 20:-1.8279999 21:-0.99993002 22:0.69897997 23:-0.68687999 24:-1.46202 
8192 0:-0.26774999 1:-0.072120003 2:-0.80901003 3:-1.44449 4:-1.15641 5:1.47881 6:1.3855799 7:0.50369 8:0.56889999 9:0.41703001 10:-1.99616 11:-1.0657099 12:0.62225002 13:-0.66025001 14:-1.94691 15:-1.52944 16:-1.1406 17:0.65491003 18:-0.76933002 19:-2.17067 20:-2.2871699 21:-1.06204 22:0.70512003 23:-0.68803 24:-1.95239 
1578.985561026373 0:-0.47837999 1:0.66305 2:-0.76488 3:-1.4402 4:-1.1499 5:0.80066001 6:1.33411 7:1.08698 8:1.38675 9:-0.13909 10:-1.81977 11:-1.08884 12:0.61664999 13:-0.66187 14:-2.23297 15:-1.5237401 16:-1.14798 17:0.65460002 18:-0.76967001 19:-2.3693099 20:-2.17294 21:-1.0798301 22:0.70308 23:-0.68917 24:-2.2442999 
8192 0:-0.27618 1:0.10295 2:-0.30559999 3:-0.43604001 4:0.26343 5:-0.32663 6:-0.080820002 7:0.72457999 8:0.13845 9:0.37369001 10:1.2998199 11:-0.82999003 12:0.44394001 13:-0.58257002 14:-0.68818998 15:1.23938 16:-0.66772997 17:0.38205001 18:-0.60525 19:-0.13605 20:1.08658 21:-0.79005003 22:0.53434998 23:-0.61062002 24:-0.53689998 
8192 0:-0.11424 1:-0.54698998 2:-0.18887 3:-0.60544002 4:0.35422 5:1.01759 6:0.084859997 7:-0.74381 8:-0.19863001 9:-0.024429999 10:1.0128599 11:-0.64437997 12:0.54127997 13:-0.52415001 14:-0.26157999 15:0.66926998 16:-0.65145999 17:0.75721997 18:-0.64621001 19:-0.31262001 20:0.8301 21:-0.68349999 22:0.62524998 23:-0.54417002 24:-0.34773999 
8192 0:0.16034999 1:-0.22573 2:0.30697 3:-0.045090001 4:0.58734 5:0.45425001 6:-0.36697 7:-0.93681002 8:-0.57428002 9:-0.064539999 10:1.49717 11:-0.53640002 12:0.53470999 13:-0.56164002 14:-0.03277 15:1.5752 16:-0.50022 17:0.61188 18:-0.61936003 19:0.060800001 20:1.58193 21:-0.55728 22:0.60718 23:-0.58908999 24:-0.046440002 
8192 0:-0.91924 1:-0.16188 2:-1.08547 3:-1.0477 4:-0.66601002 5:0.098190002 6:0.70827001 7:1.45775 8:1.6583101 9:0.11909 10:2.1489 11:-0.95590001 12:0.43294999 13:-0.58288997 14:-1.45266 15:2.0584199 16:-0.93146002 17:0.34327999 18:-0.64168 19:-1.25176 20:1.99338 21:-0.92267001 22:0.50392002 23:-0.61145997 24:-1.35114 
8192 0:0.87864 1:0.77458 2:0.56321001 3:-0.47007 4:-0.61906999 5:-0.28812999 6:0.57356 7:-0.097719997 8:-0.41968 9:1.0414701 10:0.54765999 11:-0.84601003 12:0.52196997 13:-0.60812002 14:-0.69509 15:1.31085 16:-0.95074999 17:0.51795 18:-0.71579999 19:-0.84331 20:0.91394001 21:-0.8524 22:0.57805997 23:-0.63415998 24:-0.74163997 
8192 0:-1.2028199 1:-0.26523 2:-1.30864 3:-1.20588 4:-0.95424998 5:0.34487 6:0.98815 7:1.72291 8:1.93935 9:0.039280001 10:1.64369 11:-1.01142 12:0.52967 13:-0.64275998 14:-1.4685 15:1.91541 16:-0.95459002 17:0.4824 18:-0.70508999 19:-1.18391 20:1.5733 21:-0.96688998 22:0.56861001 23:-0.65342999 24:-1.4237601 
2672.724369264112 0:-1.41704 1:-0.85162997 2:-1.36268 3:-1.2078 4:-0.71787 5:0.49972001 6:0.69534999 7:1.8662601 8:2.22155 9:-0.33776999 10:1.04785 11:-1.04105 12:0.55533999 13:-0.65745002 14:-1.66671 15:1.08083 16:-1.03334 17:0.55950999 18:-0.74391001 19:-1.47136 20:0.90799999 21:-1.0042 22:0.61572999 23:-0.67619002 24:-1.6115299 
8192 0:-1.08059 1:-1.38362 2:-0.21082 3:0.02988 4:1.1708699 5:1.55576 6:0.25362 7:-1.2288899 8:-0.59004003 9:-1.4772201 10:1.19305 11:-0.69509 12:0.56668001 13:-0.59706002 14:-0.28946 15:1.10129 16:-0.67953002 17:0.66477001 18:-0.67119002 19:-0.21318001 20:1.23506 21:-0.74905002 22:0.65135998 23:-0.63551003 24:-0.40841001 
400.6724982049265 0:-0.00053999998 1:-0.33814001 2:1.01416 3:1.5498101 4:-0.19171 5:-0.97290999 6:-0.59156001 7:-0.32742 8:-0.33228999 9:-0.11607 10:-0.83947003 11:-0.31292999 12:0.18222 13:-0.37022001 14:0.13860001 15:-0.55671 16:-0.44648001 17:0.15535 18:-0.45657 19:0.01288 20:-0.48635 21:-0.29271001 22:0.13382 23:-0.35629001 24:0.10423 
8192 0:-0.45377001 1:0.53482997 2:-0.44251001 3:-1.0303 4:-0.72158998 5:0.64432001 6:1.1634099 7:0.73784 8:0.29128 9:0.25564 10:-0.74550998 11:-0.95134002 12:0.53363001 13:-0.60154003 14:-1.28675 15:-0.206 16:-1.04886 17:0.56594002 18:-0.72929001 19:-1.50929 20:-0.12842 21:-0.96676999 22:0.62809998 23:-0.64981002 24:-1.36754 
8192 0:-0.94831002 1:-1.67362 2:0.28259 3:1.25639 4:1.23167 5:0.15344 6:-0.26719999 7:-0.80049002 8:-0.34147 9:-1.84156 10:0.24334 11:-0.0436 12:0.082599998 13:-0.29938 14:0.47031999 15:0.07581 16:0.20431 17:-0.02148 18:-0.16513 19:0.68208998 20:-0.019379999 21:0.020540001 22:0.034839999 23:-0.26769 24:0.49507001 
8192 0:0.65921998 1:0.64341003 2:-0.21517 3:0.89301002 4:0.55751002 5:-1.49036 6:-1.1448801 7:0.30118001 8:-0.02743 9:0.21922 10:-0.73602998 11:0.48453999 12:-0.075989999 13:0.032790001 14:0.88989002 15:-0.94569999 16:0.89297003 17:-0.36985001 18:0.3396 19:0.95819002 20:-0.94344002 21:0.64977998 22:-0.12673999 23:0.064350002 24:0.90894997 
8192 0:-0.42596999 1:0.041439999 2:-0.62244999 3:0.46618 4:0.95094001 5:-1.42417 6:-1.13398 7:0.87006998 8:0.46636999 9:0.14455999 10:0.27597001 11:0.17769 12:-0.39938 13:0.026310001 14:0.51403999 15:0.48773 16:0.63545001 17:-1.0600801 18:0.39840999 19:0.62882 20:0.18068001 21:0.25297999 22:-0.38975999 23:0.0076700002 24:0.53320003 
8192 0:-0.11288 1:0.29911 2:-0.50481999 3:0.53798997 4:0.49992999 5:-1.41163 6:-0.83947998 7:1.01292 8:0.38727 9:0.17946 10:0.28141001 11:0.22634 12:-0.37994 13:0.02878 14:0.55943 15:0.35817 16:0.75366998 17:-1.09409 18:0.48464999 19:0.69880003 20:0.10707 21:0.36565 22:-0.46842 23:0.084559999 24:0.60438001 
8192 0:-0.086369999 1:-0.40608001 2:0.38719001 3:1.07644 4:0.99002999 5:-1.14203 6:-1.3009501 7:-0.31024 8:-0.37671 9:0.060180001 10:0.78354001 11:-0.049180001 12:-0.090070002 13:-0.19543 14:0.40156001 15:1.27197 16:-0.12421 17:-0.28207001 18:-0.21661 19:0.28494 20:0.91035002 21:-0.092409998 22:-0.11701 23:-0.2051 24:0.31121001 
8192 0:0.51432002 1:1.3330899 2:-0.90600002 3:-0.27044001 4:0.019579999 5:-1.59043 6:-1.17927 7:1.5448999 8:0.71947002 9:1.40646 10:1.33491 11:0.18483999 12:-0.31016001 13:0.0045599998 14:0.51269001 15:1.34092 16:0.67453998 17:-0.89388001 18:0.40215001 19:0.62643999 20:1.20833 21:0.2746 22:-0.35025999 23:0.059190001 24:0.58098 
3370.374054427306 0:0.94954997 1:1.02678 2:-0.42238 3:0.50964999 4:0.13282999 5:-1.77437 6:-1.57537 7:0.76431 8:0.29479 9:1.27728 10:1.18967 11:0.62537998 12:-0.81382 13:0.45243001 14:0.74739999 15:0.90271002 16:1.2016701 17:-1.27999 18:0.95854998 19:0.93998998 20:0.89942998 21:0.87256002 22:-0.86361003 23:0.56088001 24:0.8883 
8192 0:-0.61725998 1:-1.10921 2:0.27263999 3:1.65214 4:1.18723 5:-0.90465999 6:-0.83072001 7:-0.31022 8:-0.34817001 9:-1.16717 10:0.87704003 11:0.1515 12:-0.20083 13:-0.11073 14:0.56313002 15:0.67917001 16:0.24789 17:-0.19783001 18:-0.09973 19:0.70318002 20:0.70117003 21:0.15259001 22:-0.070260003 23:-0.17622 24:0.59180999 
8192 0:-0.77675003 1:-0.26387 2:-1.4999599 3:-0.11843 4:1.2396801 5:-0.49592999 6:-0.45157 7:0.48552999 8:0.39342001 9:-0.085390002 10:1.49169 11:-0.26108 12:-0.068240002 13:-0.23129 14:0.069470003 15:1.50439 16:0.11245 17:-0.43827 18:-0.068470001 19:0.34026 20:1.20239 21:-0.14043 22:-0.061810002 23:-0.24437 24:0.25049999 
8192 0:-0.11236 1:-0.55206001 2:0.080909997 3:0.61767 4:-0.098329999 5:-0.26797 6:-0.68602002 7:-0.30133 8:0.33524001 9:0.13121 10:0.59582001 11:-0.21967 12:-0.10544 13:-0.2588 14:0.12321 15:1.04884 16:-0.32892999 17:-0.25663 18:-0.30888 19:-0.050889999 20:0.60061997 21:-0.26203999 22:-0.046950001 23:-0.28288999 24:0.03709 
8192 0:-0.24128 1:-1.27619 2:1.3446701 3:2.3492401 4:0.46901 5:-1.39652 6:-1.3473099 7:-0.63827997 8:-0.47235 9:-0.4923 10:0.83266997 11:0.64774001 12:-0.77284002 13:0.35743001 14:0.80546999 15:0.90631002 16:0.81480002 17:-1.39674 18:0.74834001 19:0.85861999 20:0.90600002 21:0.64681 22:-0.89396 23:0.43577999 24:0.77934998 
7175.052293884717 0:0.02753 1:-0.79565001 2:1.4443099 3:1.65677 4:0.01111 5:-0.80678999 6:-0.78535002 7:-0.77012998 8:-0.57918 9:-0.19002999 10:1.0829 11:0.051410001 12:-0.28641 13:-0.067189999 14:0.44220999 15:1.51063 16:-0.044509999 17:-0.52547002 18:-0.078170002 19:0.37419 20:1.43014 21:0.038830001 22:-0.33823001 23:-0.038770001 24:0.37650999 
8192 0:0.53925002 1:-0.35122001 2:0.66549999 3:1.38868 4:-0.3872 5:-1.4353499 6:-1.0922101 7:-0.05869 8:0.18673 9:0.62151003 10:1.17875 11:0.90889001 12:-1.49585 13:0.90723002 14:0.71364999 15:1.26272 16:1.18503 17:-2.3854101 18:1.51442 19:0.79705 20:1.24617 21:0.91604 22:-1.62921 23:0.99975002 24:0.69959003 
7122.235778525974 0:-0.068609998 1:0.17428 2:-0.49215001 3:-0.058680002 4:0.48561001 5:-0.81656998 6:-0.64291 7:0.69471997 8:0.18945999 9:0.54105002 10:1.7061501 11:-0.47024 12:-0.095530003 13:-0.21419001 14:-0.30083001 15:1.1614799 16:-0.37694001 17:-0.16413 18:-0.20446 19:0.06696 20:1.48587 21:-0.48517999 22:0.076470003 23:-0.29631001 24:-0.21261001 
6947.694526622318 0:0.13614 1:0.48326999 2:0.27985001 3:-0.26898 4:0.17447001 5:0.42122 6:-0.14448 7:-0.16506 8:-0.55532002 9:0.01299 10:0.72959 11:-0.29721001 12:0.32155001 13:-0.38822001 14:0.17663001 15:0.99980998 16:-0.22015999 17:-0.26350001 18:-0.22338 19:0.12028 20:0.91815001 21:-0.24458 22:0.079190001 23:-0.29995999 24:0.1027 
8192 0:0.82238001 1:0.27189001 2:0.93765998 3:0.59358001 4:-0.52442998 5:-0.95859998 6:-0.73065001 7:-0.14697 8:0.023290001 9:0.78329998 10:1.54927 11:0.242 12:-0.63312 13:0.2167 14:0.43584999 15:1.11516 16:0.51565999 17:-0.83315003 18:0.45704001 19:0.68642998 20:1.24831 21:0.26535001 22:-0.43134001 23:0.13556001 24:0.57626998 
8192 0:0.38655999 1:0.12631001 2:1.18871 3:0.055259999 4:0.60790998 5:0.37481001 6:-0.26714 7:-1.32259 8:-0.84924001 9:-0.40498999 10:-1.09574 11:0.025699999 12:0.61260998 13:-0.26427001 14:0.62756002 15:-1.17369 16:-0.14951 17:0.74062997 18:-0.3565 19:0.53592002 20:-0.87901002 21:-0.088610001 22:0.59243 23:-0.30641001 24:0.53364998 
2341.06790170768 0:0.26098999 1:-0.71153003 2:2.0736401 3:1.58779 4:-0.26515001 5:-0.4869 6:-0.39609 7:-0.88011998 8:-0.70134002 9:-0.67751002 10:-0.28641 11:1.48262 12:-0.079120003 13:0.71846002 14:1.35923 15:-0.99888003 16:1.24177 17:0.54246998 18:0.68379003 19:1.22251 20:-0.55063999 21:1.2930501 22:0.050670002 23:0.55974001 24:1.28835 
8192 0:1.0191 1:0.23544 2:1.73359 3:1.48954 4:-0.68641001 5:-1.17328 6:-0.81625003 7:-0.51661003 8:-0.47117999 9:0.34505999 10:-0.082960002 11:2.1254301 12:-0.97644001 13:1.61072 14:1.49256 15:-0.78961003 16:1.78263 17:-0.059760001 18:1.4183199 19:1.38973 20:-0.31363001 21:1.96492 22:-0.78820002 23:1.40924 24:1.4259 
1792.619571122469 0:1.1056401 1:0.74936998 2:1.79188 3:0.52644998 4:-0.62102997 5:-0.26385 6:-0.35170001 7:-1.1226799 8:-0.76309001 9:0.50053 10:-0.82620001 11:0.90109003 12:0.32181999 13:0.33695999 14:1.16549 15:-0.79663998 16:0.74309999 17:0.45855999 18:0.33866999 19:1.08412 20:-0.48669001 21:0.81569999 22:0.16387001 23:0.37329 24:1.1151299 
8192 0:0.61400002 1:0.20613 2:0.67812997 3:1.00069 4:-0.60772002 5:-0.86189997 6:-0.77582997 7:-0.01187 8:0.2113 9:0.22477999 10:-0.94726998 11:2.64237 12:-2.8534901 13:2.7634399 14:1.415 15:-0.83138001 16:2.44471 17:-2.75246 18:2.7479401 19:1.2248501 20:-1.05373 21:2.4913099 22:-2.85076 23:2.67026 24:1.34655 
8192 0:0.29401001 1:-0.79439998 2:1.4430701 3:1.23496 4:0.20446999 5:-0.33967999 6:-0.66817999 7:-1.1015199 8:-0.54584002 9:-0.50037998 10:-1.14226 11:2.2812901 12:-1.60825 13:2.0353601 14:1.51639 15:-1.15172 16:1.74377 17:-1.17791 18:1.56178 19:1.28905 20:-1.03591 21:1.9702899 22:-1.6285501 23:1.77053 24:1.41423 
8192 0:1.27776 1:0.90614998 2:-0.27124 3:0.079609998 4:-1.09916 5:-1.12556 6:-0.65483999 7:1.01752 8:1.13214 9:0.89292002 10:-0.67050999 11:2.70667 12:-3.75124 13:3.1976299 14:1.10245 15:-0.65621001 16:2.89483 17:-3.8977399 18:3.5697401 19:0.89942998 20:-1.0136 21:2.7527599 22:-3.72206 23:3.28812 24:1.13274 
8192 0:-0.19304 1:-0.48153001 2:0.31766999 3:-0.043669999 4:-0.14486 5:0.90025997 6:0.75304002 7:-0.86624998 8:-0.20407 9:-0.64718002 10:-0.51020002 11:-0.13706 12:0.59426999 13:-0.23542 14:0.34880999 15:-0.81410003 16:-0.33879 17:0.69788003 18:-0.39893001 19:0.1926 20:-0.38365999 21:-0.3098 22:0.58276999 23:-0.37099001 24:0.16790999 
8192 0:0.24530999 1:-0.05477 2:1.73555 3:1.17932 4:-0.245 5:-0.47165 6:-0.31922001 7:-0.67400002 8:-0.74318999 9:-0.32799 10:-0.28318 11:1.33507 12:-0.28731999 13:0.79136997 14:1.31826 15:-0.46116999 16:0.79391003 17:0.01073 18:0.42195001 19:1.08667 20:-0.18753 21:0.92110002 22:-0.22735 23:0.47413 24:1.12447 
968.1542158306985 0:0.040399998 1:-0.96772999 2:1.61069 3:1.06409 4:0.3538 5:0.10947 6:0.018850001 7:-1.41979 8:-0.94735998 9:-0.87128001 10:-0.37489 11:0.77530998 12:0.063790001 13:0.23217 14:1.09916 15:-0.44922999 16:0.53280997 17:0.19339 18:0.085840002 19:0.97171003 20:-0.20231 21:0.56928003 22:0.08275 23:0.10449 24:0.99239999 
7711.413491931915 0:1.85226 1:1.62475 2:-0.034400001 3:0.087839998 4:-1.1483999 5:-1.30137 6:-0.90863001 7:0.63612998 8:0.71957999 9:1.4191099 10:0.19047 11:3.3979101 12:-4.8729801 13:4.7916398 14:1.36862 15:-0.18392 16:3.3678801 17:-3.64555 18:4.4022899 19:1.2360801 20:-0.25507 21:3.56145 22:-4.7814898 23:5.1559701 24:1.44171 
650.4370262349362 0:2.24196 1:1.48413 2:0.017440001 3:0.040819999 4:-1.56486 5:-1.40255 6:-1.00607 7:0.95332998 8:0.79405999 9:1.88528 10:0.082570001 11:3.97768 12:-5.4689798 13:5.5801601 14:1.36632 15:-0.092040002 16:3.7388101 17:-4.6690998 18:5.2881899 19:1.16835 20:-0.27551001 21:3.9766901 22:-5.6866698 23:6.0229001 24:1.40332 
7901.230224772148 0:-1.69881 1:-0.40498999 2:-0.90153998 3:-1.21821 4:1.08588 5:2.21154 6:1.26436 7:-0.57174999 8:-0.55419999 9:-1.35297 10:-0.49908 11:-0.94761002 12:0.57937002 13:-0.6401 14:-1.05303 15:-0.64876997 16:-0.97318 17:0.55562001 18:-0.73883998 19:-0.95890999 20:-0.25106999 21:-0.94367999 22:0.63318998 23:-0.66850001 24:-1.13199 
1889.526817582731 0:-0.24755999 1:-0.99443001 2:0.36611 3:0.065339997 4:0.71205997 5:1.86059 6:0.60611999 7:-1.98989 8:-1.15074 9:-1.25693 10:-1.14226 11:-0.33079001 12:0.88158 13:-0.43773001 14:0.21828 15:-1.42232 16:-0.49544999 17:0.78521001 18:-0.54829001 19:0.119 20:-0.61162001 21:-0.37469 22:0.78302997 23:-0.48445001 24:0.20262 
8192 0:-0.77442002 1:-0.086669996 2:-1.0891401 3:-1.19203 4:-0.59031999 5:0.29238001 6:0.71155 7:1.30841 8:1.40593 9:0.24534 10:1.85851 11:-1.00169 12:0.53710002 13:-0.64700001 14:-1.3554699 15:1.99379 16:-0.90893 17:0.51863003 18:-0.71446002 19:-0.68847001 20:1.82039 21:-0.94866002 22:0.60031003 23:-0.66349 24:-1.1201299 
4802.918021921991 0:2.15784 1:2.05952 2:0.35038999 3:-0.88261998 4:-1.1500601 5:-0.86176002 6:-0.2494 7:0.36239001 8:-0.22436 9:2.4026799 10:1.1307 11:-0.50075001 12:0.15954 13:-0.40116999 14:-0.18934 15:1.63306 16:-0.68546999 17:0.20486 18:-0.54681998 19:-0.36521 20:1.49202 21:-0.52607 22:0.22645999 23:-0.42111999 24:-0.23533 
8192 0:-0.89328003 1:0.13647 2:-1.03163 3:-1.2079 4:-0.62945998 5:0.36372 6:0.81169999 7:1.34123 8:1.3833899 9:0.095020004 10:1.74129 11:-1.03025 12:0.56296998 13:-0.65768999 14:-1.4600101 15:2.0476201 16:-0.93608999 17:0.56436002 18:-0.73495001 19:-0.78289998 20:1.63656 21:-0.98580998 22:0.63492 23:-0.67896998 24:-1.23874 
8192 0:0.25446001 1:-0.088129997 2:0.72377002 3:0.75678003 4:0.29480001 5:-0.69101 6:-0.92872 7:-0.36822 8:-0.40540001 9:0.26776001 10:1.14018 11:0.097589999 12:-0.41771999 13:0.084210001 14:0.42135999 15:1.08005 16:0.062369999 17:-0.61879998 18:0.067309998 19:0.43775001 20:1.05999 21:0.060819998 22:-0.37105 23:0.035780001 24:0.41599 
8192 0:-0.17047 1:-0.89605999 2:0.76375002 3:1.10619 4:0.28955001 5:-0.18178999 6:-0.44793999 7:-0.68708003 8:-0.54461002 9:-0.44247001 10:1.08858 11:-0.34217 12:0.082089998 13:-0.34251001 14:0.065140001 15:1.17391 16:-0.32056999 17:-0.10294 18:-0.34740001 19:0.15399 20:1.29355 21:-0.34503999 22:0.081859998 23:-0.34728 24:0.028689999 
8192 0:-0.25001001 1:0.10047 2:-0.42535999 3:-0.82681 4:-0.26699001 5:1.6819299 6:1.22805 7:-0.56621999 8:-0.35135999 9:-0.50107998 10:-2.04089 11:-0.62540001 12:0.72397 13:-0.60591 14:-0.46651 15:-1.93146 16:-0.94735998 17:0.69255 18:-0.74566001 19:-0.83927 20:-1.69127 21:-0.82485002 22:0.74589998 23:-0.65600997 24:-0.66785002 
8192 0:0.84960002 1:0.046549998 2:0.99748999 3:0.92036003 4:-0.24099 5:-0.43816 6:-0.42078999 7:-0.70159 8:-0.41494 9:-0.11514 10:-0.35593 11:1.93882 12:-0.28191 13:1.2049299 14:1.4462301 15:-0.85227001 16:1.62828 17:0.41641 18:1.20763 19:1.29398 20:-0.59104002 21:1.78778 22:-0.26462999 23:1.11735 24:1.4007601 
-8192 0:-0.11393 1:0.12544 2:-0.042539999 3:-0.5826 4:-0.022679999 5:0.34992 6:0.97666001 7:-0.049600001 8:-0.41609001 9:0.17279001 10:-1.72509 11:-0.90328002 12:0.65499002 13:-0.64098001 14:-0.93480998 15:-1.31862 16:-1.01722 17:0.67975003 18:-0.75582999 19:-1.08604 20:-1.9561 21:-0.94705999 22:0.70968997 23:-0.67567003 24:-1.05425 
-8192 0:0.03906 1:-0.37121001 2:0.63413 3:-0.40268001 4:-1.3748 5:-0.50612998 6:0.98032999 7:1.20082 8:0.48137999 9:0.94467998 10:-2.23071 11:-1.02347 12:0.57528001 13:-0.64594001 14:-1.60016 15:-1.79151 16:-1.11285 17:0.62101001 18:-0.76099002 19:-1.8046499 20:-2.5573201 21:-1.00695 22:0.63161999 23:-0.66777003 24:-1.55696 
-8192 0:0.12939 1:-0.32539999 2:-0.13252001 3:-0.46950999 4:0.49362999 5:1.74354 6:0.052280001 7:-1.08678 8:-0.89314997 9:-0.54377002 10:-1.75859 11:-0.61138999 12:0.65793002 13:-0.58227003 14:-0.20255999 15:-1.39417 16:-0.82249999 17:0.64876997 18:-0.70817 19:-0.44769999 20:-2.1116199 21:-0.72463 22:0.67794001 23:-0.62647003 24:-0.34639001 
-8192 0:-1.74436 1:-1.36534 2:-0.82520998 3:-0.71656001 4:-0.08264 5:2.3684001 6:1.29852 7:-0.30421999 8:0.27382001 9:-1.35302 10:-1.81321 11:-1 12:0.64152998 13:-0.65438002 14:-1.4632601 15:-1.46367 16:-1.09522 17:0.66943002 18:-0.76582003 19:-1.70682 20:-2.07882 21:-1.04238 22:0.70125002 23:-0.68809003 24:-1.68442 
-8192 0:-0.27381 1:0.93314999 2:-0.41545001 3:-0.49733001 4:-0.28830999 5:0.54210001 6:0.80084997 7:0.56282002 8:-0.35883 9:-0.10606 10:-2.2026801 11:-0.93480003 12:0.65680999 13:-0.64415002 14:-1.12775 15:-1.82854 16:-1.0315599 17:0.68010998 18:-0.75623 19:-1.2615 20:-2.4955101 21:-0.93480998 22:0.69598001 23:-0.67162001 24:-1.05627 
-3678.117275822542 0:-0.1612 1:0.89449 2:-0.71667999 3:-1.1139899 4:-1.47849 5:0.23853999 6:0.71155 7:1.84278 8:0.71961999 9:1.10676 10:-2.10309 11:-0.86361998 12:0.48350999 13:-0.54707003 14:-1.352 15:-1.64676 16:-1.02527 17:0.56441998 18:-0.71169001 19:-1.64194 20:-2.3464899 21:-0.92111999 22:0.48741001 23:-0.55295998 24:-1.49104 
-5767.914715974901 0:-0.47725001 1:-0.41108 2:-0.61271 3:-1.29202 4:-0.86166 5:0.86330003 6:1.36005 7:0.71697003 8:0.85671002 9:0.23503 10:-2.09535 11:-0.77630001 12:0.68583 13:-0.63372999 14:-1.15581 15:-1.72034 16:-0.86966002 17:0.65228999 18:-0.72548002 19:-1.23297 20:-2.5360501 21:-0.85738999 22:0.63225001 23:-0.65125 24:-1.0026 
-90.95760290166 0:-1.0874799 1:0.3087 2:-1.28452 3:-1.53711 4:-1.30478 5:1.01689 6:1.50968 7:1.40637 8:1.2547801 9:0.42006999 10:-1.92228 11:-1.0030299 12:0.59983999 13:-0.66127002 14:-1.48009 15:-1.3131599 16:-1.09691 17:0.64060998 18:-0.76981997 19:-1.73271 20:-2.1919301 21:-1.03894 22:0.68020999 23:-0.68953001 24:-1.56779 
-8192 0:-1.25604 1:-1.07144 2:-0.98609 3:-0.47953999 4:0.41692999 5:1.0923001 6:1.16317 7:0.16869 8:-0.069739997 9:-0.76494002 10:-1.69066 11:-0.77122998 12:0.75648999 13:-0.61878002 14:-1.03719 15:-1.33056 16:-0.87147999 17:0.82306999 18:-0.72562999 19:-1.2523201 20:-1.90486 21:-0.89648002 22:0.75664002 23:-0.67135 24:-1.08816 
-8192 0:-0.27587 1:0.02774 2:-0.42840001 3:0.30307001 4:1.76208 5:-0.82775003 6:-1.4489501 7:0.05734 8:-0.28362 9:-0.17557 10:-0.19568001 11:0.069750004 12:-0.17775001 13:-0.084380001 14:0.55514997 15:-0.36142999 16:0.41384 17:-0.40630001 18:0.13646001 19:0.81984001 20:-0.41576999 21:0.13929 22:-0.083250001 23:-0.10135 24:0.63878 
-8192 0:0.2226 1:-0.32514 2:1.00151 3:1.13679 4:-0.26519001 5:-0.61849999 6:-0.70686001 7:-0.68414998 8:-0.3337 9:0.31771001 10:-0.12385 11:0.54307002 12:-0.42500001 13:0.26120999 14:0.88015002 15:-0.045529999 16:0.28472 17:-0.33329001 18:0.1532 19:0.72149998 20:-0.11447 21:0.48916 22:-0.41576001 23:0.28332999 24:0.83485001 
-8192 0:0.82617003 1:1.23613 2:-0.044 3:-0.95528001 4:-0.36478999 5:0.55113 6:0.30502 7:-0.29078001 8:-0.31005001 9:0.68961 10:0.14656 11:-0.34298 12:0.59316999 13:-0.41896999 14:0.14974 15:0.18443 16:-0.55313998 17:0.61427999 18:-0.50071001 19:-0.077590004 20:0.51574999 21:-0.46979001 22:0.56766999 23:-0.44337001 24:0.00070999999 
-8192 0:0.37573001 1:0.58041 2:-0.76229 3:-0.26091999 4:0.43691999 5:-0.98264003 6:-0.99461001 7:0.64074999 8:0.63461 9:0.75068003 10:1.2658499 11:0.31066999 12:-0.85530001 13:0.40217 14:0.47014001 15:1.05856 16:0.90628999 17:-1.37894 18:0.89859998 19:0.75270998 20:1.09287 21:0.45249 22:-0.77765 23:0.38863999 24:0.60964 
-8192 0:0.1556 1:0.34215999 2:-0.62121999 3:-0.42359999 4:0.37220001 5:-0.79247999 6:-0.94338 7:0.93612999 8:0.63300002 9:0.70570999 10:1.401 11:0.021120001 12:-0.63744998 13:0.20827 14:0.22022 15:1.1292 16:0.58257002 17:-1.1512901 18:0.56853998 19:0.65223998 20:1.0732501 21:0.20049 22:-0.59469002 23:0.20285 24:0.45627001 
-8192 0:0.94440001 1:0.52477998 2:-0.22923 3:0.53811002 4:0.32122001 5:-1.53219 6:-1.45543 7:0.41205001 8:0.05624 9:1.10999 10:-0.21796 11:0.65118003 12:-0.35848999 13:0.19536 14:0.91163999 15:-0.31546 16:1.28335 17:-0.97110999 18:0.81366998 19:0.99492002 20:-0.46687001 21:0.91962999 22:-0.53382999 23:0.34281999 24:0.97803003 
-8192 0:1.16863 1:0.65003997 2:0.29609001 3:0.72680998 4:-0.17064001 5:-1.5534199 6:-1.27592 7:0.15967 8:0.11692 9:1.08527 10:0.16977 11:0.97588998 12:-0.85369998 13:0.64678001 14:1.03956 15:0.14590999 16:1.24278 17:-1.34719 18:1.071 19:1.05071 20:0.05804 21:1.09161 22:-1.0124201 23:0.74190998 24:1.05397 
-8192 0:-0.71447003 1:0.40504 2:-0.38905999 3:-1.09095 4:-1.10992 5:-0.0046299999 6:1.30235 7:1.20998 8:1.02394 9:0.64258999 10:-1.64204 11:-1.0779901 12:0.60320002 13:-0.66122001 14:-1.87435 15:-1.04892 16:-1.1598901 17:0.63670999 18:-0.77008998 19:-2.2632301 20:-0.91064 21:-1.09475 22:0.67562997 23:-0.69103998 24:-2.15762 
-8192 0:-0.3928 1:-0.62339997 2:0.060619999 3:-0.72053999 4:0.3838 5:1.34071 6:0.93221003 7:-0.55385 8:-0.55470002 9:-0.67306 10:-2.08167 11:-0.86554998 12:0.65783 13:-0.64302999 14:-0.83411002 15:-1.6265399 16:-1.00969 17:0.67417002 18:-0.75848001 19:-1.0592901 20:-2.40049 21:-0.92725003 22:0.71213001 23:-0.67742997 24:-0.95099998 
-8192 0:-0.29659 1:-0.02293 2:-0.37323999 3:-0.79971999 4:0.23451 5:1.66953 6:1.067 7:-1.21671 8:-0.53412998 9:-0.51138997 10:-2.14151 11:-0.90647 12:0.65913999 13:-0.64327002 14:-0.95977002 15:-1.72628 16:-1.0276901 17:0.67686999 18:-0.75616997 19:-1.18752 20:-2.4730699 21:-0.93207002 22:0.72123998 23:-0.67399001 24:-1.01123 
-8192 0:-0.53222001 1:0.39787999 2:-0.66865999 3:-1.11919 4:-0.016799999 5:1.4858201 6:0.89868999 7:0.03088 8:-0.30283999 9:-0.21972001 10:-1.47978 11:-0.86132997 12:0.67593998 13:-0.63880998 14:-0.94735998 15:-1.07833 16:-1.01054 17:0.67916 18:-0.75673997 19:-1.18153 20:-1.63947 21:-0.94362998 22:0.71196997 23:-0.67703003 24:-1.07172 
-8192 0:-0.74447 1:-0.44547999 2:-0.62252998 3:-0.69825 4:0.26998001 5:1.80992 6:0.92391002 7:-0.69196999 8:-0.49900001 9:-0.64894003 10:-1.54085 11:-0.97849 12:0.60736001 13:-0.65000999 14:-1.2038701 15:-1.18857 16:-1.05829 17:0.62822002 18:-0.75717998 19:-1.33871 20:-1.91004 21:-0.98246998 22:0.67589003 23:-0.67746001 24:-1.25212 
-8192 0:-2.32531 1:-1.58394 2:-1.81108 3:-1.1161 4:1.03864 5:2.16397 6:1.35326 7:0.37118 8:0.33654001 9:-1.75783 10:-1.7326699 11:-0.92654997 12:0.63560998 13:-0.65412003 14:-1.26703 15:-1.40833 16:-1.06107 17:0.64631999 18:-0.76709998 19:-1.4136699 20:-2.19504 21:-1.0249 22:0.68287998 23:-0.68931001 24:-1.46701 
-8192 0:0.49211001 1:0.2341 2:1.11084 3:1.06156 4:-0.56612003 5:-1.36789 6:-0.82748997 7:0.33623999 8:0.26929 9:0.27866 10:0.18611 11:1.71193 12:-3.0817201 13:2.41064 14:0.97448999 15:0.38607001 16:1.46322 17:-3.18975 18:2.24683 19:0.90407002 20:0.14477 21:1.4709001 22:-2.7109201 23:2.0262599 24:0.97416002 
-8192 0:-0.36895001 1:-0.041510001 2:-0.57485002 3:-1.21526 4:-0.96767998 5:0.75827998 6:0.91569 7:0.68371999 8:0.69001001 9:0.74295002 10:0.67703003 11:-0.87725002 12:0.65779001 13:-0.63992 14:-1.2764601 15:0.91952002 16:-0.96651 17:0.72187001 18:-0.74891001 19:-1.54372 20:1.11075 21:-0.95840001 22:0.69753999 23:-0.67686999 24:-1.30659 
-8192 0:-0.41993001 1:-0.45624 2:-0.71755999 3:0.29574001 4:0.33256999 5:-0.78017998 6:-0.61396003 7:0.98149002 8:1.0073299 9:-0.36113 10:0.20743001 11:0.10532 12:-0.43009001 13:-0.046580002 14:0.26664999 15:0.45299 16:0.88713002 17:-1.88397 18:0.95551002 19:0.61448997 20:0.12868001 21:0.39333001 22:-0.82716 23:0.24491 24:0.3996 
-8192 0:-0.2933 1:0.10498 2:-0.78906 3:0.067950003 4:0.61062002 5:-0.78891999 6:-0.97491002 7:0.72999001 8:0.67641997 9:0.13162 10:0.70069999 11:0.11393 12:-0.36873999 13:-0.01003 14:0.44523001 15:0.65768999 16:0.89674997 17:-1.35036 18:0.82881999 19:0.77095002 20:0.60462999 21:0.35376 22:-0.62959999 23:0.21528 24:0.59477001 
-8192 0:0.2445 1:0.26751 2:-0.64753997 3:0.065640002 4:0.22596 5:-0.98395002 6:-0.86568999 7:0.90678 8:0.72077 9:0.35664999 10:0.46158999 11:0.47183001 12:-0.99189001 13:0.44639999 14:0.53723001 15:0.67545003 16:1.20253 17:-2.2809401 18:1.46249 19:0.72043997 20:0.46492001 21:0.69279999 22:-1.30323 23:0.68173999 24:0.62733001 
-2485.120627921901 0:0.62295997 1:0.75585002 2:-0.76921999 3:0.0027099999 4:0.22849999 5:-1.25225 6:-1.25333 7:0.93153 8:0.71925002 9:0.80624998 10:0.83184999 11:0.92790997 12:-1.47561 13:0.93879998 14:0.75700998 15:0.85464001 16:1.58058 17:-2.6632299 18:2.0192299 19:0.89674997 20:0.84508997 21:1.05918 22:-1.78082 23:1.21505 24:0.80333 
-8192 0:1.96737 1:1.2735699 2:-0.16396999 3:0.30338001 4:-0.31158999 5:-1.94522 6:-1.5567501 7:0.68905997 8:0.26841 9:1.84909 10:0.73717999 11:1.26003 12:-1.53388 13:1.15955 14:1.03333 15:0.2157 16:1.92793 17:-2.6322601 18:2.25896 19:1.1928 20:0.31547999 21:1.7653 22:-2.22474 23:1.81815 24:1.17001 
-8192 0:0.32756001 1:0.56993002 2:-0.86475998 3:-0.085000001 4:0.48353001 5:-1.27288 6:-1.2551 7:0.90916997 8:0.84513003 9:0.69985002 10:0.89928001 11:0.22176 12:-0.47457999 13:0.061000001 14:0.46156999 15:0.85110003 16:1.06346 17:-1.6722 18:1.04477 19:0.71959001 20:0.76422 21:0.49888 22:-0.81742001 23:0.36004001 24:0.59908003 
-1228.184140225912 0:0.99857002 1:1.02116 2:-0.78612 3:-0.2929 4:0.017829999 5:-1.34983 6:-1.3347 7:0.96882999 8:0.80346 9:1.35463 10:1.10006 11:0.86570001 12:-1.4288501 13:0.86403 14:0.65653002 15:1.11798 16:1.6383899 17:-2.9400201 18:2.20555 19:0.79973 20:1.04673 21:1.06076 22:-1.8709199 23:1.27504 24:0.71832001 
-5464.266193852831 0:0.77028 1:0.68800002 2:-0.065619998 3:-1.01838 4:-0.58068001 5:0.53438002 6:0.98903 7:-0.48030999 8:-0.20779 9:0.82252997 10:0.12637 11:-0.81481999 12:0.60171002 13:-0.61900997 14:-0.59776998 15:0.60475999 16:-0.93370998 17:0.57523 18:-0.72024 19:-0.80947 20:0.70965999 21:-0.84433001 22:0.65161002 23:-0.63879001 24:-0.74509001 
-8192 0:0.40888 1:0.39989999 2:-0.033149999 3:0.26359001 4:-0.34092 5:-0.73601002 6:-0.35530001 7:0.41883001 8:0.34132001 9:0.42241001 10:-0.35859999 11:0.465 12:0.233 13:-0.074089997 14:0.88722998 15:-0.85797 16:0.88018 17:0.55352998 18:0.32512999 19:0.9425 20:-0.60505998 21:0.58486003 22:0.25249001 23:-0.00094 24:0.91510999 
-8192 0:0.92708999 1:0.02667 2:0.78053999 3:1.33278 4:-0.015760001 5:-1.39881 6:-1.0403399 7:-0.58709002 8:-0.45728001 9:0.74799001 10:0.28852999 11:0.59802002 12:-0.0046199998 13:0.044440001 14:0.96614999 15:0.079410002 16:0.56694001 17:0.079779997 18:0.10481 19:0.9411 20:0.40766999 21:0.59596002 22:-0.027550001 23:0.04338 24:0.93065 
-8192 0:0.9867 1:0.83530998 2:-0.14983 3:0.29853001 4:-0.55844003 5:-1.32939 6:-0.52449 7:0.41251001 8:0.29890001 9:1.29977 10:0.41769001 11:0.79181999 12:-0.43899 13:0.26572001 14:0.95526999 15:0.26611 16:1.25305 17:-1.02002 18:0.78955001 19:0.96967 20:0.35870999 21:0.99557 22:-0.69555998 23:0.44846001 24:0.96994001 
-8192 0:1.50887 1:0.85474002 2:0.59722 3:0.61822999 4:-0.64489001 5:-1.58234 6:-0.94410002 7:0.079020001 8:-0.063249998 9:1.56269 10:0.55596 11:0.8603 12:-0.40981001 13:0.30168 14:1.01379 15:0.33836001 16:0.93141001 17:-0.43483999 18:0.46344 19:1.01261 20:0.47915 21:0.86993998 22:-0.43085 23:0.33511001 24:1.00524 
-8192 0:-0.40687001 1:-0.67057002 2:0.77042001 3:1.15634 4:0.88634998 5:-0.29271001 6:-0.71894002 7:-0.97755998 8:-0.58627999 9:-0.80024999 10:-0.99425 11:0.44161001 12:0.01249 13:0.0090600001 14:0.90397 15:-0.76872998 16:0.30577001 17:-0.05249 18:-0.019950001 19:0.81805998 20:-0.80602002 21:0.36745 22:-0.046089999 23:-0.0045699999 24:0.84065002 
-8192 0:0.41710001 1:0.22761001 2:0.7101 3:0.8423 4:0.43266001 5:-0.53952998 6:-1.0248899 7:-0.72876 8:-0.47973001 9:-0.040589999 10:-0.41453999 11:1.1102 12:-0.44018999 13:0.64791 14:1.22311 15:-0.38567999 16:1.0103 17:-0.55989999 18:0.73545003 19:1.12758 20:-0.30044001 21:1.04809 22:-0.62884998 23:0.67326999 24:1.16076 
-8192 0:0.14462 1:-0.20602 2:0.80501997 3:1.10036 4:0.49733999 5:-0.39947 6:-1.01064 7:-0.88533002 8:-0.52376002 9:-0.33502001 10:-0.75621998 11:0.77872002 12:-0.15214001 13:0.31191999 14:1.09487 15:-0.58780003 16:0.67093003 17:-0.23893 18:0.34898001 19:1.00798 20:-0.60623002 21:0.73074001 22:-0.29738 23:0.35150999 24:1.04862 
-8192 0:1.05206 1:0.46717 2:0.68812001 3:0.57604998 4:0.33273 5:-0.81156999 6:-1.42393 7:-0.64929998 8:-0.48655 9:0.75705999 10:-0.32663 11:0.98321003 12:-0.22769 13:0.50028002 14:1.18304 15:-0.33713001 16:1.08373 17:-0.38848999 18:0.70964998 19:1.15172 20:-0.29582 21:1.11429 22:-0.51284999 23:0.69897997 24:1.20486 
-8192 0:0.41784 1:0.13372999 2:1.14398 3:0.45473999 4:0.16771001 5:-0.10685 6:-0.44238001 7:-0.84546 8:-0.59579003 9:-0.13399 10:-0.14706001 11:0.24784 12:0.36155999 13:-0.096430004 14:0.78179002 15:0.33697999 16:-0.16226 17:0.39133999 18:-0.34077999 19:0.51334 20:0.41927999 21:0.035089999 22:0.33921 23:-0.21527 24:0.60797 
-8192 0:0.77574003 1:0.80498999 2:0.30930999 3:0.39030999 4:0.21148001 5:-0.95327002 6:-1.11136 7:0.14514001 8:-0.02503 9:0.37762001 10:-0.08179 11:1.10139 12:-0.61031997 13:0.69279999 14:1.17925 15:-0.37000999 16:1.16326 17:-0.33927 18:0.76134002 19:1.15364 20:-0.31694999 21:1.16107 22:-0.62142998 23:0.75660002 24:1.20899 
-8192 0:-1.42409 1:-1.53447 2:-0.99101001 3:-0.63034999 4:0.086180001 5:1.88889 6:1.73577 7:0.33734 8:-0.07367 9:-1.37451 10:-0.36730999 11:-1.01476 12:0.61062998 13:-0.65442002 14:-1.45848 15:0.28038999 16:-1.10655 17:0.63027 18:-0.76629001 19:-1.64959 20:0.37004 21:-1.04523 22:0.67610002 23:-0.68741 24:-1.60852 
-8192 0:-0.28766 1:0.58130002 2:-0.60459 3:-0.83791 4:-1.68715 5:0.63440001 6:1.67919 7:1.20806 8:0.31830001 9:0.70348001 10:-0.37443 11:-1.01367 12:0.62348998 13:-0.64651 14:-1.71621 15:0.31705999 16:-1.10313 17:0.66175997 18:-0.76037002 19:-1.89096 20:0.38012001 21:-1.0329601 22:0.67592001 23:-0.67894 24:-1.71769 
-8192 0:0.21438 1:-0.71613002 2:1.15915 3:1.63872 4:-0.23706999 5:-0.99425 6:-0.72646999 7:-0.52651 8:-0.45085999 9:0.1664 10:0.25205001 11:0.92751998 12:-0.97407001 13:0.68967998 14:1.0083801 15:0.1938 16:0.49669001 17:-0.52397001 18:0.33941999 19:0.81928998 20:0.47929001 21:0.66446 22:-0.78461999 23:0.47182 24:0.85712999 
-8192 0:1.12912 1:0.16260999 2:1.48862 3:1.52388 4:-0.59916002 5:-1.7678699 6:-1.21746 7:-0.20905 8:-0.18151 9:0.85439003 10:0.27234 11:2.1612301 12:-1.84526 13:2.0427001 14:1.40932 15:-0.065750003 16:1.6471601 17:-1.06356 18:1.51127 19:1.31001 20:0.21631999 21:1.8886 22:-1.55575 23:1.6869 24:1.2927001 
-8192 0:0.4325 1:0.36950001 2:0.98916 3:0.0044200001 4:0.037360001 5:0.060350001 6:0.48054999 7:-1.04153 8:-0.62694001 9:-0.077720001 10:0.19462 11:-0.64284003 12:0.53621 13:-0.56269002 14:-0.14466999 15:0.19248 16:-0.66196001 17:0.46336001 18:-0.64205003 19:-0.091619998 20:0.53267002 21:-0.58183002 22:0.45065001 23:-0.53372002 24:-0.11147 
-8192 0:1.33725 1:2.0485101 2:1.38915 3:-0.58666998 4:-1.15336 5:-0.62589002 6:0.47093999 7:-0.29982001 8:-0.37028 9:1.41208 10:-0.15459 11:-0.74018002 12:0.52768999 13:-0.59473997 14:-0.34391999 15:-0.02963 16:-0.86594999 17:0.60531998 18:-0.71929997 19:-0.45875001 20:0.31865999 21:-0.73005998 22:0.60123003 23:-0.61282003 24:-0.33265001 
-8192 0:-0.38031 1:-0.39333999 2:-0.26447999 3:-0.76084 4:0.034809999 5:1.73606 6:1.34057 7:-1.13902 8:-0.62686002 9:-0.41214001 10:-1.8462 11:-0.83130997 12:0.69177002 13:-0.61853999 14:-0.72473001 15:-1.6405801 16:-0.93867999 17:0.67730999 18:-0.72707999 19:-0.82137001 20:-1.34646 21:-0.84710997 22:0.72599 23:-0.64818001 24:-0.73803997 
-8192 0:0.43531999 1:1.17608 2:-0.28747001 3:-0.73712999 4:-0.061659999 5:1.43628 6:0.99829 7:-1.09544 8:-0.79799998 9:-0.36342001 10:-1.9165 11:-0.57075 12:0.85447001 13:-0.51877999 14:-0.25485 15:-1.8514 16:-0.76385999 17:0.80641001 18:-0.65276003 19:-0.44042999 20:-1.52235 21:-0.65628999 22:0.81863999 23:-0.57699001 24:-0.33368 
-8192 0:-0.3348 1:-1.0114599 2:1.47267 3:1.59465 4:0.61868 5:-0.22773001 6:-0.66325998 7:-1.06126 8:-0.79149002 9:-1.18602 10:-1.43178 11:0.99144 12:0.19945 13:0.27399999 14:1.19445 15:-1.8229001 16:0.87954003 17:0.64491999 18:0.39289001 19:1.11371 20:-1.7133 21:0.89320999 22:0.25035 23:0.23827 24:1.14864 
-8192 0:1.50484 1:0.82833999 2:1.28337 3:-0.26255 4:-0.77473998 5:-0.23469999 6:-0.03658 7:-0.71227998 8:-0.47327 9:1.10173 10:-0.25654 11:0.67399001 12:0.41514999 13:0.1821 14:1.01054 15:-0.36485001 16:0.17103 17:0.55313998 18:-0.05161 19:0.77771002 20:-0.02912 21:0.37007999 22:0.30127999 23:0.091750003 24:0.84226 
-8192 0:1.40683 1:0.72417003 2:0.49656001 3:0.95774001 4:-0.17824 5:-1.21716 6:-1.0391901 7:-0.38563001 8:-0.26148 9:0.67596 10:-0.23113 11:2.58494 12:-1.60295 13:2.1940501 14:1.55844 15:-0.83600003 16:2.21171 17:-0.95700002 18:2.0274999 19:1.40308 20:-0.57411999 21:2.385 22:-1.40136 23:1.95266 24:1.49569 
-8192 0:1.17908 1:0.31711 2:1.99409 3:0.62715 4:-0.45792001 5:-0.41012999 6:-0.58008999 7:-1.18534 8:-0.74676001 9:0.51346999 10:-0.064570002 11:1.06204 12:0.38958001 13:0.46930999 14:1.20384 15:-0.18848 16:0.70142001 17:0.35374001 18:0.31356001 19:1.0835299 20:0.12164 21:0.81503999 22:0.17235 23:0.36107999 24:1.05186 
-8192 0:0.70516998 1:1.2417099 2:-0.56217003 3:-0.48653001 4:0.28275001 5:-0.86284 6:-0.90989 7:0.53602999 8:0.13239001 9:1.19583 10:1.05257 11:0.093910001 12:0.23559999 13:-0.20762999 14:0.52996999 15:0.49408999 16:0.54724002 17:0.59375 18:0.10999 19:0.66137999 20:0.73237997 21:0.13899 22:0.30109 23:-0.17862 24:0.59517002 
-8192 0:-0.14602 1:-0.51618999 2:0.094609998 3:0.93861997 4:1.14204 5:-0.98572999 6:-1.01859 7:-0.1698 8:-0.37656999 9:-0.21738 10:0.94932997 11:-0.073260002 12:0.069389999 13:-0.26502001 14:0.46882999 15:0.73989999 16:0.096359998 17:0.02833 18:-0.18837 19:0.58498001 20:0.97008002 21:-0.10107 22:0.17132001 23:-0.32159001 24:0.45241001 
-8192 0:0.42589 1:0.60047001 2:0.084569998 3:-0.44225001 4:-0.83386999 5:0.34103 6:1.0324399 7:-0.13654999 8:-0.36199 9:0.64235002 10:0.80233997 11:-0.83662999 12:0.44176999 13:-0.58437997 14:-0.74589998 15:1.38617 16:-0.93528003 17:0.45943999 18:-0.69331998 19:-0.89543998 20:1.247 21:-0.87026 22:0.55773002 23:-0.62981999 24:-0.88385999 
-8192 0:-0.29190999 1:-0.71349001 2:0.58138001 3:1.50043 4:0.38426 5:-0.81264001 6:-0.65846997 7:-0.43665001 8:-0.38335001 9:-0.40217999 10:1.2876199 11:0.16434 12:-0.42929 13:0.046560001 14:0.49135 15:1.45614 16:0.18488 17:-0.77538002 18:0.12764999 19:0.49939999 20:1.27704 21:0.15669 22:-0.45602 23:0.04273 24:0.4375 
-8192 0:0.95609999 1:0.82875001 2:0.050760001 3:0.40384999 4:0.25345001 5:-1.26113 6:-1.23668 7:0.25729001 8:-0.074620001 9:0.84349 10:1.04708 11:0.47396001 12:-0.58990997 13:0.31279999 14:0.75638002 15:0.73210001 16:0.75532001 17:-1.07824 18:0.70928001 19:0.89126998 20:0.71856999 21:0.55746001 22:-0.66845 23:0.40463001 24:0.82380998 
-8192 0:-1.0335 1:-1.03181 2:-0.83893001 3:0.01488 4:1.8568799 5:0.016559999 6:-0.54291999 7:0.098889999 8:-0.0548 9:-1.01902 10:0.93892998 11:-0.036669999 12:-1.05068 13:0.71517998 14:0.06261 15:0.50213999 16:0.11252 17:-0.45734999 18:0.090219997 19:0.59285003 20:0.54538 21:0.10896 22:-1.26763 23:1.00283 24:0.27147001 
-8192 0:1.03228 1:1.15593 2:0.4998 3:-0.69234002 4:-0.63046002 5:0.58232999 6:0.10489 7:-0.63161999 8:-0.46915001 9:0.81620997 10:-0.025529999 11:-0.46911001 12:0.60911 13:-0.52880001 14:0.10891 15:0.2349 16:-0.61707002 17:0.73531002 18:-0.63085997 19:-0.078649998 20:0.27522001 21:-0.52446997 22:0.69616002 23:-0.56128001 24:0.038570002 
-8192 0:0.12148 1:0.45908001 2:-0.76712 3:-0.51637 4:0.43909001 5:-0.62879002 6:-0.81383997 7:0.76340002 8:0.64696997 9:0.57612002 10:1.09284 11:-0.11335 12:-0.45871001 13:0.055210002 14:0.12912001 15:1.00869 16:0.35152999 17:-0.90771002 18:0.34465 19:0.55777001 20:0.90944999 21:0.0021200001 22:-0.44631001 23:0.082780004 24:0.29451001 
-8192 0:1.01671 1:0.35993999 2:0.33070999 3:0.70889997 4:-0.28760001 5:-1.2968301 6:-0.85311002 7:-0.088370003 8:0.073339999 9:0.9684 10:0.67385 11:0.1006 12:0.15131 13:-0.27671 14:0.62498999 15:0.39502001 16:0.24852 17:0.15437999 18:-0.18238001 19:0.73642999 20:0.41650999 21:0.18424 22:0.15926 23:-0.2163 24:0.69492 
-8192 0:0.86912 1:0.43302 2:0.02045 3:0.59920001 4:-0.16822 5:-1.53233 6:-0.79470998 7:0.36241001 8:0.23218 9:0.98192 10:0.98975003 11:0.29609001 12:-0.10163 13:-0.12946001 14:0.64867997 15:0.68624997 16:0.59123999 17:-0.19566 18:0.074029997 19:0.80190003 20:0.78728002 21:0.40540999 22:-0.097879998 23:-0.065710001 24:0.73372 
-8192 0:0.45427999 1:0.1147 2:-0.060570002 3:0.60768998 4:0.23501 5:-1.22296 6:-0.63025999 7:0.14574 8:0.051679999 9:0.52489001 10:0.32106 11:0.15217 12:0.080190003 13:-0.22386999 14:0.65292001 15:0.092380002 16:0.68461001 17:-0.12777001 18:0.11656 19:0.86359 20:0.1139 21:0.39555001 22:0.0060800002 23:-0.11192 24:0.77818 
-8192 0:1.0041 1:0.58402002 2:-0.040989999 3:0.34856001 4:-0.29306999 5:-1.37832 6:-0.55879003 7:0.28744 8:0.11764 9:1.2330101 10:0.83713001 11:0.35725001 12:-0.10962 13:-0.083580002 14:0.71401 15:0.39087 16:0.80458999 17:-0.20521 18:0.23672 19:0.90737998 20:0.64108998 21:0.56612998 22:-0.15903001 23:0.035640001 24:0.83934999 
-8192 0:-0.41745999 1:-0.80192 2:1.59745 3:1.7389899 4:0.37283 5:-0.49799001 6:-0.85892999 7:-0.52915001 8:-0.61163998 9:-1.16933 10:-0.99461001 11:0.87721002 12:-0.15491 13:0.21629 14:1.05891 15:-1.2157 16:0.86347002 17:0.22125 18:0.30921999 19:1.01138 20:-1.15759 21:0.74744999 22:-0.036449999 23:0.13536 24:1.0180399 
-8192 0:0.72259003 1:0.61566001 2:0.66816002 3:-0.082769997 4:0.11096 5:0.35956001 6:0.29189 7:-1.2079099 8:-0.93879002 9:0.12682 10:-0.043570001 11:-0.049559999 12:0.67014998 13:-0.33397999 14:0.54918998 15:-0.056990001 16:-0.30344 17:0.72878999 18:-0.46623999 19:0.38405001 20:0.45871001 21:-0.21992999 22:0.64888 23:-0.42067 24:0.40623999 
-8192 0:0.75891 1:1.50875 2:0.17493001 3:-0.54852003 4:-0.26752999 5:0.39515999 6:0.63827997 7:-0.48231 8:-0.72684997 9:0.30851999 10:-1.3018 11:-0.78632998 12:0.68469 13:-0.60964 14:-0.51538002 15:-1.1494401 16:-0.89047998 17:0.66663998 18:-0.72786999 19:-0.52639002 20:-0.80988002 21:-0.77222002 22:0.72034001 23:-0.64029002 24:-0.41986001 
-8192 0:0.35679001 1:1.02457 2:0.13189 3:-0.61229998 4:-0.06679 5:0.80506003 6:0.31845 7:-0.73932999 8:-0.73260999 9:0.33001 10:-0.30050001 11:-0.72939998 12:0.61379999 13:-0.60637999 14:-0.34748 15:0.10816 16:-0.81733 17:0.65342999 18:-0.69849002 19:-0.41181001 20:-0.0218 21:-0.74921 22:0.67066002 23:-0.62786001 24:-0.41178 
-8192 0:-0.14166 1:-0.18835001 2:0.44411999 3:-0.15873 4:0.74568999 5:0.78658003 6:-0.14361 7:-0.86720997 8:-0.72693998 9:-0.56895 10:-0.61553001 11:-0.54558003 12:0.64691001 13:-0.56347001 14:-0.01292 15:-0.26258999 16:-0.59842002 17:0.77182001 18:-0.64289999 19:-0.07045 20:-0.36853001 21:-0.63283998 22:0.68765998 23:-0.6128 24:-0.14911 
-8192 0:0.31479999 1:0.11332 2:0.20163999 3:0.66821003 4:0.28262001 5:-0.43844 6:-0.40143001 7:-0.37518001 8:-0.45565 9:-0.03087 10:-0.34639999 11:0.24642 12:0.51051003 13:-0.22685 14:0.81251001 15:-1.33464 16:0.46636 17:0.88668001 18:0.06123 19:0.89109999 20:-0.87858999 21:0.3876 22:0.61532003 23:-0.11021 24:0.89714003 
-8192 0:1.08957 1:0.48282 2:0.95178002 3:-0.12598 4:-0.82853001 5:0.00135 6:0.31668001 7:-0.73227 8:-0.47400001 9:0.91288 10:0.093330003 11:-0.44957 12:0.53605002 13:-0.50208002 14:0.12795 15:0.18389 16:-0.59094 17:0.54718 18:-0.60359001 19:0.05412 20:0.31714001 21:-0.51753002 22:0.56668001 23:-0.52406001 24:0.020199999 
-8192 0:1.01884 1:0.65792 2:0.94213998 3:-0.32749999 4:-0.83024001 5:0.1162 6:0.11244 7:-0.55681998 8:-0.29021001 9:0.86685997 10:-0.19921 11:-0.40948001 12:0.61878002 13:-0.50743997 14:0.17578 15:-0.17900001 16:-0.56418997 17:0.67409003 18:-0.60175002 19:0.05565 20:-0.13657001 21:-0.49838001 22:0.64323997 23:-0.54233003 24:0.072750002 
-8192 0:0.90553999 1:0.31726 2:0.24737 3:0.75072998 4:-0.31272 5:-1.4687001 6:-0.90662998 7:0.20597 8:0.10113 9:1.1077 10:0.67047 11:0.67558998 12:-0.25268999 13:0.10434 14:0.90582001 15:0.32708001 16:0.86882001 17:-0.18431 18:0.35957 19:0.94046003 20:0.52183002 21:0.74759001 22:-0.29361999 23:0.18021999 24:0.93032998 
-8192 0:-0.79400998 1:-1.18843 2:0.14016999 3:1.30179 4:1.36331 5:-0.76062 6:-0.86006999 7:-0.46785 8:-0.37222001 9:-0.81061 10:1.49271 11:-0.29442999 12:0.14551 13:-0.41273999 14:0.15849 15:1.4553 16:-0.00321 17:-0.21572 18:-0.2325 19:0.40718001 20:1.31868 21:-0.17592999 22:0.076310001 23:-0.35644999 24:0.2412 
-8192 0:-1.60058 1:-1.23052 2:-1.52634 3:-1.3168401 4:-0.63997 5:1.8766299 6:2.0415101 7:0.81111997 8:0.65411001 9:-0.41846001 10:0.39217001 11:-1.1205699 12:0.58468997 13:-0.66558999 14:-2.30092 15:1.1129301 16:-1.1613801 17:0.61738998 18:-0.77095002 19:-2.36744 20:0.83058 21:-1.10347 22:0.66734999 23:-0.69169998 24:-2.2871001 
-8192 0:-0.54640001 1:-1.1780601 2:0.50084001 3:1.41423 4:0.52358001 5:-0.41795 6:-0.43858999 7:-0.65104002 8:-0.35710001 9:-0.73817998 10:1.34895 11:-0.34446999 12:0.04803 13:-0.37796 14:-0.00036999999 15:1.49959 16:-0.2089 17:-0.30379999 18:-0.28268999 19:0.15025 20:1.23333 21:-0.2545 22:-0.0074 23:-0.32684001 24:0.07683 
-8192 0:-1.54238 1:-0.53394002 2:-1.49062 3:-1.2587399 4:-0.73815 5:1.32199 6:1.89131 7:1.3378299 8:1.19906 9:-0.7342 10:1.04816 11:-1.11742 12:0.58737999 13:-0.66601998 14:-2.1924 15:1.78747 16:-1.16562 17:0.62388998 18:-0.77214003 19:-2.2660301 20:1.3730299 21:-1.10748 22:0.67241001 23:-0.69300002 24:-2.2301099 
-4475.342798202802 0:-0.13942 1:-0.83078998 2:0.57367998 3:1.29403 4:-0.18700001 5:-0.78882998 6:-0.48291001 7:-0.36706999 8:-0.02122 9:0.082489997 10:1.16969 11:-0.21608999 12:-0.090729997 13:-0.25580001 14:0.13837001 15:1.27443 16:-0.19798 17:-0.32618999 18:-0.23954 19:0.14966001 20:1.1328501 21:-0.15522 22:-0.20153999 23:-0.11717 24:0.14972 
-5096.783618124461 0:1.7379 1:1.02895 2:0.60723001 3:0.58814001 4:-0.97820002 5:-1.7108001 6:-1.29526 7:0.53456002 8:0.45892 9:1.51596 10:0.73661 11:2.58324 12:-4.1139998 13:3.7216401 14:1.1806 15:0.40816 16:2.5307801 17:-3.6479199 18:3.59443 19:1.21886 20:0.49075001 21:2.48788 22:-3.8309901 23:3.54705 24:1.21609 
-6160.219497332215 0:1.39994 1:1.05366 2:-0.16356 3:0.06769 4:-1.3337801 5:-1.4858299 6:-0.83429003 7:1.12989 8:1.2991199 9:1.4177001 10:0.74122 11:2.5444701 12:-5.0645099 13:4.4094 14:0.88745999 15:0.65714997 16:2.5167601 17:-4.77952 18:4.1013098 19:0.84789997 20:0.45980999 21:2.4017799 22:-4.5732899 23:3.96543 24:0.98233998 
-8192 0:0.67912 1:-0.24868999 2:0.87252998 3:1.38165 4:0.16757999 5:-1.0066 6:-1.03303 7:-0.44819999 8:-0.39493001 9:-0.083810002 10:0.08862 11:1.71758 12:-1.49769 13:1.3418601 14:1.2838399 15:-0.39930001 16:1.36766 17:-0.80061001 18:1.05502 19:1.20432 20:-0.19802999 21:1.4638 22:-1.10531 23:1.0692199 24:1.24191 
-260.8309350468601 0:-1.19068 1:-1.89698 2:0.35019001 3:0.37621 4:0.59318 5:1.28817 6:0.68488997 7:-1.01782 8:-0.25698 9:-1.70249 10:0.053879999 11:-0.59517998 12:0.4219 13:-0.52219999 14:-0.18397 15:0.38115001 16:-0.75502998 17:0.47009 18:-0.66185999 19:-0.26636001 20:0.23006 21:-0.70362002 22:0.46134001 23:-0.54759002 24:-0.37630001 
-8192 0:0.15268999 1:0.32275999 2:-0.77236998 3:-0.020400001 4:0.52546 5:-0.83893001 6:-0.83616 7:0.77371001 8:0.63779998 9:0.10141 10:0.73066998 11:0.79439998 12:-1.46213 13:0.96381003 14:0.69813001 15:0.69410998 16:1.16169 17:-1.81908 18:1.24641 19:0.85522002 20:0.46996 21:0.97095001 22:-1.62538 23:1.1166 24:0.80930001 
-8192 0:1.37997 1:1.03468 2:0.15978 3:0.4102 4:-0.23569 5:-1.27213 6:-1.2049201 7:0.24089999 8:0.066749997 9:1.07836 10:-0.1259 11:1.53101 12:-2.05672 13:1.69675 14:1.15687 15:-0.0078999996 16:1.8364 17:-2.68874 18:2.29424 19:1.17549 20:-0.22227 21:1.74842 22:-2.421 23:2.06565 24:1.22624 
-8192 0:1.55527 1:0.98141003 2:-0.1512 3:0.48342001 4:-0.019099999 5:-1.55151 6:-1.52817 7:0.31917 8:0.079920001 9:1.33812 10:0.01802 11:1.62637 12:-2.3570399 13:1.91626 14:1.11446 15:0.17849 16:1.9292001 17:-3.02983 18:2.49194 19:1.1121 20:-0.078079998 21:1.88332 22:-2.7953899 23:2.3557999 24:1.19274 
-3033.377534479192 0:0.75092 1:0.17791 2:0.50419003 3:0.7999 4:-0.053599998 5:-1.04215 6:-0.95858002 7:-0.25735 8:0.0093499999 9:0.49987999 10:-0.64201999 11:1.31484 12:-1.65642 13:1.30378 14:1.1099401 15:-0.51415998 16:1.2377501 17:-1.79598 18:1.35408 19:1.06656 20:-0.71161002 21:1.33394 22:-1.69726 23:1.3634 24:1.13763 
-8192 0:-1.12938 1:-0.35126999 2:-1.07619 3:-0.99223 4:-0.32161 5:1.12542 6:1.24417 7:0.76763999 8:0.41494 9:-0.24367 10:0.2001 11:-0.85039997 12:0.67079997 13:-0.63608003 14:-1.17129 15:0.59551001 16:-1.0108401 17:0.66847998 18:-0.75711 19:-1.38841 20:0.67044002 21:-0.97365999 22:0.67434001 23:-0.68083 24:-1.2421499 
-8192 0:0.39186999 1:-0.00551 2:0.53296 3:1.15437 4:0.39827999 5:-1.17389 6:-0.76989001 7:-0.23778 8:-0.38079 9:-0.0020099999 10:-0.10458 11:0.16632999 12:0.18618 13:-0.27895001 14:0.67773998 15:-0.15493 16:0.41466001 17:0.12754001 18:-0.10668 19:0.81049001 20:-0.25154999 21:0.26078999 22:0.18893 23:-0.23356 24:0.74036998 
-8192 0:-0.80018997 1:-1.42828 2:0.84210002 3:1.57828 4:0.75040001 5:-0.051929999 6:-0.16230001 7:-0.92961001 8:-0.52662998 9:-1.61641 10:-0.63674003 11:-0.33373001 12:0.37268001 13:-0.49465999 14:0.25071999 15:-0.52226001 16:-0.24476001 17:0.35842001 18:-0.49897999 19:0.39943999 20:-0.66554999 21:-0.29227 22:0.426 23:-0.49265 24:0.29361001 
-8192 0:1.09703 1:0.99065 2:-0.68978 3:-0.0046199998 4:-0.54466999 5:-1.38782 6:-0.73817003 7:0.76788002 8:0.64231998 9:1.56813 10:0.71166003 11:0.40303999 12:0.052340001 13:-0.11663 14:0.77153999 15:0.37413001 16:0.78754002 17:-0.088689998 18:0.1904 19:0.84331 20:0.44269001 21:0.59421998 22:-0.033950001 23:0.0054600001 24:0.85874999 
-8192 0:0.78026998 1:0.59638 2:-0.052590001 3:0.71403998 4:0.62401998 5:-1.45046 6:-1.50831 7:0.069459997 8:-0.20446999 9:0.78904003 10:-0.25003999 11:0.58008999 12:-0.072449997 13:0.076180004 14:0.92918998 15:-0.42989999 16:1.13966 17:-0.27022001 18:0.58645999 19:1.0638 20:-0.43924999 21:0.80524999 22:-0.13094001 23:0.17575 24:1.0065399 
-8192 0:-0.13658001 1:-0.9623 2:1.22873 3:0.73209 4:-0.0902 5:0.11017 6:0.30307999 7:-1.1547 8:-0.59069997 9:-0.25771999 10:0.01161 11:-0.46849 12:0.41859001 13:-0.48515999 14:0.061349999 15:0.31808001 16:-0.62212002 17:0.42168 18:-0.59906 19:-0.093879998 20:0.39131001 21:-0.52617002 22:0.45012 23:-0.51804 24:-0.070150003 
-8192 0:0.96494001 1:0.47503 2:-0.12183 3:0.63992 4:0.14597 5:-1.15653 6:-1.17334 7:0.086920001 8:0.096600004 9:0.62812001 10:0.51051998 11:0.76437998 12:-0.69859999 13:0.43628001 14:0.93181002 15:0.35409001 16:1.07657 17:-1.2599601 18:0.83693999 19:0.97494 20:0.21127 21:0.89605999 22:-0.84776002 23:0.52981001 24:0.95898002 
-8192 0:1.38618 1:0.44150001 2:0.77415001 3:1.0502 4:-0.31551 5:-1.61485 6:-1.35991 7:-0.2202 8:-0.19663 9:1.25948 10:0.28698999 11:1.15904 12:-0.64986002 13:0.63543999 14:1.1586699 15:0.15425 16:1.39495 17:-0.90569001 18:1.0786099 19:1.19365 20:0.17675 21:1.29002 22:-0.77631998 23:0.76425999 24:1.17338 
